SVM-light Version V4.00
0 # kernel type
3 # kernel parameter -d 
1 # kernel parameter -g 
1 # kernel parameter -s 
1 # kernel parameter -r 
empty # kernel parameter -u 
1772 # highest feature index 
1192 # number of training documents 
923 # number of support vectors plus 1 
0.59831571 # threshold b 
-0.0045497107567664119009975820517866 350:1 368:1 801:1 882:1 1295:2 1512:1 1610:1 
-0.069363526044337348031021406313812 8:1 84:1 184:1 589:1 602:1 969:1 1004:1 1083:1 1118:1 1229:1 1243:1 1313:1 1423:1 1492:1 1625:1 
-0.027663514853029209927814946468061 139:1 288:2 398:1 417:1 494:1 511:1 588:1 597:1 686:2 720:1 775:1 1093:2 1135:2 1140:1 1389:1 1452:1 1533:1 1677:2 1768:1 
-0.069363526044337348031021406313812 84:1 411:1 637:1 655:1 786:1 796:1 828:1 900:1 962:2 1517:1 1681:1 1695:1 
-0.011553402191283531491583502770482 755:1 950:1 983:1 1057:1 1167:1 1235:1 1323:2 1468:2 1582:2 1701:1 
0.0076878561247469088396622183267937 12:1 42:1 191:1 452:1 873:1 909:1 1334:1 1530:1 1664:2 
0.056429657236999351821449266708441 174:1 611:2 805:1 817:1 852:1 873:1 992:1 1061:1 1118:1 1346:1 1347:2 1670:1 1675:2 
0.05259054326300990900300291741587 40:1 441:1 444:1 559:1 649:2 654:1 783:1 811:1 1089:1 1172:1 1205:1 1287:1 1380:1 1447:1 1497:1 1578:1 1627:1 1689:1 1738:1 
0.069363526044337348031021406313812 697:1 718:1 
0.069363526044337348031021406313812 2:1 165:1 200:1 210:1 327:1 529:1 640:1 776:1 1039:1 1397:1 1589:1 1632:1 
-0.069363526044337348031021406313812 2:2 327:2 336:1 369:1 441:1 587:1 732:1 1012:1 1249:1 1404:1 1540:2 1589:1 1622:1 1697:1 1750:1 
-0.0074896287071805059051832209604527 100:2 116:1 191:1 611:1 675:1 788:1 852:1 909:1 980:1 1146:1 1340:1 1347:2 
-0.06553308762935995679388412327171 2:2 336:1 369:2 386:2 441:1 957:1 1012:1 1119:1 1283:2 1397:1 1400:2 1404:3 1536:1 1589:1 1697:1 
-0.069363526044337348031021406313812 379:1 477:1 649:2 654:2 691:1 712:2 1023:1 1077:1 1589:1 1637:1 
-0.069363526044337348031021406313812 2:1 164:1 270:1 313:1 559:2 569:1 573:1 813:1 1221:1 1255:1 1287:1 1433:1 1504:1 1627:1 1689:1 
0.069363526044337348031021406313812 59:1 250:1 373:1 398:1 404:1 686:1 935:1 952:1 1093:2 1135:1 1143:2 1175:1 1288:1 1436:1 1533:1 
0.044268178771051859554663820972564 247:1 252:1 288:1 298:1 377:1 511:1 940:1 1135:2 1143:1 1177:1 1452:2 1580:1 1606:1 
0.069363526044337348031021406313812 28:1 59:2 247:1 250:1 288:1 377:1 398:1 404:1 445:1 511:2 570:1 588:1 705:1 829:1 935:1 940:1 1093:1 1166:1 1202:2 1551:1 1604:1 
0.069363526044337348031021406313812 409:1 829:1 1135:1 1166:1 1452:2 1533:1 1677:1 
0.069363526044337348031021406313812 113:1 132:1 402:1 445:1 559:2 686:2 775:1 829:1 1024:1 1093:1 1287:1 1551:1 1606:1 1677:1 
-0.064792450519182170909360252153419 64:1 132:1 168:1 288:1 297:1 335:1 404:2 417:1 829:1 1135:1 1143:1 1175:1 1288:1 1349:1 1551:3 
-0.069363526044337348031021406313812 59:1 247:1 402:2 775:1 906:1 940:1 1024:1 1143:3 1573:1 
-0.046928347630560751646555672778049 41:1 64:1 168:1 398:1 402:3 409:2 417:1 494:1 774:1 829:1 1143:1 1234:3 1551:2 1676:2 1747:1 
-0.069363526044337348031021406313812 59:1 269:2 682:2 720:1 829:2 857:1 1024:2 1135:1 1204:1 1234:2 1551:1 
-0.069363526044337348031021406313812 288:1 318:1 398:1 404:1 445:1 511:4 588:1 687:1 775:1 935:1 952:2 1093:1 1580:1 1604:1 1606:1 
0.069363526044337348031021406313812 2:1 327:2 497:1 571:1 743:1 813:1 957:1 1012:1 1374:1 1589:1 1627:1 1697:1 1750:1 
0.015832937297700869216932062499836 2:1 87:1 325:3 441:1 587:1 649:1 732:2 957:1 1179:1 1251:1 1393:1 1620:1 1697:3 
0.068757302373458853428367376636743 2:1 336:1 366:2 386:1 441:1 587:1 783:1 1012:1 1249:1 1317:1 1540:1 1620:2 1697:1 1735:1 1750:1 
0.069363526044337348031021406313812 60:1 307:1 374:1 676:1 1170:1 1484:1 
0.069363526044337348031021406313812 100:1 116:1 181:1 191:1 446:1 867:1 909:1 1061:1 1217:1 1344:1 1347:2 
-0.044350968103959664823321418225532 1:1 884:1 1047:1 1115:1 1181:1 1662:1 
-0.017444758931994073375415510440689 2:1 48:1 230:1 325:1 386:3 497:2 571:1 610:1 743:2 749:2 1400:1 1536:1 1587:1 1754:2 
-0.029303758660044833955771181877026 153:1 395:1 562:1 692:1 739:1 772:1 945:1 981:1 1017:1 1214:4 1428:1 1647:1 1671:2 
-0.012517259778817298176978312085339 24:2 200:1 264:2 325:1 441:1 497:1 743:1 876:2 1081:1 1313:1 1317:1 1374:1 1407:2 1543:1 1555:1 1643:1 1721:1 1754:1 
0.069363526044337348031021406313812 300:1 335:2 398:1 511:1 682:1 774:1 775:1 952:3 1024:2 1071:1 1177:1 1604:1 
0.069363526044337348031021406313812 59:1 168:1 300:2 335:1 402:2 829:1 1135:2 1143:2 1166:1 1202:1 1234:1 1573:1 
0.055342232571908046845354789411431 179:1 391:1 402:1 565:3 682:1 1024:2 1135:1 1186:1 1234:1 1303:1 1377:1 1551:1 
0.069363526044337348031021406313812 30:1 64:1 398:1 409:1 568:1 687:1 742:1 774:1 829:1 1024:1 1045:1 1135:1 1143:1 1180:1 1234:1 1551:1 1677:1 
-0.069363526044337348031021406313812 19:1 250:1 288:1 1041:1 1135:1 1177:1 1452:1 1677:1 
-0.069363526044337348031021406313812 28:1 221:1 297:1 343:1 398:3 404:1 512:2 829:2 974:1 1093:1 1169:1 1580:1 1677:1 
-0.069363526044337348031021406313812 30:2 64:1 335:1 402:1 407:1 742:1 782:1 829:1 959:1 991:1 1093:1 1162:1 1677:1 
-0.069363526044337348031021406313812 221:1 250:1 267:1 416:1 565:1 598:1 1011:1 1093:1 1303:1 1377:2 1593:1 1604:1 1709:1 
-0.069363526044337348031021406313812 781:1 908:1 983:1 1394:1 1427:1 1636:1 1701:1 
0.069363526044337348031021406313812 369:1 497:1 571:1 819:3 1179:2 1317:1 1400:3 1404:1 1540:1 1697:1 1750:1 1754:1 
0.069363526044337348031021406313812 31:2 69:1 80:1 82:1 264:1 497:1 571:2 677:1 749:1 1251:1 1397:1 1407:1 1437:1 1543:1 1555:1 
0.069363526044337348031021406313812 84:1 86:1 190:1 245:1 264:1 493:1 957:1 1400:2 1540:1 
0.069363526044337348031021406313812 2:1 325:1 571:2 649:1 1400:1 1448:1 1574:1 1589:1 1609:1 
0.069363526044337348031021406313812 2:1 164:1 336:1 366:1 532:1 966:1 1536:1 1757:1 
-0.048830888287875330588949651655639 300:3 327:1 351:1 571:1 732:1 742:1 813:1 952:1 1045:1 1163:1 1169:1 1177:1 1223:1 1337:1 1504:2 1589:1 1622:1 
-0.028959515401275268131620066469623 172:1 264:1 274:1 453:1 521:1 571:1 777:1 819:1 871:1 897:1 937:1 1350:1 1423:1 1575:1 1738:1 
-0.028284455094855463774816684008329 69:1 86:1 185:1 245:2 257:1 286:1 291:1 358:1 375:1 521:1 718:1 937:1 1422:1 1437:1 1575:1 
-0.069363526044337348031021406313812 230:1 262:1 325:1 431:1 819:1 1102:1 1251:1 1397:1 1400:1 1543:1 1574:1 
0.069363526044337348031021406313812 130:1 221:2 834:1 935:1 1011:2 1090:2 1377:1 1439:1 1580:1 1593:1 1709:1 1711:2 
0.069363526044337348031021406313812 215:1 221:1 288:1 304:1 319:1 458:1 914:1 939:1 1093:1 1134:1 1593:1 1604:1 1709:1 
0.069363526044337348031021406313812 30:1 77:1 189:1 209:1 283:1 382:1 494:1 782:1 829:1 857:1 906:1 935:1 1108:1 1143:1 1186:1 1322:1 1576:1 1604:1 1677:2 
0.069363526044337348031021406313812 77:1 288:1 398:1 417:1 774:1 829:1 1011:1 1143:1 1418:1 1491:1 1641:1 
0.069363526044337348031021406313812 51:1 64:2 269:1 627:1 1112:1 1135:1 1234:1 1288:1 1449:1 1472:1 1496:1 1551:1 1676:1 
-0.060941853789613587011331219400745 64:2 288:1 298:1 315:1 377:1 774:2 1143:2 1188:1 1202:2 1349:1 1469:1 1491:1 1551:1 
-0.069363526044337348031021406313812 89:1 445:2 565:1 1011:1 1090:1 1134:1 1158:1 1186:2 1195:1 1439:1 1699:1 1711:1 
-0.0071749009163751291048849445530777 18:1 267:1 298:1 494:1 631:1 707:1 1016:1 1421:1 1452:1 1516:1 
-0.048390807508892574873016201308928 209:2 348:1 580:1 598:1 834:1 1011:2 1093:1 1169:1 1186:3 1188:1 1576:1 1593:3 
0.069363526044337348031021406313812 55:1 86:1 185:1 270:1 521:1 595:1 655:2 718:1 778:1 1083:1 1200:1 1350:1 1366:1 1422:1 
0.069363526044337348031021406313812 55:2 86:1 185:2 245:1 375:1 621:1 630:2 655:1 897:1 899:1 917:1 937:1 1153:1 1422:1 
0.069363526044337348031021406313812 87:1 169:1 358:1 369:1 386:1 421:1 587:1 1313:1 1374:1 1397:1 1622:1 1729:1 
0.069363526044337348031021406313812 245:2 375:1 437:1 595:1 621:1 819:1 871:1 899:1 1407:1 1437:1 1643:1 
0.069363526044337348031021406313812 86:2 185:1 375:1 521:2 778:1 899:1 1170:1 1200:1 1350:1 1555:1 1609:1 1634:1 1735:1 
-0.069363526044337348031021406313812 31:2 86:1 200:1 245:1 431:1 595:1 777:1 871:1 899:1 957:1 1350:1 1422:1 1423:1 1643:1 1735:1 
-0.043884641572507654405654875517939 55:3 84:1 184:1 185:1 291:1 375:1 521:1 602:1 621:1 630:1 718:1 871:1 900:1 937:1 1083:1 1153:1 1200:1 1643:1 
-0.064839761366953102550425569461368 55:1 86:1 185:1 375:1 521:1 655:1 900:1 1200:1 1350:1 1403:1 1422:1 1735:1 
-0.015501929389589256050308030410179 55:1 69:1 185:1 245:2 286:1 375:2 595:1 677:3 777:1 1136:1 1350:1 1721:1 
-0.0433940843353074617860798412039 60:1 86:1 185:2 375:2 497:1 521:1 677:1 911:1 1350:1 1381:1 1422:1 1528:1 1735:1 
0.069363526044337348031021406313812 130:1 253:1 284:1 565:1 834:1 991:1 1011:1 1186:2 1439:1 1573:2 1580:1 
0.069363526044337348031021406313812 139:1 304:1 398:1 402:1 409:1 762:1 952:1 1011:1 1186:1 1195:1 1202:1 1224:1 1297:1 
0.0099006924138162356180403733674211 287:1 326:1 340:1 780:1 909:1 960:1 992:1 1033:2 1061:1 1126:1 1168:1 1547:1 1599:1 1708:1 1767:1 
0.069363526044337348031021406313812 128:1 179:1 398:1 565:1 654:1 742:1 860:1 1134:1 
-0.020413767897806425755113934883411 77:1 139:1 179:1 247:1 288:1 511:1 686:1 775:1 834:2 1016:1 1024:2 1134:1 1135:1 1573:2 1593:1 
-0.061917706377673090156754653889948 130:1 192:1 253:1 319:2 585:1 1011:2 1090:1 1134:1 1377:1 1573:1 1709:1 1711:1 
-0.013169818128206981291961064073348 89:1 154:1 170:1 304:4 348:1 426:1 534:1 958:3 1017:1 1154:1 1267:1 1360:1 1464:1 1682:1 1687:1 1699:1 
-0.069363526044337348031021406313812 3:1 77:1 250:1 330:1 336:1 588:2 617:1 649:1 935:2 1186:1 1216:1 1247:1 1274:1 1472:1 1573:1 1686:1 
-0.069363526044337348031021406313812 18:1 179:1 300:1 432:1 590:1 935:1 974:1 1135:1 1475:2 1604:1 1749:1 
0.069363526044337348031021406313812 31:1 80:1 521:1 897:1 1086:1 1189:1 1283:1 1390:1 1487:1 1575:1 1735:1 
0.069363526044337348031021406313812 55:2 69:1 291:1 718:1 937:1 1437:1 1621:1 1735:1 
-0.069363526044337348031021406313812 351:1 385:1 603:1 778:1 1103:1 1199:1 1437:2 1455:1 1656:1 1667:1 1729:1 1735:1 
-0.069363526044337348031021406313812 55:1 69:1 84:1 188:1 190:2 262:2 521:1 718:1 778:1 1200:2 1327:1 1375:1 1621:2 
-0.069363526044337348031021406313812 42:1 446:1 909:1 1061:1 1198:1 1599:1 1634:1 
-0.0051278093136961980236243618946901 80:1 145:1 439:1 510:1 641:1 697:1 808:1 1006:1 1039:1 1104:1 1122:1 1448:1 1734:2 
0.069363526044337348031021406313812 278:1 284:1 330:1 343:1 426:1 445:1 598:1 686:1 746:1 1093:1 1135:1 1169:1 1175:1 1645:1 1749:1 
0.069363526044337348031021406313812 344:1 447:1 483:1 564:2 572:1 799:1 951:1 1119:1 1164:2 1375:1 1403:1 1423:2 1566:1 1643:1 
0.069363526044337348031021406313812 130:1 288:1 319:1 1071:1 1267:1 1464:1 1573:1 1593:1 1709:1 
0.069363526044337348031021406313812 269:1 850:1 1011:1 1221:1 1488:1 1573:1 1711:1 
-0.069363526044337348031021406313812 99:1 117:1 522:1 1516:1 1580:1 
-0.069363526044337348031021406313812 31:1 86:1 358:2 497:1 819:1 897:2 1128:1 1183:1 1192:1 
-0.045747860159251321765516706818744 51:1 493:2 593:1 686:1 1683:1 
-0.061377370169180635317562888531029 116:1 160:1 479:1 675:1 849:3 852:1 1107:1 1217:2 1344:1 1346:1 1347:2 
0.030073996358596435940491176097566 313:1 375:1 420:1 602:1 742:1 871:2 917:1 1135:1 1551:1 1620:1 1697:1 
0.069363526044337348031021406313812 9:1 56:1 84:1 473:1 602:1 900:1 997:1 1000:1 1212:1 1327:1 1366:1 1590:1 
0.069363526044337348031021406313812 36:1 46:1 262:1 444:2 486:2 712:1 993:1 1589:1 
0.069363526044337348031021406313812 58:1 84:1 169:1 286:1 464:1 600:1 689:1 777:1 871:1 917:1 1390:1 1600:1 1738:1 
0.069363526044337348031021406313812 186:1 190:2 203:1 312:1 547:1 626:1 864:2 872:1 900:1 1083:1 1531:1 1654:1 1681:1 
-0.069363526044337348031021406313812 9:1 203:2 1083:3 1164:2 1212:1 1281:1 1531:1 1634:2 1652:2 
-0.069363526044337348031021406313812 203:2 750:1 1042:1 1083:1 1110:1 1111:1 1164:2 1531:2 1652:1 1703:1 
-0.050955860764991173228466436739836 9:2 56:3 374:1 464:1 997:1 1160:3 1309:1 1318:1 1402:1 1448:1 1548:1 
-0.058188812191120875549898983081221 25:1 61:1 374:2 464:3 624:1 872:2 997:1 1281:1 1572:2 1703:1 
-0.034112131117061045282312647941581 400:1 489:1 897:1 918:1 1300:1 1529:1 1555:1 
0.069363526044337348031021406313812 96:1 160:1 268:2 849:2 980:1 1218:1 1569:1 1618:1 
0.069363526044337348031021406313812 227:1 290:1 476:1 479:1 909:1 982:1 1146:2 1217:1 1340:1 1347:1 1515:1 1566:1 
0.069363526044337348031021406313812 17:1 286:1 351:1 437:1 441:1 497:1 617:1 718:1 732:1 1309:1 1381:1 1433:1 1543:1 
0.069363526044337348031021406313812 2:1 17:1 86:1 200:1 421:1 778:1 897:1 1102:1 1183:1 1192:1 1555:1 1579:1 
0.069363526044337348031021406313812 60:1 431:1 655:1 777:1 897:1 1313:1 1543:1 1735:1 
-0.058171639908690356279841182640666 82:1 86:2 286:3 630:1 722:1 777:1 897:1 1528:1 1543:1 1609:1 
-0.069363526044337348031021406313812 36:1 201:1 301:2 327:2 336:1 420:1 444:2 493:1 712:2 732:1 746:1 966:1 1283:1 1433:1 1622:1 
-0.069363526044337348031021406313812 113:1 301:1 356:1 435:2 444:1 493:1 559:3 658:1 712:1 966:1 1045:1 1112:1 1142:1 1287:1 1380:1 
-0.069363526044337348031021406313812 17:1 53:1 124:1 366:1 493:1 571:1 630:1 698:1 979:1 1391:1 1543:1 1544:1 1735:1 1754:1 
-0.069363526044337348031021406313812 2:1 4:1 58:1 94:1 283:1 420:1 444:1 532:1 597:1 746:1 769:1 1077:1 1081:1 1163:1 1251:1 1283:1 1287:1 1772:1 
0.069363526044337348031021406313812 203:1 291:1 312:1 431:1 547:1 659:1 868:1 1160:2 1164:2 1309:1 1325:1 1403:1 1548:1 1652:1 
0.05052437929847265057903271667783 203:1 626:1 750:1 872:1 1160:2 1325:1 1366:2 1403:1 1634:2 1652:1 1695:1 1700:1 
0.032249943079125410749785629604958 308:1 374:1 521:1 540:1 750:2 871:2 997:1 1366:2 1375:1 1402:1 1429:1 1531:1 1607:2 1703:1 
0.069363526044337348031021406313812 308:1 374:1 464:1 648:1 1042:1 1075:1 1318:1 1429:1 1572:1 
0.069363526044337348031021406313812 56:1 265:1 449:1 464:1 624:1 676:1 997:2 1281:2 1416:1 1476:1 1680:1 
-0.0036916252288322001784415249403537 37:1 120:1 219:1 246:1 305:1 314:1 387:1 474:1 549:1 825:1 1124:1 1133:1 1417:2 1431:1 1552:1 1659:1 1679:1 1688:1 
-0.061786202108780371999863234577788 312:1 483:1 659:2 951:1 997:1 1160:2 1327:3 1403:2 1531:1 
-0.067096085726599391518831794201105 25:1 203:1 400:1 483:1 624:1 800:1 900:1 951:1 997:1 1110:1 1160:3 1222:1 1281:1 1325:2 1398:1 1403:1 1634:1 
-0.049866140081721785359825105388154 326:1 489:1 501:1 505:1 519:1 572:1 648:2 744:2 1359:1 1416:1 1432:1 1522:1 1566:1 1600:1 
-0.069363526044337348031021406313812 20:1 519:1 569:1 621:1 626:1 640:1 648:1 659:1 797:1 801:1 851:1 864:1 1072:1 1432:1 1654:1 
0.020328517806939883777461730574032 4:3 113:1 225:1 417:1 420:1 435:1 559:1 712:1 1045:1 1180:1 1421:1 1436:2 1757:1 
0.069363526044337348031021406313812 221:1 348:1 391:1 402:1 444:1 649:1 658:1 712:1 996:1 1012:1 1142:1 1287:1 1393:1 1436:1 1699:1 
0.059198492726175534761612340162173 420:2 487:1 559:1 593:1 712:1 935:2 989:2 1287:1 1676:1 
0.069363526044337348031021406313812 46:1 113:1 336:1 532:1 559:1 712:1 941:1 1247:1 1436:1 1622:1 
0.069363526044337348031021406313812 172:1 286:1 722:1 1012:1 1095:1 1153:1 1278:1 1313:1 1528:1 1536:1 1555:1 1656:1 
-0.011540839873506833490601763969607 174:1 231:2 261:1 294:1 392:1 517:1 780:1 792:2 980:1 982:1 1048:1 1061:1 1767:1 
-0.037476387320190769625316562496664 41:1 51:1 113:1 128:1 189:2 356:1 417:1 444:1 493:1 568:1 712:1 989:1 996:1 1045:2 1112:1 1436:2 
-0.02291459064206236365124347287292 170:1 221:2 253:2 348:1 536:1 738:2 754:1 913:1 1105:1 1333:1 1439:1 1441:1 1541:1 1554:1 1595:1 
-0.069363526044337348031021406313812 111:1 113:2 128:1 225:1 363:1 420:1 839:1 850:1 989:1 1112:2 1142:1 1180:1 1449:2 1747:1 
-0.069363526044337348031021406313812 4:1 301:1 356:1 420:2 617:1 686:1 712:3 831:1 979:1 989:2 1142:1 1223:1 1247:1 1287:1 1683:1 
0.012608448578897639424933885266 265:1 307:1 392:1 439:1 501:2 505:1 648:2 744:1 1033:1 1075:4 1110:1 1359:2 1402:1 1416:1 1566:1 
0.069363526044337348031021406313812 63:1 277:1 294:1 329:1 396:1 400:1 637:1 852:1 969:1 1083:1 1111:1 1153:1 1168:1 1207:1 1343:1 1359:1 1429:1 1432:1 
0.069363526044337348031021406313812 86:1 277:1 608:1 621:1 800:1 803:1 872:1 1200:1 1327:1 1510:1 1531:1 
0.069363526044337348031021406313812 25:1 308:1 439:1 446:1 464:1 489:3 501:1 855:1 943:1 1075:1 1281:1 1318:1 1432:1 1484:1 
0.043742839886483836364661215156957 42:1 137:1 340:1 501:1 519:2 852:1 960:2 1056:1 1359:1 1432:1 1476:1 1618:1 1670:1 1730:1 
-0.069363526044337348031021406313812 12:1 294:1 340:1 446:1 611:1 792:1 1033:1 1146:1 1300:1 1346:1 1515:1 1680:1 
-0.069363526044337348031021406313812 25:1 439:1 473:1 489:1 624:1 648:1 676:1 1075:2 1315:1 1572:1 1590:1 1600:1 
-0.069363526044337348031021406313812 88:1 227:1 307:1 308:1 1359:2 1511:1 
-0.05204904963360282993400929285599 10:1 256:1 268:1 476:1 835:1 891:1 1176:1 1618:1 1628:2 1742:2 
-0.06072264746254094763822095615069 180:1 181:1 208:1 353:1 436:1 476:1 554:1 1207:1 1321:1 1359:1 1447:1 1478:1 1549:1 
0.069363526044337348031021406313812 4:1 41:1 162:1 164:1 420:1 435:1 568:1 686:1 746:1 989:1 1012:1 1112:1 1223:2 
0.069363526044337348031021406313812 117:1 323:1 426:1 504:1 738:3 794:1 913:1 956:1 1051:1 1154:1 1158:1 1666:2 
0.069363526044337348031021406313812 409:1 580:1 597:1 766:1 952:1 974:1 1024:1 1045:1 1377:1 1441:1 1747:1 
0.069363526044337348031021406313812 4:1 164:1 420:1 778:1 783:1 989:2 1112:1 1404:1 1589:1 
0.069363526044337348031021406313812 94:1 250:1 318:1 588:1 738:1 821:1 1013:1 1093:1 1551:1 
-0.069363526044337348031021406313812 170:1 215:1 276:1 304:1 426:1 590:1 738:1 821:4 1082:1 1154:1 1682:1 
-0.069363526044337348031021406313812 173:1 215:2 323:1 504:1 821:2 898:1 913:1 956:1 1134:1 1154:1 
-0.069363526044337348031021406313812 5:1 117:1 284:1 504:1 738:1 754:1 833:1 1082:1 1099:1 1154:1 1395:1 1418:1 1702:2 
-0.069363526044337348031021406313812 173:1 284:1 304:1 348:1 426:2 504:2 534:1 878:1 939:1 1051:1 1134:1 1154:1 1337:1 1441:1 
-0.063222880136374448589720032032346 59:1 77:1 168:1 250:1 318:2 352:1 391:2 738:1 1090:1 1187:1 1280:1 1365:1 1439:1 1441:1 
0.069363526044337348031021406313812 61:1 242:1 517:1 540:1 624:1 676:1 744:1 800:1 1228:1 1315:1 1590:1 1599:1 1600:1 1607:1 1730:1 
0.069363526044337348031021406313812 439:3 505:1 607:1 1033:1 1300:1 1416:2 1547:1 
0.016224633985731821278486464166235 294:1 439:1 501:1 505:1 517:1 519:1 608:1 611:1 678:1 744:1 780:2 1033:3 1126:1 1141:1 1556:1 1600:1 1767:1 
-0.062056945581701654368611542622602 174:1 231:1 392:1 517:1 611:1 780:1 792:1 909:1 1033:2 1228:3 1413:2 1599:1 
-0.069363526044337348031021406313812 25:2 242:2 392:1 439:3 473:1 489:2 501:1 744:1 855:2 1315:1 1359:1 1398:1 1590:2 
-0.035745128645922781551735880611886 222:1 231:1 648:1 780:1 792:1 967:1 980:1 1033:2 1061:3 1429:1 1566:1 
-0.069363526044337348031021406313812 135:1 261:1 392:2 400:1 401:1 517:1 678:1 740:2 855:1 1170:1 1222:1 1402:1 
-0.069363526044337348031021406313812 291:1 439:1 464:1 855:1 951:1 1114:1 1300:1 1402:1 1429:1 1607:1 1680:1 1703:1 1707:1 
0.069363526044337348031021406313812 77:1 173:1 209:1 319:1 331:1 426:1 512:1 821:1 898:1 913:1 958:1 1090:1 1105:1 1154:1 1439:1 
0.069363526044337348031021406313812 215:1 284:1 348:1 735:1 821:1 878:1 913:2 1134:1 1337:1 
0.069363526044337348031021406313812 192:2 416:1 504:1 898:1 1682:1 1702:1 
0.069363526044337348031021406313812 202:1 215:2 304:1 504:1 762:1 865:1 898:2 956:1 1082:1 1105:2 1682:1 1743:1 
0.069363526044337348031021406313812 153:1 198:1 215:1 288:1 348:1 445:1 821:1 829:1 898:1 913:1 956:1 1011:1 1191:1 1441:1 1519:1 
-0.042206101297506605496412390721162 352:1 492:2 693:1 738:1 878:3 898:3 1105:1 1154:1 
-0.069363526044337348031021406313812 117:1 215:1 304:1 348:1 426:1 762:1 804:1 913:2 1105:1 1154:1 
-0.069363526044337348031021406313812 79:1 198:2 426:1 590:1 738:1 821:1 898:1 956:1 1191:1 1519:2 
-0.056968170745176627267625235617743 492:1 590:1 738:1 762:1 804:1 898:2 939:1 1090:1 1464:1 1519:1 1682:3 1687:1 
0.069363526044337348031021406313812 12:1 261:2 476:1 566:1 611:1 780:1 980:1 982:1 1048:1 1061:1 1146:1 1300:1 
0.069363526044337348031021406313812 23:1 392:1 489:1 676:1 744:1 872:1 947:1 1001:1 1033:1 1330:1 1359:1 1402:1 1429:1 1484:1 1607:1 1680:2 
0.069363526044337348031021406313812 222:1 519:1 611:1 855:1 967:1 1033:1 1599:2 
0.020901768070864478604731218069901 25:1 92:3 265:1 392:1 540:1 601:1 800:1 838:1 872:1 963:1 1256:1 1398:1 1402:1 1607:1 1680:1 
0.069363526044337348031021406313812 199:1 222:1 261:3 342:1 517:1 519:1 678:1 792:1 873:1 947:1 
-0.069363526044337348031021406313812 284:1 319:1 416:1 1011:1 1573:2 1709:1 
-0.069363526044337348031021406313812 54:1 288:1 330:2 331:1 402:1 687:1 1093:2 1135:1 1320:1 1580:1 
-0.069363526044337348031021406313812 8:1 838:1 860:1 871:1 872:1 1070:1 1460:1 1632:1 
0.069363526044337348031021406313812 153:1 343:1 348:1 426:1 504:1 590:1 898:1 1105:1 1267:1 1297:1 1519:1 1562:1 1743:1 
0.013226736341359530274575107000601 153:1 215:1 304:1 348:1 426:1 458:1 590:1 738:1 898:1 1267:1 1331:1 1720:1 
0.069363526044337348031021406313812 198:1 202:1 352:1 381:1 426:1 534:1 585:1 736:1 739:1 833:1 853:1 1297:1 1365:1 1562:1 
0.069363526044337348031021406313812 170:1 215:1 426:1 458:1 738:1 878:1 1162:1 1193:1 1280:1 1595:1 
-0.01236814179080474897232111430867 83:1 216:1 467:1 692:1 711:1 818:1 928:2 1019:1 
0.019484903147507809384464394497627 4:1 301:1 369:1 532:1 614:1 649:1 732:1 979:1 1012:1 1249:1 1433:1 1750:1 
-0.045369673726329676211044272804429 198:1 309:2 337:1 370:1 509:1 853:1 945:1 1297:2 1365:1 1601:1 1605:1 1647:1 1671:2 
-0.069363526044337348031021406313812 26:1 70:1 198:1 695:1 833:1 1139:1 1191:1 1267:1 1297:1 1331:1 1360:1 1562:1 1720:1 
-0.033197786239609713976328464468679 140:1 328:1 381:1 423:1 623:1 739:1 822:1 1297:1 1424:1 1601:1 
0.069363526044337348031021406313812 79:1 173:1 377:1 418:1 762:1 834:1 958:1 1267:1 1320:1 1337:1 1395:1 1519:1 1567:1 1573:1 1709:1 
0.069363526044337348031021406313812 30:1 168:1 247:1 288:1 335:1 940:1 1469:1 1677:1 
0.069363526044337348031021406313812 201:1 230:1 477:1 626:2 791:1 810:1 1447:2 1471:1 1637:2 
0.069363526044337348031021406313812 2:1 20:1 82:1 185:1 200:1 307:1 344:1 386:1 483:1 872:1 1070:1 1083:1 1738:1 1757:1 
-0.034157070750013174276205063506495 143:1 166:1 212:1 329:1 647:1 723:1 1122:2 1131:1 1226:1 1330:1 1338:1 1343:1 
-0.069363526044337348031021406313812 139:1 209:1 215:1 221:1 323:1 377:1 593:1 821:1 1024:1 1112:1 1140:1 1267:1 1551:1 1580:1 
-0.069363526044337348031021406313812 130:1 170:1 252:1 284:1 348:1 567:1 580:1 714:1 735:1 794:1 1290:2 1337:1 1377:1 
-0.069363526044337348031021406313812 267:1 297:1 298:1 373:1 377:1 494:1 588:1 829:1 952:1 1108:1 1135:1 1175:1 1449:1 1469:1 1676:1 1677:1 1747:1 
-0.069363526044337348031021406313812 222:2 340:1 519:1 572:1 611:1 889:4 947:1 1228:1 1413:1 1599:2 
0.069363526044337348031021406313812 70:1 328:2 509:3 590:1 736:1 772:1 945:1 1064:1 1174:1 1297:1 1720:1 
0.069363526044337348031021406313812 198:1 331:1 509:1 590:1 804:1 837:1 1105:1 1269:1 1369:1 1601:1 1728:1 
0.069363526044337348031021406313812 133:1 153:1 492:1 502:1 651:1 768:1 878:1 1017:1 1139:1 1214:1 1267:1 1297:1 1360:1 1459:1 1519:1 1562:1 1577:1 1728:1 
0.069363526044337348031021406313812 5:1 117:1 284:1 328:1 504:1 651:1 833:2 1002:1 1064:1 1105:1 1186:1 1290:1 1464:1 1519:1 1562:1 1651:1 1728:1 
0.069363526044337348031021406313812 179:1 284:1 297:1 402:1 409:1 586:1 651:1 821:1 833:1 1154:1 1439:1 1564:1 1586:1 1714:1 
-0.069363526044337348031021406313812 70:1 331:1 426:1 492:1 590:1 804:1 898:1 1064:1 1105:1 1519:1 1562:3 
-0.069363526044337348031021406313812 79:1 153:1 154:2 215:1 304:1 426:1 492:1 878:2 958:1 1099:1 1105:1 1139:1 1345:1 
-0.053710467001827910671352128701983 370:2 395:2 509:2 562:1 736:1 772:2 1269:1 1277:1 1477:1 1586:1 1605:1 1671:1 1714:1 
-0.036963282132687597103526400132978 136:1 337:1 381:1 509:2 739:3 1174:1 1191:1 1365:1 1424:1 1577:1 1728:2 
-0.019166530462415617280802493382907 136:1 328:1 509:1 651:1 709:1 739:1 956:1 1345:1 1360:2 1369:1 1562:1 
0.069363526044337348031021406313812 127:1 225:1 444:1 486:1 493:1 593:1 1112:1 1175:1 1247:1 1272:1 1646:1 
0.069363526044337348031021406313812 340:1 400:1 446:1 519:1 648:1 889:1 
0.069363526044337348031021406313812 128:1 351:1 494:1 515:1 742:1 899:1 1140:1 1175:1 1299:1 1448:2 
0.069363526044337348031021406313812 16:1 87:1 371:1 427:1 515:1 610:1 688:1 696:1 769:1 776:1 807:1 1112:1 1119:1 1255:2 1271:1 1570:1 1667:1 1689:1 
-0.069363526044337348031021406313812 85:1 87:1 123:1 142:1 515:1 783:1 922:1 1086:1 1270:1 1271:1 1319:1 1633:1 1721:1 
-0.069363526044337348031021406313812 87:1 287:1 371:1 427:1 436:1 993:1 1004:1 1391:1 1589:1 1640:1 1689:1 1730:1 1741:1 
-0.066119524375133048588182305138616 283:1 587:1 1012:1 1149:1 1299:1 1393:1 1539:1 
-0.067756421141148603926041005252046 64:1 269:1 402:1 486:1 568:1 597:1 658:1 720:1 923:1 1112:1 1188:1 1288:2 1533:1 1641:2 
-0.069363526044337348031021406313812 336:1 427:1 595:1 696:1 783:1 964:2 1012:1 1119:1 1171:1 1495:1 1539:1 1587:1 
0.069363526044337348031021406313812 89:1 154:1 304:1 380:1 381:2 862:1 1017:1 1282:1 1331:2 1428:1 1444:1 1605:1 1636:1 1692:1 1720:1 
0.069363526044337348031021406313812 198:1 492:1 695:1 898:1 990:1 1051:1 1174:1 1424:1 1425:1 1428:1 1506:1 1626:1 
0.069363526044337348031021406313812 198:2 215:1 352:1 381:1 651:1 958:1 1161:1 1289:1 
-0.069363526044337348031021406313812 173:1 198:1 288:1 426:1 470:1 504:1 651:2 709:1 898:1 913:1 940:1 956:1 1002:1 1018:1 1090:1 1105:1 1331:1 1418:1 
-0.033366080604919252927675898945381 65:4 747:1 825:1 853:1 981:1 1017:1 1214:1 1236:1 1639:1 1688:1 1728:1 
-0.069363526044337348031021406313812 26:1 153:1 154:1 198:1 381:1 878:1 1051:1 1519:1 1576:1 
-0.0049842157210031930864024829475056 305:1 975:1 1129:1 1245:1 1257:1 1425:1 1459:1 1483:1 1506:1 1647:1 1688:1 1692:1 
-0.069363526044337348031021406313812 30:1 54:1 192:1 221:1 288:1 304:1 343:1 762:1 935:1 1441:1 1580:1 1743:1 
0.069363526044337348031021406313812 7:1 521:1 529:1 573:1 620:1 659:1 942:1 1252:1 1270:1 1402:1 1528:1 1579:1 
0.069363526044337348031021406313812 9:1 203:1 1004:2 1681:1 
0.069363526044337348031021406313812 269:1 417:1 445:1 588:1 627:1 857:1 1134:1 1143:1 1449:1 1641:1 
0.069363526044337348031021406313812 328:1 436:1 512:1 1228:1 1275:1 
0.069363526044337348031021406313812 56:1 60:1 69:1 358:1 602:1 633:1 655:1 957:1 1111:1 1422:1 1703:1 
-0.026663101697457829153403707778125 497:1 521:3 655:2 718:1 899:1 900:2 1200:1 1309:1 1375:1 
-0.011757158049825714926650555014476 84:1 157:1 184:1 257:1 291:1 389:1 521:1 529:1 547:1 655:1 697:1 977:1 1111:1 1170:1 1309:1 1330:1 1375:1 
-0.041040084577980640023753267087159 401:1 427:1 875:1 887:1 1120:1 1286:1 1338:1 1489:1 1498:1 1565:1 1571:1 1612:1 
-0.058239745888233024340152610420773 7:1 60:1 69:1 86:1 185:1 245:1 262:1 286:1 521:1 602:1 633:1 655:2 897:1 900:1 937:1 1111:1 1422:1 
-0.067235741904597981499769332458527 7:1 291:1 633:3 655:1 897:1 1128:1 1250:1 1309:2 1652:2 
0.069363526044337348031021406313812 154:1 209:1 416:2 426:1 458:1 504:1 565:1 794:1 804:1 898:1 1002:2 1105:1 1158:1 1365:2 1682:1 1709:1 
0.069363526044337348031021406313812 388:1 590:1 878:1 1248:1 1551:1 
0.069363526044337348031021406313812 309:1 467:1 762:1 905:1 1028:1 1188:1 
0.069363526044337348031021406313812 829:1 1090:1 1154:1 1290:1 1606:1 
-0.069363526044337348031021406313812 5:1 89:1 202:1 319:1 331:1 458:1 536:1 565:1 598:1 821:1 878:1 914:1 1134:1 1337:1 1666:1 
-0.069363526044337348031021406313812 89:1 348:1 445:1 458:1 470:1 794:1 1011:1 1134:1 1576:1 1604:1 
-0.069363526044337348031021406313812 77:1 139:1 318:1 398:1 445:1 1186:1 1187:1 1202:2 1389:1 1576:1 
-0.069363526044337348031021406313812 59:1 247:1 593:1 1247:1 1436:1 
-0.069363526044337348031021406313812 66:1 519:1 566:1 577:1 750:1 808:1 1607:1 
0.069363526044337348031021406313812 86:1 427:1 521:1 696:1 1119:1 1128:1 1495:1 1668:1 1731:1 
0.069363526044337348031021406313812 203:1 400:1 439:1 607:1 633:1 655:1 1004:1 1061:1 1128:1 1318:1 1327:1 1652:1 
0.069363526044337348031021406313812 86:1 185:1 264:1 358:1 547:1 777:1 893:1 1098:1 1128:1 1375:2 1609:1 1731:1 1738:1 
0.069363526044337348031021406313812 270:1 633:1 1397:1 1575:1 1634:1 
-0.069363526044337348031021406313812 17:1 31:1 69:1 86:1 185:1 200:1 358:1 431:1 677:1 689:1 777:1 819:1 899:1 1153:1 1381:1 1575:1 
-0.047911859564822932566752200500559 165:2 200:1 259:1 358:2 401:1 468:1 875:1 1081:1 1095:1 1119:1 1128:1 1390:1 1528:1 1545:1 1597:1 1644:1 1668:2 1735:1 
-0.06564246005020799024087807538308 67:1 421:1 721:1 723:1 835:1 1004:1 1136:1 1137:1 1246:1 1252:1 1330:1 1412:1 1495:1 1690:1 1731:1 
-0.069363526044337348031021406313812 25:1 88:1 400:1 489:1 505:1 607:1 744:1 855:1 1075:1 1484:1 1600:2 1680:1 1730:1 
-0.066095348613555982009160061352304 82:1 86:2 169:1 190:1 245:1 327:1 358:1 379:1 630:1 649:1 659:1 718:1 749:1 751:1 917:1 1012:2 1083:1 1401:1 1404:1 1536:1 1587:1 1695:1 1738:1 
0.069363526044337348031021406313812 230:1 718:1 750:1 864:1 1072:1 1110:1 1164:1 1531:1 1587:1 1597:1 1695:1 1716:1 
0.069363526044337348031021406313812 2:1 201:1 245:1 325:1 327:1 718:1 1111:1 1543:1 1587:1 1750:1 
0.060607568682409795890464465628611 199:1 222:1 277:1 392:1 517:1 613:1 648:1 808:2 943:1 1126:2 
-0.069363526044337348031021406313812 82:1 270:1 325:1 437:1 497:2 571:1 893:2 
-0.069363526044337348031021406313812 2:2 24:1 325:1 386:1 421:1 441:1 487:1 571:1 893:1 1095:1 1400:1 1404:1 1622:1 1729:1 
-0.040221055968977771633010576124434 15:1 42:1 166:1 199:1 308:1 351:1 367:1 436:1 440:1 529:1 638:1 922:1 942:1 1110:1 1131:1 1225:1 1270:1 1402:1 1492:2 1599:1 1612:1 1716:1 
-0.069363526044337348031021406313812 61:1 590:1 976:1 1064:1 1082:1 1402:1 1416:1 1489:1 1531:1 1548:1 
-0.030212546908383076937898437108743 71:1 360:1 753:2 
0.069363526044337348031021406313812 80:1 184:1 203:1 453:1 677:1 697:1 899:1 937:1 1423:1 1607:2 1668:1 
0.069363526044337348031021406313812 16:1 341:1 350:1 462:1 485:1 654:1 922:1 1026:1 1251:1 1512:2 1518:1 1536:1 1565:1 1589:1 
0.069363526044337348031021406313812 86:1 358:1 601:1 1077:1 1381:1 1437:1 1597:1 
-0.069363526044337348031021406313812 23:1 67:1 137:1 340:1 344:1 446:1 613:1 840:1 1001:1 1061:1 1379:1 1522:1 1640:1 
-0.069363526044337348031021406313812 327:1 732:1 1433:1 1757:1 
-0.069363526044337348031021406313812 60:1 389:1 626:1 871:1 872:1 1422:1 1448:1 1663:1 1668:1 1695:1 
-0.057269840974059529892237208059669 273:1 309:1 674:1 731:1 928:1 944:1 1028:1 1196:1 1295:1 1428:1 
0.069363526044337348031021406313812 534:1 653:1 709:1 955:1 1082:1 1377:1 1454:1 
0.069363526044337348031021406313812 25:1 88:1 242:1 583:1 600:1 800:1 809:1 855:1 1075:1 1144:1 1256:1 1315:1 
0.069363526044337348031021406313812 113:1 132:1 563:1 813:1 923:1 1108:1 1726:1 
0.069363526044337348031021406313812 144:1 173:1 333:1 367:1 370:1 428:1 590:1 645:1 1019:1 1091:1 1280:1 1419:1 1426:1 
0.069363526044337348031021406313812 56:1 66:1 401:1 696:1 778:1 1081:1 1095:1 1104:1 1128:1 1390:1 1412:1 1433:1 1721:1 
0.069363526044337348031021406313812 124:1 189:1 435:1 487:1 617:1 712:1 732:1 783:1 904:2 1053:1 1216:1 1249:1 1528:1 1683:1 
0.069363526044337348031021406313812 259:1 547:1 626:1 630:1 899:1 900:1 1000:1 1160:1 1170:1 1531:1 1634:1 1681:1 
0.069363526044337348031021406313812 53:1 124:1 215:1 401:1 515:1 593:1 797:1 1216:1 1410:1 
0.069363526044337348031021406313812 170:1 319:1 804:1 821:1 834:1 1604:1 
0.069363526044337348031021406313812 41:2 128:1 177:2 269:1 336:1 593:1 1287:1 1641:1 
0.069363526044337348031021406313812 24:1 677:1 777:1 1086:1 1183:1 1189:1 
0.069363526044337348031021406313812 81:1 441:1 887:1 923:2 986:1 1232:1 1401:1 1539:1 1546:1 1589:1 1768:1 
0.069363526044337348031021406313812 83:1 104:2 183:1 772:1 948:2 1027:1 1152:1 1206:1 1647:1 1758:1 
0.069363526044337348031021406313812 25:1 242:1 489:1 505:1 540:1 967:1 1599:1 1674:1 
0.069363526044337348031021406313812 374:2 540:1 951:1 997:1 1160:1 1325:2 1590:2 1634:1 1700:1 
0.069363526044337348031021406313812 199:1 489:2 678:1 808:1 947:1 1281:1 1402:1 1429:1 1484:1 1695:1 
0.069363526044337348031021406313812 88:1 308:1 489:1 750:1 800:1 1061:1 1164:1 1300:1 1600:1 1695:1 1739:1 
0.069363526044337348031021406313812 76:1 81:1 141:1 189:1 210:1 427:1 468:2 477:1 922:1 927:1 1023:1 
0.069363526044337348031021406313812 19:1 129:1 169:1 230:1 248:1 351:1 427:1 477:1 487:1 551:1 751:1 1081:1 1086:1 1252:1 1279:1 1373:1 1689:1 1735:1 
0.069363526044337348031021406313812 169:1 369:1 386:1 602:1 732:1 1574:1 1622:1 
0.069363526044337348031021406313812 964:1 1112:1 1120:1 1259:1 1646:1 1733:1 
0.069363526044337348031021406313812 196:1 199:1 400:1 406:1 1359:1 1420:1 1511:1 1640:1 1655:1 1741:1 1767:1 
0.069363526044337348031021406313812 61:1 199:1 222:1 287:1 436:1 659:1 786:1 992:1 1510:1 1708:1 
0.069363526044337348031021406313812 151:1 411:1 591:1 619:1 892:1 962:1 1100:2 1614:1 
0.069363526044337348031021406313812 36:1 58:1 407:1 686:1 898:2 979:1 
0.069363526044337348031021406313812 26:1 173:1 509:1 833:1 854:1 1057:1 1457:1 1503:1 1636:1 1687:1 1702:1 
0.069363526044337348031021406313812 174:1 340:1 392:1 501:1 845:1 947:1 1228:2 1599:1 
0.069363526044337348031021406313812 42:1 227:1 265:1 287:1 446:1 517:1 648:1 855:1 889:1 1075:1 1228:1 1618:1 
0.069363526044337348031021406313812 12:1 199:1 231:1 476:2 889:1 909:1 1515:1 
0.069363526044337348031021406313812 4:1 17:1 128:1 301:1 313:1 417:1 444:1 1449:1 1627:1 
0.069363526044337348031021406313812 60:1 69:1 132:1 286:1 424:1 659:1 718:1 750:2 819:1 1690:1 
0.069363526044337348031021406313812 872:1 951:1 1033:1 1141:1 1600:1 
0.069363526044337348031021406313812 468:1 640:1 749:1 1098:1 1101:1 1183:1 1205:1 1404:1 1497:1 1575:1 1704:1 
-0.069363526044337348031021406313812 680:1 755:1 1057:5 1323:1 1693:1 
-0.0030845320847961692906080699572158 36:1 382:1 495:2 508:1 657:1 734:1 752:1 910:1 915:1 1261:1 1319:1 1465:1 1494:1 1496:1 1546:1 1565:1 
-0.044359458891202192820646388327077 105:4 183:1 314:1 533:1 549:1 759:1 901:1 1370:1 1444:1 1552:1 1636:2 1688:1 1737:2 
-0.069363526044337348031021406313812 663:1 723:1 896:1 1065:1 1325:2 1378:1 1518:1 
-0.069363526044337348031021406313812 219:1 387:1 781:1 862:1 908:1 1155:1 1466:1 1636:1 1714:1 1765:1 
0.069363526044337348031021406313812 5:2 153:1 284:2 348:1 470:1 565:1 651:1 821:1 1154:1 1345:1 1577:1 1593:1 
0.069363526044337348031021406313812 89:1 153:1 426:1 736:1 821:2 1002:1 1105:1 1214:1 1224:1 1331:1 1337:1 1580:1 1671:1 
0.069363526044337348031021406313812 31:1 82:1 325:1 497:1 571:1 655:1 1119:1 1136:1 1192:1 1374:1 
-0.045153789866255872320621733706503 1:1 193:1 569:1 686:1 941:1 1162:1 1216:1 1223:1 1280:1 1472:1 1563:1 1577:1 1598:1 
-0.0099134556452287279221247118243809 92:1 214:1 278:1 654:1 784:1 855:1 941:1 1086:1 1117:2 1632:1 
-0.069363526044337348031021406313812 154:1 504:1 567:1 833:1 1017:1 1105:1 1282:1 1702:1 1726:1 
-0.016392428802543830557159054706062 143:1 212:1 331:1 767:2 870:1 1119:1 1166:1 1210:1 1426:1 1430:1 1691:1 
-0.069363526044337348031021406313812 1147:1 1596:1 1607:1 1660:1 
-0.069363526044337348031021406313812 99:1 407:1 890:1 1036:1 1091:1 1184:1 1280:1 1436:1 1506:1 1613:1 
-0.069363526044337348031021406313812 11:1 83:1 273:1 467:1 496:1 690:1 729:1 736:1 759:1 1289:1 1370:1 1431:1 1508:1 1550:1 
-0.053088407730935371908742581581464 52:1 157:1 261:1 667:1 918:1 969:1 1316:1 1435:2 1597:1 
-0.069363526044337348031021406313812 210:1 468:1 1109:1 1119:1 1615:1 
-0.069363526044337348031021406313812 27:1 552:1 636:1 1152:1 1206:1 
-0.069363526044337348031021406313812 56:1 66:1 265:1 308:1 600:1 675:1 992:1 1420:1 1511:1 1599:1 
-0.069363526044337348031021406313812 88:1 374:1 648:2 676:1 688:1 1141:1 
-0.035563257585879540223494643669255 579:1 797:1 894:1 972:1 1054:1 1596:1 
-0.049311015107000644164259028912056 374:1 540:1 1110:1 1548:3 1607:1 
-0.061328301828363719627734695905019 115:1 359:1 380:1 736:1 975:1 1457:1 1647:1 1661:1 
-0.069363526044337348031021406313812 6:1 160:1 181:1 290:1 302:1 797:2 1218:1 1479:1 1500:1 1618:1 1741:1 
-0.060678673344632887143301758214875 132:1 162:1 201:1 313:1 420:1 599:1 769:1 919:1 927:1 1131:1 1175:1 1362:1 1627:1 1641:1 1689:2 1717:1 
-0.028906219597126050352420278954924 160:1 236:1 480:1 490:1 619:1 647:1 665:1 679:1 789:1 982:1 1021:1 1150:1 1211:1 1361:1 1409:1 1465:1 1736:1 
-0.018544232512225880538103695016616 72:1 211:2 251:1 448:1 490:1 634:1 644:1 933:1 1021:1 1100:1 1264:2 1538:1 
-0.033541683410609923754464034573175 126:1 131:1 223:1 239:1 384:1 498:1 545:1 619:1 666:1 685:1 724:1 830:1 978:1 1010:1 1324:1 1473:1 1530:1 1542:1 1546:1 1713:1 
-0.069363526044337348031021406313812 302:1 852:1 1515:1 1675:1 
-0.069363526044337348031021406313812 53:1 270:1 409:1 
-0.047232595626157641843789747326809 579:2 1061:1 1363:1 1497:1 1502:1 1752:2 
-0.059770848098480072740912305562233 24:1 31:1 230:2 366:1 386:1 441:1 453:1 621:1 749:1 819:1 897:1 1128:1 1153:1 1179:1 1397:1 1555:1 1609:2 1620:1 
-0.024619752345641569141188043090551 251:2 466:1 495:1 652:1 785:1 800:1 1328:2 1440:1 1448:1 1669:1 1725:1 1739:1 
-0.060161254680515537096585632070855 12:1 174:1 231:2 517:2 611:1 675:1 780:1 792:1 867:1 947:2 1034:1 1515:1 1599:1 1767:1 
-0.064823281774960467283008824779245 528:1 575:2 592:1 605:1 1608:1 1665:1 
-0.034938140565011245597393241268946 94:1 410:1 708:1 1071:1 1306:1 1480:2 
-0.035145820840046887445495826796105 22:1 152:1 691:1 696:1 722:2 751:1 778:1 973:1 987:1 1243:1 1607:1 1676:1 1715:1 
-0.069363526044337348031021406313812 117:1 329:1 402:1 539:1 547:1 825:1 880:1 1024:1 
-0.032932988884145218688725975653142 164:1 300:1 593:1 658:1 682:1 720:1 742:1 783:1 923:3 1013:1 1234:1 1646:1 1721:1 1768:1 
-0.069363526044337348031021406313812 17:1 73:1 201:1 391:1 565:1 778:1 819:1 834:1 839:1 1441:1 1735:1 
-0.069363526044337348031021406313812 57:1 58:1 421:1 441:1 456:1 654:1 751:1 769:1 783:1 1125:2 1183:1 1322:1 1544:1 1622:1 1650:1 
-0.014633070019893773885955035041206 161:1 391:1 681:1 758:1 793:1 895:1 952:1 955:1 1026:1 1036:1 1263:1 1434:1 1565:1 
-0.069363526044337348031021406313812 242:1 505:1 607:1 808:2 1147:1 1432:1 1566:1 1600:1 1607:1 1625:1 
-0.046449683296963362177933731800294 257:1 262:1 421:1 659:1 697:1 803:1 899:1 1004:1 1300:1 1429:1 1524:1 1695:1 
0.069363526044337348031021406313812 73:1 309:2 337:1 481:1 739:1 905:1 1064:1 1245:1 
0.069363526044337348031021406313812 305:1 309:1 549:1 663:1 672:2 690:1 853:1 905:1 945:1 1064:1 1124:1 1277:2 1428:1 1586:1 1605:2 1688:1 1714:1 1728:1 
0.069363526044337348031021406313812 370:1 878:1 908:1 1238:1 1552:1 1737:1 
0.069363526044337348031021406313812 359:1 484:1 804:1 825:1 1161:1 1277:1 1428:1 1483:1 1601:1 1671:2 
0.069363526044337348031021406313812 11:1 690:1 759:1 820:1 908:3 938:1 1442:1 1639:1 1679:1 1737:1 
0.069363526044337348031021406313812 120:1 206:1 219:2 232:1 314:1 533:1 575:1 908:1 1057:2 1505:1 1639:1 
0.069363526044337348031021406313812 182:1 321:1 347:1 531:1 644:1 767:1 973:1 993:1 1039:1 1069:1 1131:1 1273:1 1492:1 
0.069363526044337348031021406313812 201:1 399:1 658:1 746:1 769:1 1221:1 1322:1 1436:1 1489:1 1557:1 1563:1 1570:1 1633:1 1691:1 1736:1 
0.069363526044337348031021406313812 139:1 214:2 221:1 363:1 426:1 445:1 1580:1 1726:2 
0.069363526044337348031021406313812 90:1 513:2 625:1 646:1 680:1 755:1 983:1 1057:1 1293:1 1468:1 1673:1 
0.069363526044337348031021406313812 136:1 323:1 331:1 738:1 981:1 1050:1 1174:2 1191:1 1303:1 
0.069363526044337348031021406313812 140:1 153:1 337:1 381:1 426:1 651:1 709:2 833:1 1082:1 1099:1 1280:1 1297:1 1743:1 
0.069363526044337348031021406313812 11:1 37:1 105:1 533:1 690:1 719:1 759:1 848:1 859:1 938:1 1124:2 1370:1 1444:1 1639:1 1714:1 
0.069363526044337348031021406313812 105:1 736:1 758:2 862:1 1639:1 
0.069363526044337348031021406313812 60:1 291:1 529:1 547:1 621:3 900:1 1250:1 1327:1 1350:1 1634:1 
0.069363526044337348031021406313812 63:1 256:1 384:1 431:1 619:1 670:1 724:1 817:2 1035:2 1316:2 1525:1 1713:1 
0.069363526044337348031021406313812 167:1 201:1 238:1 710:1 822:1 851:1 924:1 942:1 955:1 1123:1 1494:1 1598:1 1732:1 1733:1 
0.069363526044337348031021406313812 7:1 259:1 497:2 689:1 778:1 897:1 899:2 1183:1 1735:1 1754:1 
0.069363526044337348031021406313812 329:1 473:1 521:1 689:1 1401:1 1609:1 
0.069363526044337348031021406313812 264:1 312:1 358:1 667:1 809:1 1549:1 
0.069363526044337348031021406313812 69:1 86:1 185:1 1350:1 1437:1 1543:1 1574:1 
0.069363526044337348031021406313812 298:1 330:1 1294:1 1580:1 
0.069363526044337348031021406313812 229:1 273:1 346:1 474:1 527:1 825:1 905:1 1057:1 1394:1 1506:1 1635:1 
0.069363526044337348031021406313812 61:1 63:1 401:1 808:1 963:2 1004:1 1548:1 1625:2 1681:1 
0.069363526044337348031021406313812 763:1 862:1 950:1 1040:1 1188:1 1323:1 1535:1 1693:1 
-0.014063660600838049849481414810271 37:2 119:1 206:1 232:1 314:1 387:1 848:1 854:1 908:1 938:1 983:1 1417:1 1442:1 1444:2 1505:1 1639:1 1679:3 1756:1 
-0.069363526044337348031021406313812 93:1 471:1 474:1 549:1 663:1 719:1 853:1 862:1 1027:1 1161:2 1219:1 1238:1 1277:1 
-0.014268134911409283138716830308113 364:1 370:1 484:1 663:1 736:1 1129:1 1161:3 1238:1 1277:2 1289:1 1605:2 1671:1 1723:1 
-0.031343320110367126063444231931499 27:1 109:1 206:2 232:1 275:1 285:1 359:1 492:1 527:1 552:1 646:1 711:1 859:2 983:1 1002:1 1043:1 1133:1 1684:1 1720:1 
-0.056587593857082695014693030088893 120:1 314:1 514:1 533:1 820:3 848:2 938:1 1442:1 1659:1 1756:1 
0.069363526044337348031021406313812 17:1 420:1 649:1 712:1 1433:3 1436:2 1729:1 
0.069363526044337348031021406313812 96:1 160:1 181:1 578:1 757:1 840:1 849:1 1618:1 
0.069363526044337348031021406313812 137:1 160:1 256:1 293:1 550:1 643:1 713:1 780:1 1347:1 1412:1 1500:1 
-0.069363526044337348031021406313812 513:3 680:1 726:1 1468:3 1693:2 
-0.037480379162309188090240752444515 32:1 362:1 383:1 513:1 575:4 592:2 1008:1 1049:1 1304:2 
-0.017694402320124702487902368375217 302:1 452:1 646:1 733:1 
-0.026299894735282484947713754763754 134:1 674:1 763:1 848:1 1152:2 1260:1 1298:1 1535:2 1582:1 1719:1 
-0.069363526044337348031021406313812 144:1 222:1 287:1 436:1 613:2 683:1 813:1 841:1 842:1 1015:1 1056:1 1266:1 
-0.069363526044337348031021406313812 11:1 207:1 672:1 1277:1 1345:1 1428:1 1714:1 
-0.051926196707534545693452088244157 119:1 224:1 664:1 950:1 1057:2 1206:1 1293:1 1468:1 1582:1 1635:1 1673:1 1694:2 
-0.00099284642390123911681598656286951 950:2 1057:2 1076:1 1323:2 1582:2 1635:2 1701:1 1705:1 1764:1 
-0.064178364672541690638674083402293 316:1 1050:2 1611:1 
-0.048902932936327692114986120941467 305:1 467:1 492:2 502:2 690:1 709:1 908:1 938:1 954:1 981:1 1051:1 1121:3 1124:1 1289:1 1444:1 1483:1 
-0.069363526044337348031021406313812 882:1 924:1 1240:1 1246:1 1343:1 1447:1 1481:1 1653:1 
-0.069363526044337348031021406313812 90:1 394:1 710:1 
-0.069363526044337348031021406313812 70:1 110:1 133:1 590:1 623:1 651:1 804:1 905:1 958:1 1184:1 1275:1 1519:1 
-0.069363526044337348031021406313812 474:1 854:1 1124:1 1442:1 1492:1 1724:1 
-0.069363526044337348031021406313812 640:1 693:1 742:1 1073:1 1727:1 1728:1 
-0.069363526044337348031021406313812 214:1 432:1 454:1 534:1 857:1 994:1 1028:1 1166:1 1443:1 1483:1 1629:1 
-0.019785488625130385337280713997643 50:1 119:1 471:1 625:1 759:1 954:1 1335:1 1444:1 1505:2 1537:1 1673:2 1705:1 1737:1 
-0.0056265669150033356324391853320321 2:1 172:1 264:1 386:3 497:1 595:1 649:1 749:1 1081:1 1163:1 1251:2 1317:2 1437:1 1574:1 1620:1 1697:1 1754:1 
-0.069363526044337348031021406313812 17:1 270:1 325:1 366:1 437:1 441:1 497:1 1179:1 1189:1 1543:1 1574:1 1609:1 1620:1 
-0.056921680664834960194919943887726 19:1 92:1 400:1 478:1 600:1 737:1 745:2 828:1 1096:1 1201:1 1318:1 1327:1 1423:1 1429:1 1576:1 1735:1 
0.042125410029017262836248391977279 27:1 70:1 328:2 549:1 672:1 848:1 862:2 983:1 1155:1 1214:1 1370:1 1428:1 1601:1 
-0.026814825676966656808897226937916 47:2 537:2 546:1 591:1 644:1 670:1 771:1 795:3 806:1 915:1 931:1 1310:1 1525:1 1558:1 1753:1 
0.069363526044337348031021406313812 120:1 183:1 246:1 273:1 275:1 285:1 314:1 474:1 514:1 646:1 690:1 848:1 862:1 983:1 1367:1 1394:1 
0.069363526044337348031021406313812 27:1 755:1 859:1 983:1 1417:1 1582:1 1765:1 
0.069363526044337348031021406313812 32:1 118:1 119:1 249:1 362:3 513:1 755:1 869:1 950:1 1049:1 1057:1 1372:1 1468:1 1635:1 1673:1 1756:1 
0.069363526044337348031021406313812 109:1 672:1 825:1 983:1 1442:1 1537:2 1636:1 1673:1 1737:1 
0.069363526044337348031021406313812 27:1 119:1 232:1 1084:1 1167:1 1196:1 1323:1 1505:1 1765:1 
-0.069363526044337348031021406313812 755:1 758:1 
-0.050088679937760199889495993375021 25:1 265:1 312:1 315:1 483:1 572:1 744:1 800:1 808:1 963:1 1033:1 1042:1 1322:1 1359:1 1529:1 1548:1 1551:1 
-0.069363526044337348031021406313812 104:1 1451:1 1585:1 1761:1 
-0.069363526044337348031021406313812 475:1 513:1 971:1 1637:1 
0.069363526044337348031021406313812 133:2 159:1 202:1 492:1 766:1 833:1 885:1 1184:1 1280:1 1345:1 1360:1 1506:1 
0.069363526044337348031021406313812 328:1 590:1 826:1 878:1 961:1 1019:1 1275:1 1345:1 
0.069363526044337348031021406313812 107:1 248:1 270:1 336:1 500:1 710:2 813:1 1007:1 1051:1 1523:1 1637:1 1662:1 1686:1 
0.069363526044337348031021406313812 108:2 141:1 260:1 603:1 723:1 791:1 801:1 882:1 971:1 1302:2 1571:1 
0.069363526044337348031021406313812 575:1 680:2 1693:1 1694:1 
-0.069363526044337348031021406313812 381:1 772:1 804:1 833:2 945:1 1191:1 1245:1 1297:1 1360:1 1424:1 1425:1 1464:1 1485:1 
-0.069363526044337348031021406313812 153:1 198:1 328:2 651:4 709:2 804:1 956:1 1002:1 1105:1 1297:1 1331:1 1360:1 1365:1 1424:1 
-0.069363526044337348031021406313812 710:1 1160:1 1309:1 1634:1 1695:1 1700:1 
-0.063319424827859835391841158980242 266:1 309:1 368:1 604:1 709:1 886:1 946:1 1043:1 1191:1 1331:1 1369:1 1377:1 1506:1 1516:1 1699:1 
0.069363526044337348031021406313812 400:1 439:1 464:1 808:1 855:1 1042:1 1590:1 1607:1 
0.069363526044337348031021406313812 1106:1 1503:1 1505:1 1550:1 1688:1 1756:1 
0.069363526044337348031021406313812 31:1 819:1 1378:1 
0.069363526044337348031021406313812 35:1 44:2 545:1 741:1 1310:2 1453:1 1521:1 
0.069363526044337348031021406313812 82:1 86:2 185:1 264:1 437:1 871:1 1128:1 1189:1 1313:1 1407:1 1422:1 1575:1 1609:1 
-0.066765140121348917623400609500095 80:1 86:1 185:2 354:1 379:1 521:1 529:1 718:1 813:1 937:1 1072:1 1102:1 1381:1 1570:1 
-0.021697924623347887573832082352965 53:1 172:2 184:1 487:1 620:1 743:1 860:1 1128:1 1270:1 1313:2 
-0.069363526044337348031021406313812 477:1 584:2 787:1 903:1 941:1 942:1 1123:1 1210:1 1223:1 1405:1 
-0.00018376750260642570750091451259323 147:1 226:2 526:1 680:1 823:2 1159:1 1753:1 
-0.022804334312252289018729811687081 13:1 228:1 256:1 1003:2 1035:1 1123:1 1207:1 1480:1 1538:1 1617:2 1718:2 1771:3 
0.069363526044337348031021406313812 118:3 362:1 383:1 513:2 575:4 680:1 726:1 755:1 1079:1 
0.069363526044337348031021406313812 32:3 575:1 592:1 1079:1 1372:1 1468:1 1706:2 
0.069363526044337348031021406313812 217:1 592:1 726:1 812:1 1057:1 1262:1 1276:1 1446:1 1468:1 
0.069363526044337348031021406313812 488:1 592:1 639:1 726:1 874:1 1054:1 
0.069363526044337348031021406313812 659:1 706:1 1083:1 1343:1 1447:1 1467:1 1525:1 
0.069363526044337348031021406313812 53:1 165:1 185:1 441:1 1183:2 1579:1 1690:1 
0.069363526044337348031021406313812 449:1 893:1 1013:1 1128:1 1327:1 
0.069363526044337348031021406313812 225:1 250:1 318:1 658:1 829:1 1135:1 1204:1 1441:1 1452:1 1551:1 1606:1 
0.024587396094317003070184313173741 220:1 239:1 415:1 591:1 949:5 1063:1 1305:1 1379:1 1493:1 1718:1 
0.069363526044337348031021406313812 229:1 315:1 407:1 409:1 774:1 807:1 857:1 1029:1 1202:1 1333:1 1426:1 1452:1 1551:1 1580:1 1616:1 1749:1 
0.069363526044337348031021406313812 76:1 112:1 201:1 278:1 523:1 647:1 941:1 1209:1 1650:1 
-0.046197888092631374246099795755072 118:1 289:1 472:2 888:1 1239:1 1513:3 
-0.069363526044337348031021406313812 59:1 298:1 410:1 417:1 494:1 511:1 829:1 1452:1 1749:1 
-0.069363526044337348031021406313812 113:1 189:1 493:1 559:1 712:1 746:1 989:3 1533:1 1627:1 
-0.069363526044337348031021406313812 350:1 390:1 461:1 1255:1 1722:1 1732:1 
-0.069363526044337348031021406313812 621:1 1287:1 1555:1 1622:1 
0.069363526044337348031021406313812 118:1 285:1 625:1 1020:1 1155:1 1602:1 1665:2 
0.069363526044337348031021406313812 46:1 142:1 263:1 1081:1 1086:1 1589:1 1754:1 
0.069363526044337348031021406313812 749:1 
0.069363526044337348031021406313812 403:1 406:1 490:1 721:1 810:1 971:1 1205:1 1356:1 1361:1 1460:1 
0.069363526044337348031021406313812 330:1 402:1 409:1 635:1 742:1 1112:1 1131:1 1231:1 1287:1 1629:1 1641:1 
-0.058471853860565969895901616837364 195:1 1560:1 1594:1 1602:1 
-0.0090474669605159225432844394276799 146:4 535:7 699:1 812:3 985:1 
-0.041852872237252425335896077740472 737:1 1185:1 1602:2 1748:1 
-0.069363526044337348031021406313812 870:1 1039:1 1250:1 1358:2 1642:1 1654:1 
-0.069363526044337348031021406313812 513:1 1706:1 
0.069363526044337348031021406313812 289:1 513:1 888:1 
0.069363526044337348031021406313812 30:1 225:1 417:1 435:1 836:1 850:1 1513:1 
0.069363526044337348031021406313812 266:1 304:1 
0.069363526044337348031021406313812 1250:1 1548:1 1634:1 
0.069363526044337348031021406313812 12:1 42:2 258:1 302:1 613:2 713:1 982:1 1207:1 1217:1 
-0.044266944938512291229937289926966 226:2 266:1 306:1 673:1 689:1 1159:1 
-0.057630370485124975121760115825964 71:1 96:1 240:1 550:1 980:1 1088:1 
-0.056834561944527871302224042437956 210:1 397:1 998:1 1066:2 1104:1 1616:1 
-0.069363526044337348031021406313812 299:1 550:1 840:1 980:1 1146:1 
-0.00060801713498961906800843735254603 46:1 56:1 57:1 61:1 171:9 371:1 437:1 737:1 836:4 1032:3 1125:1 1403:1 1408:13 1681:1 
0.069363526044337348031021406313812 129:1 477:1 654:1 658:1 923:1 966:2 1255:1 1487:1 1536:2 
0.069363526044337348031021406313812 347:1 477:1 584:1 596:1 641:1 696:1 1136:1 1352:1 1689:1 
0.069363526044337348031021406313812 579:1 1017:1 1097:2 1174:1 1331:1 1425:1 1702:1 
0.069363526044337348031021406313812 8:1 121:1 525:1 644:1 827:1 832:1 846:1 1273:1 1296:1 1305:1 1568:1 1615:1 
-0.02521770420475080362598951921882 459:1 528:1 832:1 1387:1 1744:1 
-0.01522075225155908491381229197259 95:1 296:1 518:3 644:1 1087:1 1208:1 1453:1 
-0.060035393864917699358052516345197 81:1 121:1 166:1 239:1 401:1 490:1 745:1 811:1 1165:1 1255:1 1436:1 1553:1 1713:1 1734:1 
-0.069363526044337348031021406313812 40:1 649:1 658:1 921:1 925:1 1533:1 
-0.05411004963803859452164957133391 16:1 477:1 497:1 654:1 698:1 866:1 1023:1 1039:1 1243:1 1356:1 1622:1 1627:1 1656:1 
0.069363526044337348031021406313812 318:1 323:1 398:1 426:1 504:1 994:1 1051:1 1093:1 1360:1 1580:1 1595:1 1720:1 
0.069363526044337348031021406313812 118:1 488:1 874:1 1049:2 1307:2 1560:1 1665:1 1706:1 
0.069363526044337348031021406313812 18:1 59:1 215:1 425:1 585:1 991:1 1011:1 1162:1 
0.069363526044337348031021406313812 588:1 
0.069363526044337348031021406313812 155:1 217:1 709:1 747:1 1260:1 1417:1 1552:1 
-0.069363526044337348031021406313812 281:1 337:1 
-0.069363526044337348031021406313812 158:1 194:1 279:1 
-0.069363526044337348031021406313812 618:1 
-0.069363526044337348031021406313812 972:1 
-0.069363526044337348031021406313812 43:1 1415:1 1567:1 
0.069363526044337348031021406313812 4:1 493:1 732:1 989:2 1142:1 1436:1 
0.069363526044337348031021406313812 272:1 347:1 787:1 1063:1 1104:1 1123:1 1243:1 1255:1 1273:1 1581:1 
0.061146727569747982844461375862011 550:1 566:1 780:2 840:2 1118:1 1146:1 1474:1 1556:1 1566:1 
0.069363526044337348031021406313812 230:1 325:1 379:1 420:1 441:1 617:1 732:1 1757:1 
0.069363526044337348031021406313812 7:1 282:1 541:1 667:1 811:1 830:1 953:1 1120:1 1211:1 1497:1 1704:1 
-0.069363526044337348031021406313812 10:1 287:2 353:1 561:1 953:2 1035:1 1207:1 1549:1 
-0.069363526044337348031021406313812 100:1 261:1 340:1 780:1 909:1 980:1 1061:1 1340:3 1347:1 
-0.069363526044337348031021406313812 38:2 
-0.069363526044337348031021406313812 1014:1 
-0.050303155353271740424236924127399 113:1 189:1 409:1 487:1 569:1 831:1 964:1 979:1 1112:1 1247:1 1255:1 1362:1 1436:1 1557:1 1729:1 
0.069363526044337348031021406313812 14:1 736:1 924:1 945:1 1059:1 1516:1 1603:2 1650:1 1712:1 
0.069363526044337348031021406313812 459:1 755:1 1008:1 
0.069363526044337348031021406313812 979:1 
0.069363526044337348031021406313812 317:1 535:1 716:2 894:1 985:1 1262:3 1355:2 1501:1 
0.069363526044337348031021406313812 386:1 571:2 677:1 917:1 1183:1 1403:1 1543:1 
-0.014069611165338204161745494502611 156:1 528:1 576:2 699:1 912:1 985:4 1054:1 1092:1 
-0.0031620383277658433741896804036742 213:2 554:1 802:1 877:3 1392:2 1678:5 
-0.069363526044337348031021406313812 202:1 920:1 1076:1 1293:1 1323:1 1451:1 1705:1 1719:1 
-0.031521955244992308498019895068865 14:1 106:1 349:1 450:1 548:1 730:1 787:1 1039:1 1494:1 1615:1 
0.069363526044337348031021406313812 35:1 239:1 591:1 953:1 978:1 1396:1 1630:1 1664:1 
0.069363526044337348031021406313812 30:1 916:1 1169:1 1177:1 1437:1 1735:1 
0.069363526044337348031021406313812 873:1 960:1 1061:1 1340:1 
0.069363526044337348031021406313812 27:1 50:1 514:1 552:1 1076:2 1293:1 1505:1 
-0.051800706444190852684172909903282 35:1 213:1 239:1 670:3 1030:1 1617:1 
-0.069363526044337348031021406313812 291:1 374:1 400:1 464:1 483:1 997:2 1033:1 1141:1 1416:2 
-0.052415951486708717288465209094284 563:1 816:1 822:1 1043:1 1598:1 
-0.069363526044337348031021406313812 306:1 
0.069363526044337348031021406313812 5:1 328:1 833:1 956:2 958:1 
0.069363526044337348031021406313812 62:1 90:1 362:1 383:1 528:1 861:1 1079:1 
0.069363526044337348031021406313812 198:1 738:1 1068:1 1267:1 1661:1 1666:1 
0.069363526044337348031021406313812 179:1 470:1 907:1 1188:1 1195:1 1419:1 1604:1 
0.069363526044337348031021406313812 84:1 185:1 312:1 602:1 655:1 659:1 1350:1 
-0.02409883612070447961306385309399 158:1 394:1 1009:1 1044:3 1412:1 1648:1 
0.069363526044337348031021406313812 13:1 415:1 482:1 650:1 670:1 811:1 1525:1 1736:1 
-0.069363526044337348031021406313812 195:1 
-0.038873395723064765872045711603278 95:1 324:2 491:1 988:1 1145:1 1312:1 
-0.069363526044337348031021406313812 1185:1 
-0.06578072341093635366782166329358 1080:2 1158:1 1353:1 
-0.057277118410273997195503170587472 97:1 147:1 526:1 1067:1 1148:1 1753:1 
0.069363526044337348031021406313812 12:1 102:1 400:1 490:1 824:2 1042:1 1398:1 
0.069363526044337348031021406313812 326:1 967:1 
0.069363526044337348031021406313812 819:1 
0.069363526044337348031021406313812 633:1 1672:2 
0.069363526044337348031021406313812 76:1 142:1 327:1 444:1 487:1 751:1 989:1 1287:1 1643:1 
-0.069363526044337348031021406313812 430:1 535:1 812:1 827:1 
0.069363526044337348031021406313812 334:1 988:1 1088:1 1094:1 1118:1 1203:2 1218:1 1321:1 1445:1 1614:2 
-0.065361524976997570357539757424092 19:1 365:1 851:1 927:1 941:1 1255:1 1273:1 1374:1 1734:1 
-0.069363526044337348031021406313812 337:1 1017:1 1064:1 1174:1 1297:1 1424:1 1562:1 1577:1 1601:1 
-0.069363526044337348031021406313812 41:1 113:1 649:1 686:1 1050:1 1175:1 1551:1 
0.069363526044337348031021406313812 146:2 535:1 1020:1 1387:1 1657:2 
0.069363526044337348031021406313812 778:1 
0.069363526044337348031021406313812 797:1 942:1 1015:1 1101:1 1111:1 1579:1 
0.069363526044337348031021406313812 55:1 61:2 190:1 389:1 864:1 1652:1 
-0.043780480997398132925191305275803 55:1 274:1 521:2 602:2 633:3 871:1 900:1 937:1 1000:1 1309:1 1375:1 1448:1 1587:1 1738:1 
-0.069363526044337348031021406313812 535:1 1159:1 
-0.026384432012863470035091140175609 96:3 160:1 240:1 479:2 849:1 909:1 1300:1 1346:1 1556:1 1631:3 
0.069363526044337348031021406313812 128:1 164:1 182:1 356:1 559:1 658:1 705:2 927:1 1223:1 1272:1 1287:1 1551:1 
0.067589807147985972446413427405787 28:1 113:1 254:1 298:1 373:1 402:1 409:1 486:1 532:1 686:1 742:2 919:1 935:1 1131:1 1166:1 1221:1 1247:1 1389:2 1421:1 1544:1 1641:1 
0.069363526044337348031021406313812 359:1 370:1 592:1 766:1 1535:1 
0.069363526044337348031021406313812 1128:1 
-0.0337755949925360524077611046323 38:1 279:1 699:1 
-0.037955042624055926325787879704876 136:1 623:1 804:1 1174:1 1297:2 1485:1 1720:1 
0.069363526044337348031021406313812 70:1 205:2 380:1 395:1 467:1 502:1 663:1 672:1 736:1 818:1 825:1 905:1 990:1 1245:1 1277:1 
0.069363526044337348031021406313812 27:1 65:1 120:1 243:1 309:1 314:1 514:1 533:1 761:1 908:2 1105:1 1124:1 1161:1 1477:1 1601:1 1636:1 1737:1 
0.069363526044337348031021406313812 219:1 663:1 690:1 954:1 1394:1 1505:1 1659:1 1688:1 
0.069363526044337348031021406313812 312:1 1054:1 1318:1 1416:1 1566:1 1739:1 
0.069363526044337348031021406313812 90:1 513:1 680:1 755:1 983:1 1293:1 1693:3 
-0.0089454397965582094914838151566983 31:1 172:1 311:1 816:2 899:1 1081:1 1149:1 1553:1 
-0.061908018165261681498012791280416 172:1 264:1 286:1 291:1 386:1 510:1 899:2 968:1 1125:1 1177:1 1403:1 1436:1 
0.069363526044337348031021406313812 768:1 
0.0618265054708883460277135668548 4:1 127:1 301:1 371:1 376:1 531:1 593:1 649:1 654:1 742:1 966:1 1373:1 1641:1 1729:1 
0.069363526044337348031021406313812 1320:1 1677:1 
0.069363526044337348031021406313812 28:1 214:1 445:1 615:1 
0.069363526044337348031021406313812 381:1 747:1 821:1 898:1 1220:1 
0.069363526044337348031021406313812 63:1 287:1 396:1 400:1 786:1 838:1 949:1 1207:1 1222:1 
0.069363526044337348031021406313812 27:1 119:1 275:1 680:1 1076:1 1293:1 1635:2 1701:1 
0.069363526044337348031021406313812 146:2 
0.069363526044337348031021406313812 87:1 177:1 187:1 431:1 477:1 580:1 620:1 659:1 783:1 1058:1 1278:1 1349:1 1390:1 1707:1 1772:1 
0.069363526044337348031021406313812 90:1 383:1 726:1 
0.069363526044337348031021406313812 336:1 444:1 1223:1 1528:1 1540:1 1622:1 1750:1 1757:1 
0.053065636174637519084651415823828 227:1 392:1 400:1 909:1 963:1 1168:1 1432:1 1548:1 1599:1 1603:1 1708:1 
0.069363526044337348031021406313812 22:1 46:1 722:1 1039:1 1131:1 1287:1 1380:1 1456:1 1539:1 1750:1 
0.069363526044337348031021406313812 197:3 275:1 372:2 525:1 1213:1 1446:2 1526:1 
-0.025480993997708964449167012844555 32:1 118:2 362:1 488:2 592:2 639:2 755:1 874:1 1049:2 1057:1 1079:1 1608:1 1665:1 1706:1 
-0.054622243549368829085288723490521 253:1 317:1 592:1 704:1 1013:1 1060:1 1166:1 1262:4 1311:2 1339:1 1501:1 
-0.048500313773050175714107723479174 27:2 246:1 275:1 285:1 387:1 646:1 902:1 983:2 1084:1 1417:1 1505:1 1537:1 1756:1 
-0.020786816938111331298788542198963 118:1 383:2 575:2 592:2 1049:2 1079:1 1304:1 1594:1 1706:3 
-0.03927901172112500949307190012405 90:1 217:2 592:1 680:2 726:1 755:1 1049:1 1057:1 1304:2 1372:1 1468:1 
0.069363526044337348031021406313812 227:1 1136:1 1141:1 1160:1 1212:1 1250:1 1281:1 1318:2 1403:1 1634:1 
0.069363526044337348031021406313812 42:1 261:1 287:1 290:1 293:1 613:2 889:1 992:1 1126:1 1500:1 
0.069363526044337348031021406313812 169:1 
0.069363526044337348031021406313812 344:1 1042:1 1680:1 
-0.030268307228745062326114023676382 167:1 280:1 454:1 531:1 650:1 684:3 807:2 1089:1 1131:1 1284:1 1563:1 1619:1 1667:1 1676:1 1686:1 1689:1 1736:1 
-0.069363526044337348031021406313812 30:1 64:1 91:1 179:1 373:1 418:1 728:1 766:1 952:1 1573:1 
-0.055607661301370243933650527878854 57:1 86:1 229:1 278:1 292:1 348:1 357:1 360:1 395:1 1101:1 1426:1 1437:1 1529:1 1595:1 
-0.054482458691922752702652132938965 50:1 246:1 249:1 275:1 514:1 1394:3 1684:1 
-0.018924815248327838540509659992495 105:1 305:1 672:1 825:3 945:1 1257:2 1289:1 1552:1 1647:1 1712:2 1714:1 
-0.036895412627470772215509953184664 118:1 362:1 422:1 488:2 575:1 639:1 726:1 815:1 869:1 1020:2 1608:1 1665:1 1706:1 
-0.017963368305536867031158010377112 32:1 118:5 664:1 1020:1 1049:1 1304:2 1706:1 
-0.025477825237713511152826129091409 118:1 362:2 575:2 680:1 726:2 1079:3 1304:3 1635:1 1694:2 1706:1 
-0.069363526044337348031021406313812 155:1 362:1 455:1 761:1 1079:1 1727:1 1756:1 
0.069363526044337348031021406313812 32:1 309:1 639:1 862:1 912:1 945:1 1535:1 
-0.0020633805641808379734147838036051 63:1 413:1 440:1 647:1 749:1 879:2 896:1 1222:1 1359:1 1481:1 1482:1 1590:1 1643:1 1658:1 1668:1 1730:1 
-0.026361769625374176229115619207732 184:1 204:1 971:1 973:1 1070:1 1085:1 1252:1 1409:1 1517:1 
-0.069363526044337348031021406313812 680:1 755:2 950:1 1635:1 1764:1 
-0.030903176971525128657880543414649 105:1 120:2 136:1 474:1 694:1 825:1 862:1 954:2 1214:1 1269:1 1417:1 1605:2 1639:2 1692:1 1712:1 1756:1 
-0.014001640256569386489005069051927 27:1 387:1 674:1 694:1 719:1 954:1 1260:1 1298:1 1417:1 1431:1 1505:1 1552:1 1639:3 1693:1 1737:1 
-0.025475177336098532576702524465873 219:2 285:2 314:1 471:1 514:2 1084:2 1756:1 
-0.019891583951725605450278067110048 32:1 120:1 156:1 255:1 894:1 1092:2 1097:1 1159:1 1636:1 
0.069363526044337348031021406313812 91:1 225:1 247:1 335:1 409:1 742:1 906:1 1288:1 1491:1 1557:1 1747:1 
-0.06205752717763148018637053837665 113:1 225:1 402:1 409:1 417:1 435:1 486:1 599:1 658:1 742:1 979:1 1142:1 1234:1 1421:1 1491:3 1496:1 
-0.052283725807970575505390087300839 273:1 395:1 908:1 1277:1 1428:1 1457:1 1552:1 1626:2 1647:1 1688:1 
-0.023198945051928956256892533360769 14:2 262:1 341:1 347:1 351:1 385:1 500:1 721:1 730:1 1089:1 1268:1 1302:1 1319:1 1336:1 1447:1 1487:1 1546:1 
-0.069363526044337348031021406313812 2:1 39:1 76:1 90:1 444:1 1012:1 1167:1 1378:1 1468:1 1490:1 1555:1 
-0.014846742616201006464971001719277 109:1 289:2 747:1 1076:1 1527:2 1552:1 1698:2 
0.069363526044337348031021406313812 259:1 379:1 421:1 703:1 868:1 1077:1 1183:1 1407:1 1579:1 
0.069363526044337348031021406313812 86:1 819:1 871:1 1136:1 
-0.052181042587135892385497015766305 442:1 525:1 725:1 1051:1 1062:1 1372:1 1385:1 1446:1 1475:1 1744:1 1755:1 
-0.069363526044337348031021406313812 27:1 733:1 832:2 
-0.069363526044337348031021406313812 1693:1 
-0.069363526044337348031021406313812 176:1 317:2 874:1 1307:1 
-0.04047341155222274056146858356442 15:1 78:1 149:2 239:1 452:1 490:1 538:1 591:1 666:1 995:1 1123:1 1211:2 1364:1 1525:2 
-0.069145318890079451867869408943079 130:1 209:1 276:1 284:1 331:1 416:1 585:1 714:1 735:1 907:1 935:1 1169:2 1186:1 1395:1 1666:1 
-0.069363526044337348031021406313812 170:1 202:1 563:1 673:1 738:1 762:1 898:1 956:1 1384:1 1425:1 
-0.014018070293478625612526577981498 726:3 1025:2 1031:3 1694:1 
-0.061666952683331041629166691109276 459:1 702:1 1026:1 1259:1 1685:1 1765:1 
-0.025099167669329805474554007105326 148:1 162:1 205:1 350:1 671:1 731:1 886:1 955:1 1182:2 1278:1 1348:1 1351:1 1650:1 1736:1 
0.052782083270116776640978883960997 35:1 78:1 546:3 612:1 706:1 892:1 949:2 1035:1 1109:1 1305:1 1324:1 1525:1 
0.069363526044337348031021406313812 470:1 829:1 935:1 1024:1 1068:1 
-0.069363526044337348031021406313812 142:1 230:1 365:1 515:1 813:1 1539:1 1589:1 1683:1 1689:1 
-0.028215050304856624519000973805305 81:1 141:1 166:1 705:1 801:1 846:1 875:1 919:1 942:1 986:1 1171:1 1205:1 1495:1 1658:1 1689:1 1707:1 
-0.069363526044337348031021406313812 431:2 1086:2 1456:1 1644:1 1668:1 
-0.069363526044337348031021406313812 86:1 172:1 186:1 200:1 245:1 248:1 264:1 431:1 1098:1 1136:1 1401:1 1528:1 1597:1 1643:1 
-0.062705766036004847996387923103612 8:1 347:1 480:1 767:1 1210:1 1230:1 1273:1 1740:1 
-0.069363526044337348031021406313812 359:1 467:1 710:1 736:1 1671:1 
-0.069363526044337348031021406313812 1665:1 
-0.069363526044337348031021406313812 146:2 535:1 779:1 874:1 894:1 
-0.069363526044337348031021406313812 32:2 118:1 639:1 699:1 815:1 912:1 1020:1 1387:1 
-0.069363526044337348031021406313812 320:1 702:1 1097:1 
-0.069363526044337348031021406313812 1521:1 
0.069363526044337348031021406313812 750:1 1212:1 1250:1 1652:1 
-0.069363526044337348031021406313812 56:1 312:1 497:1 778:1 872:1 1110:1 1111:2 1212:1 1327:2 1359:1 1429:1 1548:1 1652:1 1730:1 
-0.035086474978320833506550968650117 119:1 249:1 859:2 983:1 1394:1 1537:4 
-0.069363526044337348031021406313812 501:1 1599:1 1741:1 
-0.042632204205353914361342759775653 103:1 475:1 814:1 1305:1 1363:1 1378:1 1523:1 1552:1 1758:1 
-0.069363526044337348031021406313812 162:1 182:1 225:1 247:1 782:1 883:1 906:1 952:2 974:1 1177:1 
-0.0351263976765450389172507072999 62:1 183:1 197:1 361:1 378:1 719:1 758:1 944:1 965:1 999:1 1242:1 1387:1 1417:1 1526:1 1662:1 1710:1 1744:1 
-0.048548358881143151288828363476568 51:1 132:1 201:1 225:1 373:1 409:1 687:1 927:1 940:2 1288:1 1746:1 
-0.069363526044337348031021406313812 201:1 270:1 876:1 
-0.043318086969821055498552908602505 24:1 165:1 200:1 264:1 379:1 777:1 819:2 1098:1 1183:1 1189:5 1374:1 1393:1 1555:1 1575:1 1609:1 1643:1 
-0.069363526044337348031021406313812 200:1 335:1 398:2 588:1 974:1 1093:1 1202:1 1303:1 1711:1 
-0.069363526044337348031021406313812 756:1 1076:1 1367:1 1673:1 1698:1 1701:1 
0.069363526044337348031021406313812 8:1 76:1 167:2 176:1 182:1 201:1 543:1 644:1 671:1 1005:1 1123:1 1178:1 1194:1 1284:1 1473:1 1542:1 
0.069363526044337348031021406313812 409:1 410:1 565:1 839:1 935:1 1013:1 1259:1 1377:1 1491:2 1551:1 1604:1 
0.069363526044337348031021406313812 130:1 209:2 512:2 759:1 1011:2 1606:1 1671:2 
0.069363526044337348031021406313812 230:1 437:1 927:1 1081:1 1436:1 1738:1 
0.069363526044337348031021406313812 337:1 381:1 445:1 772:1 804:1 833:1 1017:1 1174:1 1269:1 1365:1 1728:1 
0.069363526044337348031021406313812 46:1 113:1 162:1 444:2 559:1 649:1 712:1 746:1 968:1 989:1 1223:1 
0.069363526044337348031021406313812 395:1 426:1 709:1 1051:1 1267:1 1282:1 1577:1 1601:1 
0.069363526044337348031021406313812 121:1 122:1 287:1 436:1 560:1 564:1 600:1 608:1 803:1 828:1 841:1 867:1 1075:1 1096:1 1168:1 
0.069363526044337348031021406313812 26:1 89:1 153:1 331:1 393:1 463:1 565:1 581:1 709:1 758:1 907:1 994:1 1093:1 1682:1 1720:1 1749:1 1758:1 
0.069363526044337348031021406313812 222:1 340:1 648:1 678:1 780:1 845:1 967:1 1474:1 1599:1 1767:1 
0.059547236614713554281319574101872 11:1 243:1 305:2 549:1 690:2 736:1 825:1 862:1 1238:3 1289:1 1370:1 1636:1 
0.069363526044337348031021406313812 1192:1 1393:1 1437:1 1448:1 1543:2 1587:1 1609:1 1690:1 1735:1 
0.045928259752039735097639550076565 30:1 298:1 348:1 402:1 627:1 653:1 1024:3 1186:1 1439:1 1469:1 1573:1 1606:2 1711:1 
0.069363526044337348031021406313812 117:1 179:1 192:1 252:1 907:1 935:1 1024:1 1186:1 1290:1 1337:1 1580:2 1593:1 
0.069363526044337348031021406313812 269:1 418:1 462:1 493:1 565:1 705:1 774:1 844:1 952:1 991:1 1131:1 1292:1 1342:1 
0.069363526044337348031021406313812 51:1 1143:1 1377:1 1606:1 
0.069363526044337348031021406313812 105:1 458:1 663:1 833:1 1011:1 1051:1 1289:1 1439:1 
0.069363526044337348031021406313812 242:1 344:1 439:1 676:1 800:1 997:1 1590:1 
0.069363526044337348031021406313812 643:1 1010:1 1334:2 1396:2 1474:1 
0.069363526044337348031021406313812 108:1 610:1 760:1 810:1 971:1 1123:1 1343:1 1405:1 1471:1 
0.069363526044337348031021406313812 275:1 690:1 761:1 1040:1 1124:1 1289:1 1291:1 
0.048289598149692164463786525629985 88:1 242:1 265:2 308:1 326:1 392:1 505:1 583:1 624:1 676:1 808:1 1033:1 1042:1 1075:1 1281:1 1309:1 1315:1 
-0.034796390387878663175147408992416 59:1 269:2 297:2 407:1 417:1 597:1 829:1 1024:2 1175:1 1188:1 1332:1 1469:1 1488:1 1551:1 
-0.069363526044337348031021406313812 139:1 192:1 252:1 834:1 907:1 914:1 1064:1 1071:1 1093:1 1134:1 1186:1 1259:1 1269:1 1280:1 1593:1 1726:1 1743:1 
-0.051709693366797017388680757221664 25:2 242:1 308:1 489:4 624:1 808:1 855:2 872:1 1042:1 1300:1 1416:1 1484:1 1566:1 
-0.069363526044337348031021406313812 55:1 265:1 312:1 375:1 449:1 624:1 633:1 750:1 773:1 855:1 911:1 937:1 1061:1 1281:1 1300:1 1315:1 1599:1 
-0.017976001314150825277637935073471 59:1 269:1 315:1 333:1 377:1 407:1 665:1 850:1 857:2 927:1 1259:1 1348:1 1415:1 1749:1 
-0.039078644764945866252325856748939 128:1 373:1 486:1 493:2 559:1 588:1 593:1 617:1 658:1 712:1 754:1 774:1 1223:1 1580:2 
-0.069363526044337348031021406313812 209:1 323:1 345:1 458:1 1051:1 1290:1 1337:1 1475:1 1682:1 
-0.069363526044337348031021406313812 128:1 132:1 720:1 774:1 923:1 1436:1 
-0.03011081081297566075516414230151 128:1 313:1 409:1 493:2 593:3 658:2 746:1 996:1 1045:1 1449:1 
-0.052480665807373795550549999688883 123:1 163:1 334:1 384:1 503:1 770:1 892:1 1198:1 1203:1 1208:1 1217:1 1521:1 
0.069363526044337348031021406313812 192:1 377:1 398:1 782:1 829:1 1093:1 1169:1 1604:1 1726:2 
-0.069363526044337348031021406313812 61:1 287:1 308:1 406:1 446:1 799:1 1170:1 1246:1 1340:1 
-0.051013402785074331291514937447573 222:1 293:1 302:2 406:1 675:1 678:1 799:1 808:1 942:1 1458:1 1569:2 
-0.060081469146253008162261721736286 53:1 230:1 358:1 453:1 573:1 587:1 610:1 688:1 970:1 1313:1 1397:1 1407:1 
-0.064878584809980391345796135738055 305:1 309:1 337:1 380:1 467:1 471:1 761:2 862:1 981:1 1017:1 1238:1 1508:1 
-0.069363526044337348031021406313812 24:1 230:1 1402:1 1731:1 
-0.069363526044337348031021406313812 263:1 468:1 585:1 784:1 906:1 1117:1 1318:1 1448:1 
-0.069363526044337348031021406313812 835:1 957:1 
-0.069363526044337348031021406313812 116:1 288:1 409:1 479:1 1352:1 1747:1 
-0.027422981167271570646093437062518 108:1 351:1 421:1 649:1 654:1 722:1 749:1 776:1 866:1 964:1 1053:1 1223:1 1232:1 1271:1 1393:1 1616:1 1721:1 1772:1 
-0.069363526044337348031021406313812 581:1 878:1 958:1 1071:1 
-0.047309475165918400685338696121107 59:1 184:1 254:1 966:1 991:1 1138:1 1142:1 1180:1 1584:2 1696:1 1735:1 
-0.029500719379185972451873354316376 259:1 336:1 462:1 584:1 596:1 801:1 1138:1 1171:1 1244:2 1292:1 1524:1 1533:1 1598:1 1633:1 1762:1 
-0.069363526044337348031021406313812 436:1 465:1 503:1 811:1 814:1 1285:1 1674:1 
-0.038965936081189977979732930180035 36:1 444:1 649:1 691:1 751:1 813:1 831:2 1223:1 1232:1 1299:1 1540:1 
-0.018183576143267730917951752189765 110:1 237:1 339:1 604:1 610:1 668:2 1446:1 1660:1 
-0.069363526044337348031021406313812 496:1 869:1 
-0.069363526044337348031021406313812 1582:1 
-0.069363526044337348031021406313812 1084:1 1260:1 
-0.069363526044337348031021406313812 327:1 336:1 437:1 441:1 595:1 1012:1 1317:1 1374:1 1397:1 1400:1 1404:1 1436:1 1437:1 1540:1 1721:1 1735:1 1754:1 
-0.060573524431186444305641458640821 87:1 177:1 301:2 356:1 532:1 559:1 617:1 831:1 966:1 1504:1 1627:1 1721:1 1757:1 
-0.069363526044337348031021406313812 113:1 182:1 254:1 435:1 494:1 850:1 923:1 1223:1 1362:1 1496:1 1641:1 
-0.033374346046779475305488205094662 27:1 206:1 249:1 275:1 285:1 625:3 646:1 858:1 1335:2 
-0.038570237016718855738162119450863 106:1 115:1 380:1 419:1 747:1 826:1 1059:1 1113:1 1483:1 1605:1 
-0.017986202401882003115707320262118 24:1 86:2 264:2 437:1 677:2 957:1 1179:3 1189:1 1407:2 1528:1 1543:1 1555:2 1587:2 1643:1 
-0.039769116685120238507966661245518 662:1 681:1 801:1 1007:1 1138:1 1193:1 1263:1 
0.069363526044337348031021406313812 343:1 958:1 1224:1 1589:1 1729:1 1754:1 
0.069363526044337348031021406313812 183:1 246:1 426:1 502:1 562:1 680:1 862:1 908:1 1301:1 1428:1 1468:1 1550:1 1673:1 1701:1 1756:1 
0.069363526044337348031021406313812 36:1 56:1 396:1 555:1 712:1 809:1 817:1 852:1 1217:1 1299:1 1556:1 1654:1 
0.069363526044337348031021406313812 36:1 327:1 532:1 587:1 617:2 1404:1 1750:1 1757:1 
0.069363526044337348031021406313812 135:1 165:1 497:1 587:1 621:1 689:1 963:1 1212:1 1279:1 
0.069363526044337348031021406313812 69:1 336:1 421:1 444:1 718:1 1433:1 1449:1 1584:1 1643:1 
0.053458372722797284359863567715365 102:2 256:1 258:1 384:2 619:1 757:1 1266:1 1556:1 1708:1 
0.069363526044337348031021406313812 4:1 336:1 420:1 431:1 1249:1 1393:1 1622:1 1643:1 1683:1 1757:1 
0.069363526044337348031021406313812 122:1 258:1 259:1 308:1 587:1 602:1 809:1 841:1 855:1 1056:1 1072:1 1207:1 1547:1 1674:1 
0.069363526044337348031021406313812 2:1 441:2 732:1 966:1 1397:1 1400:1 1436:1 1540:1 1622:1 1750:1 
0.069363526044337348031021406313812 58:2 272:1 283:1 477:1 559:1 993:1 1255:2 1373:1 1437:1 
0.069363526044337348031021406313812 59:1 77:1 153:1 284:1 352:1 511:1 651:1 829:1 1051:1 1267:2 1383:1 1424:1 1450:1 1464:1 1666:1 
0.069363526044337348031021406313812 254:1 398:1 570:1 588:1 829:1 906:1 952:2 1093:1 1143:1 1606:1 
0.069363526044337348031021406313812 254:1 288:1 335:1 398:1 742:1 940:1 1177:1 1234:1 1349:1 1452:2 1491:1 1641:2 
-0.063920441101024891294990482037974 28:1 192:1 221:1 284:1 319:1 323:1 348:1 355:1 398:1 774:1 935:1 1090:1 1093:1 1134:1 1320:1 1573:1 1666:1 1749:1 
-0.069363526044337348031021406313812 89:1 304:1 1224:1 1365:1 1604:1 1671:2 
-0.038165723073944730903139799238488 653:1 714:2 834:1 935:1 1011:1 1016:2 1093:1 1169:1 1204:1 1452:1 1573:2 1580:1 
-0.069363526044337348031021406313812 70:1 136:1 140:2 651:2 739:1 833:1 1051:1 1267:1 1365:1 1601:1 1728:1 
-0.050507159916805897947877923570559 253:1 284:2 445:1 585:1 598:1 754:1 834:1 1011:1 1090:1 1709:1 1711:2 
0.057730784313378462335730745280671 41:1 169:1 336:1 409:1 493:1 571:1 722:1 783:1 813:1 979:1 1180:1 1622:1 1676:1 1697:1 1750:1 
0.069363526044337348031021406313812 36:1 164:1 420:1 435:1 568:1 649:2 966:1 979:1 1112:1 1641:1 
0.069363526044337348031021406313812 374:1 800:1 872:1 1141:1 1281:1 1327:1 1402:2 1476:2 
0.062372047538679045719511861989304 287:1 558:1 566:1 713:1 909:1 1376:1 1420:1 1463:1 1655:1 1670:1 1708:1 1730:1 
0.069363526044337348031021406313812 181:1 290:1 479:1 578:1 805:1 873:1 909:1 1515:1 1556:1 1670:1 
-0.063446170170753518613437904605235 36:1 46:1 172:1 371:2 435:1 587:1 595:1 617:1 993:1 1142:1 1404:1 1589:1 1656:1 
-0.069363526044337348031021406313812 301:1 356:2 587:1 732:1 1433:1 1536:1 1622:1 
0.069363526044337348031021406313812 92:1 389:1 431:1 440:1 864:1 918:1 1110:1 1256:1 1603:3 1700:2 
0.069363526044337348031021406313812 160:2 805:1 1118:1 1321:1 1334:1 1530:1 1664:1 1675:1 
-0.04633181655131662218805033148783 89:1 136:1 381:1 395:1 673:1 833:1 1105:1 1161:1 1485:1 
0.069363526044337348031021406313812 242:1 265:1 489:1 501:2 624:1 1052:1 1075:1 1315:1 
0.069363526044337348031021406313812 301:1 325:1 336:1 989:1 1223:1 1374:1 1400:1 1574:1 1589:1 1620:1 1643:1 1697:1 1735:1 1754:1 
-0.035581102023989556737415540510483 150:1 201:1 210:1 230:1 379:1 722:1 776:1 1039:1 1104:1 1255:1 1448:1 1460:1 1528:1 1612:1 1738:1 1739:1 
0.069363526044337348031021406313812 186:1 602:1 689:1 963:1 1325:1 1654:1 1681:1 
-0.043772755080282166328942139443825 85:1 108:1 168:1 298:1 454:1 485:1 782:1 807:1 1024:1 1120:1 1140:1 1349:1 1454:1 
-0.069363526044337348031021406313812 185:1 375:1 497:1 621:1 677:1 1153:1 1350:1 1643:1 
-0.050182257122880588595670303675433 25:1 242:3 308:1 374:1 439:1 464:1 624:1 800:1 855:3 997:1 1075:1 1315:1 
-0.052273655710893991710452866072956 30:1 41:1 51:1 168:1 486:1 705:1 996:1 1112:1 1472:1 1551:1 1616:1 
-0.06158273363143872136671319594825 171:1 286:1 360:1 937:1 1032:1 1299:1 1322:1 1544:1 1750:1 
0.069363526044337348031021406313812 301:1 420:1 493:1 732:1 935:2 1436:1 1757:1 
0.039140140124113736996847023874579 323:1 352:1 426:1 709:1 794:1 826:1 865:1 1214:1 1245:2 1331:2 1519:1 1577:1 1720:1 1728:1 
-0.069363526044337348031021406313812 65:1 195:1 232:1 328:1 463:1 549:1 895:1 908:1 1245:1 1370:1 1442:1 1444:1 1505:2 1636:1 1756:1 
-0.052274893310628706144527200194716 53:1 121:1 181:1 257:1 353:1 626:1 797:1 843:1 936:1 1056:1 1207:1 
-0.042823248352211185085991473897593 37:1 105:1 387:1 690:2 759:1 820:1 1289:2 1370:1 1427:1 1444:1 1688:1 1712:1 
-0.052684154967829167903747844547979 86:1 780:1 900:1 1061:1 1325:1 1376:1 1403:1 1510:1 1531:2 
-0.040288459564350120878373218147317 20:1 67:1 265:1 329:1 519:1 659:1 667:1 777:1 943:1 1222:1 1440:1 1529:2 
-0.024385198426664724674628459410997 68:2 162:1 367:1 434:1 522:1 615:1 1227:1 1278:1 1512:1 1567:1 1624:1 1686:1 
-0.019646926760736631994985756932692 619:1 669:1 741:1 798:1 802:1 1035:1 1264:1 1314:1 1336:1 1583:1 1624:1 
-0.050422036152914961881776889640605 14:1 164:1 254:1 382:1 434:1 524:1 642:1 748:1 875:1 882:1 903:1 971:1 1454:1 
-0.043494922988913400918598028965789 513:1 575:1 680:1 755:1 1025:1 1031:1 1037:1 1239:1 1298:2 
-0.054399956352683263849367989450911 336:1 749:1 893:1 923:1 1077:1 1163:1 1179:1 1251:2 1437:1 1543:1 
0.060724366811118216102904909803328 61:1 265:1 446:1 473:2 489:1 501:1 943:1 1547:1 1548:1 1680:1 
0.069363526044337348031021406313812 209:2 250:1 252:1 284:1 1439:2 1580:1 
0.056614012389971754557471683710901 122:1 199:1 400:1 676:1 838:1 855:1 1147:1 1359:1 1412:1 1500:2 1556:1 
-0.050048112068504208016506140666024 272:1 281:1 283:1 465:1 621:1 697:1 727:1 1136:1 1247:1 1448:1 1469:1 
-0.069363526044337348031021406313812 207:1 342:1 918:1 1423:1 1575:1 
-0.045811695999005336288334433447744 74:1 176:1 354:1 431:1 500:1 1005:1 1209:1 1483:1 
-0.069363526044337348031021406313812 216:1 1662:1 
-0.031940265323092409399663438307471 2:1 124:1 129:1 169:1 172:1 301:1 376:1 493:1 617:2 649:1 751:1 839:1 881:1 1140:1 1271:1 1436:1 
-0.069363526044337348031021406313812 743:1 777:1 778:1 1407:1 1555:1 
-0.067592692124733982916851005029457 23:1 157:1 406:1 564:1 1107:1 1149:1 
-0.069363526044337348031021406313812 389:1 697:1 937:1 1403:1 1603:1 1734:1 1738:1 1739:1 
-0.069363526044337348031021406313812 461:1 553:1 
0.033211490617856942453300916895387 12:1 42:1 181:1 191:1 258:1 550:2 557:1 578:1 805:1 840:1 852:1 1515:1 
-0.017494962670177503089030679461757 50:1 119:1 275:3 387:1 474:2 954:1 983:1 1301:2 1394:1 1505:1 1673:1 
-0.042402606344993133691279041386224 32:1 234:1 459:1 664:1 1383:1 1608:1 
-0.029218731662088024553236564884173 15:1 19:1 112:1 150:1 290:1 909:1 936:1 1149:1 1342:1 1478:1 1649:1 
-0.052024957235190363857846307382715 247:1 402:2 417:1 588:1 940:1 1093:1 1166:1 1204:1 1452:1 1491:1 1677:1 1746:1 
-0.034539199054925300014229350153983 261:2 326:1 446:1 519:1 607:1 648:3 744:1 889:1 909:2 980:1 1033:1 1413:1 1476:1 1599:1 1730:1 
-0.061356500821376003251828024076531 148:1 518:1 802:1 879:1 949:2 1178:1 1210:1 1321:1 1324:1 1336:1 1379:1 1669:1 
0.05016290110574319477398930189338 81:1 248:1 336:1 424:1 427:1 696:1 968:2 1437:1 1536:1 1637:1 
0.043353552592319440084356330089577 102:1 406:1 473:1 797:1 992:1 1052:1 1126:1 1285:1 1315:1 1474:2 1590:1 1741:1 
-0.023549607149783935433617898524972 2:1 21:1 24:1 94:1 420:1 437:1 691:1 742:1 834:1 952:1 979:1 996:1 1013:1 1287:1 1404:1 1746:1 
0.069363526044337348031021406313812 210:1 706:1 817:1 924:1 949:1 953:1 1343:1 1487:1 1649:1 
0.069363526044337348031021406313812 426:1 565:1 738:1 1105:1 1666:1 
0.026334962242597546172584443979758 169:1 301:1 356:1 409:1 532:2 593:1 906:1 923:1 976:1 989:1 1433:1 1437:1 1450:1 1589:1 
0.037696353934258845785887359625121 356:1 610:1 617:1 732:2 1223:1 1249:1 1287:1 1404:1 1433:2 1627:1 1750:1 
0.043734924904028020520296848872022 55:1 69:2 203:1 245:1 621:1 633:1 871:1 937:1 1128:1 1136:1 1153:1 1212:1 1375:2 1403:1 1634:1 
0.069363526044337348031021406313812 222:1 566:1 713:1 845:1 909:1 1015:1 1052:1 1075:1 
0.069363526044337348031021406313812 130:1 252:1 653:1 766:1 829:1 1186:1 1290:1 1439:1 1516:1 1709:1 
0.045277497563364473009972499539799 56:1 61:2 447:1 453:1 602:1 677:1 963:1 1042:1 1327:1 1531:1 1620:1 1735:1 
0.0086287505736831575375855862830576 146:9 812:1 
-0.068686316445623049609103816237621 48:1 165:1 327:1 369:1 1587:1 1637:1 
-0.026266847455665140453895389782701 101:1 241:1 253:1 318:1 407:1 481:1 782:1 1595:1 1722:1 1726:1 1733:1 
-0.031530261263297200413635579252514 114:1 125:1 197:1 378:1 438:1 919:1 984:1 1032:1 1131:1 1343:1 1451:1 1489:1 1594:1 1699:1 
-0.037095527391633194291831188138531 37:1 603:1 734:1 813:1 955:1 1457:1 1565:1 1661:1 1691:1 1722:1 1726:1 
-0.057246043401493786062506075040801 446:1 830:1 1052:2 1088:1 1117:1 1208:1 1326:1 1741:1 
-0.069363526044337348031021406313812 627:1 881:1 1234:1 1551:1 1740:1 
-0.069363526044337348031021406313812 185:1 245:1 379:1 521:1 621:1 630:1 655:1 
-0.02848212885092811161302783773408 64:1 132:1 742:1 746:2 839:1 979:1 1421:1 
-0.018637670095168586831269053050164 34:1 76:1 167:1 393:1 399:1 408:1 413:1 807:1 814:1 882:1 1150:2 1351:1 1409:1 1492:1 
0.055288331619593920895905370116452 4:1 64:1 169:1 335:1 532:1 559:2 617:1 627:1 783:1 1045:1 1496:1 
-0.021726762432544666908684760642245 108:1 200:1 210:1 230:1 286:1 431:1 453:1 620:1 688:1 697:1 871:1 1072:1 1183:1 1381:1 1403:1 1456:1 1495:1 1579:1 1668:1 1763:2 
-0.024728332184085065337253439565757 54:1 179:1 304:1 331:1 348:2 512:1 565:1 754:1 804:1 1016:1 1193:1 1333:1 1666:1 
-0.045532399130426268185622973305726 200:1 358:1 453:1 621:1 677:1 897:2 899:1 1102:1 1183:1 1528:1 1643:1 
0.061877639263951150772058440452383 121:1 507:1 560:1 678:1 713:1 780:1 1052:1 1476:1 1670:1 1730:1 
-0.043569234718583794985224955098602 325:1 386:1 749:3 1251:1 1400:1 1540:1 1574:1 1754:1 
-0.033531503102477308586593096606521 21:1 30:1 132:1 297:1 686:1 1013:1 1024:1 1175:1 1202:1 1332:2 1349:1 1450:2 
-0.00030024230102266273199559942774783 812:17 
-0.032081658241899742300962117269592 83:1 110:1 387:1 484:1 768:1 818:1 825:1 1124:1 1133:1 1659:1 1712:1 1724:1 
-0.026583494158994237094306711810532 806:3 1351:1 
-0.0184506920262342208327588366501 154:1 331:1 352:1 381:1 492:1 833:2 898:1 956:1 958:1 1017:1 1099:1 1139:2 1360:1 1424:1 1562:1 
-0.037519021251539330652491344153532 119:1 134:1 206:1 246:1 543:1 938:1 1027:1 1257:1 1388:1 1406:1 
-0.069363526044337348031021406313812 275:1 646:1 679:1 1705:1 
-0.047606076006972003478168176116014 511:1 956:1 1108:1 1191:1 1220:1 
-0.028964913344660267457975066918152 91:1 412:1 432:1 551:1 782:1 783:1 1007:1 1074:1 1150:1 1223:1 1596:1 
0.055845920334949332441976110885662 227:1 307:1 340:1 374:1 400:1 519:1 583:1 1126:1 1566:1 1590:1 
-0.014438762198256330573920003246258 1:1 99:1 214:1 280:1 388:1 512:1 635:1 687:1 994:1 1248:1 1278:2 1441:1 1504:1 1509:1 1691:1 
-0.030045244279916769047922286972607 29:1 796:2 1312:1 1364:1 1445:1 
-0.03196097080861135669715977769556 619:2 644:1 670:1 724:1 1100:1 1127:2 1379:1 1478:1 1742:1 
-0.04142164212482581098218048509807 441:1 731:1 930:1 1295:1 1465:1 1650:1 1751:1 
-0.024140935089681243852499648028243 216:1 662:1 693:1 822:1 905:1 1214:1 1395:1 1411:1 1624:1 1724:1 1737:1 
-0.010351138416465621716611167357769 115:1 167:1 553:1 979:1 984:2 1073:1 1165:1 1351:1 1646:1 
-0.040811907917919311439280960485121 140:1 179:1 339:1 426:1 509:1 623:2 1154:1 1424:1 1425:1 
-0.040529618009196313743736084234115 41:2 189:1 568:1 712:1 720:1 782:1 989:1 1045:1 1180:1 1496:1 1676:1 1757:1 
-0.015080567877049788280685582719798 7:1 150:1 212:1 665:1 778:1 807:1 1226:2 1438:1 1517:1 1649:1 1667:1 1736:1 
-0.042065782215742399119395855677794 217:1 455:1 628:1 912:1 1076:1 1372:1 1698:1 
-0.042205035087305033114635222091238 461:1 710:1 1008:1 1014:1 1097:1 1158:1 
-0.017357991614393993712317509903187 338:1 414:1 629:2 965:1 1242:1 1582:1 
-0.0088987559696004428499982452649419 39:1 455:1 556:2 634:1 785:2 929:2 1035:1 1055:1 
-0.035145726766351796654941352926471 333:1 407:1 695:1 1268:1 1434:1 1441:1 1523:1 
-0.03870724288548847008550879422728 71:1 116:1 181:1 479:1 852:1 867:1 1146:1 1346:1 1347:1 1631:1 
-0.01280528686556204297219974108657 491:1 988:2 1088:2 1145:2 1559:1 1591:2 
-0.013772947975126768188625092648181 15:1 236:1 415:1 448:1 450:1 730:1 995:1 1035:1 1127:1 1264:1 1310:3 1538:1 1583:1 
-0.045697659051326507129164866682913 477:1 497:2 751:1 778:1 964:1 1603:1 1612:1 1668:1 
-0.011570047898256441420983264833922 134:1 273:1 314:1 471:1 496:1 549:1 908:2 1370:1 1417:1 1679:1 1712:1 
-0.021836961765240317512315471049078 28:1 348:1 458:1 567:1 714:1 878:1 935:1 1090:1 1134:1 1158:1 1439:1 1516:1 1595:2 1604:1 
0.025826436901268914891893757612706 61:1 227:1 242:1 265:1 464:2 540:1 564:1 750:1 1110:1 1164:1 1330:1 1416:2 1511:1 1607:1 1680:1 
0.045022780939885188866700360676987 238:2 396:1 608:1 841:1 949:1 1144:1 1398:1 1420:1 1547:1 
0.0500888762958911840095233003467 242:1 449:1 626:1 633:1 750:1 871:1 951:1 1136:1 1183:1 1281:1 1652:1 1738:1 
-0.028399578880308248146624450214404 231:1 340:1 788:1 1107:1 1346:1 1347:3 1767:1 
-0.030931272558346479401025774791378 25:1 308:1 374:2 449:1 464:2 607:1 997:1 1042:1 1318:1 1402:1 1416:1 1548:1 1607:1 1730:1 
-0.024908340291944042893534927429755 122:1 349:1 413:1 611:1 764:2 1085:1 1359:1 1420:1 1715:2 
-0.032012148673323782832600414849367 632:1 707:1 734:1 742:1 863:1 941:1 996:1 1188:1 1667:1 1676:1 
-0.013832746412731199842083285034278 52:1 149:1 452:1 490:1 666:1 934:1 953:1 982:1 1109:1 1225:1 1326:1 1371:1 1453:1 1493:1 1538:1 
-0.05217095615587222234843522983283 237:1 520:2 1588:1 1765:1 
-0.034180090233395507559599479918688 322:1 367:1 975:1 991:1 1006:1 1026:1 1383:1 1565:1 1598:1 
-0.025023523074024764389911013040546 28:1 209:1 512:1 598:1 976:1 1169:1 1186:2 1337:1 
0.02201363331083543151134307436223 160:1 233:1 503:1 557:1 578:1 817:1 1100:1 1493:1 1630:1 1664:3 
-0.04175841138643933414531517200885 126:2 508:1 1546:1 1658:1 
-0.016374588279575597732362624014968 397:2 778:1 784:1 809:1 1110:1 1162:1 1430:1 1492:1 1522:1 1529:1 1548:1 1681:2 
-0.020516851508090752642665677285549 32:1 320:1 383:1 639:1 815:1 1092:1 1372:2 
-0.0042502612517306137540629151772009 11:1 75:2 120:2 372:1 471:1 549:1 664:1 719:1 736:1 1155:1 1167:1 1206:1 1260:1 1289:1 1503:1 1508:1 1527:1 1679:1 1688:1 1698:1 
-0.03109454293331556304358365139251 79:1 381:2 451:1 492:1 651:1 878:1 1297:1 1464:1 1728:1 
-0.011138532494607044157075570467441 364:1 405:1 414:1 429:1 525:1 668:1 679:1 1182:1 1368:1 
-0.020305818796199335413144027029375 236:1 498:1 685:1 789:1 910:1 934:1 1123:1 1127:1 1254:1 1324:1 1361:1 
-0.026280161574956328873753363950527 39:1 51:1 466:1 574:1 1386:2 
-0.012682993523891085071997331112925 33:3 316:1 317:1 520:1 526:1 576:1 661:1 716:1 1067:1 1355:1 
-0.01555458074535294617224412405676 112:1 350:1 844:1 883:1 946:1 986:1 994:1 1138:1 1385:1 1410:1 1676:1 
-0.012801643448959822146893117178479 26:2 164:1 172:1 219:1 380:1 837:1 853:1 979:1 1026:1 1382:1 1629:1 1686:1 1751:1 
-0.030270415854970388058742258863276 309:1 395:1 736:1 739:1 825:1 905:1 945:1 1161:1 1257:1 1277:2 1289:1 1365:1 1428:1 1477:1 1552:1 1605:2 1712:1 1737:1 
-0.015140976625834572100171016018066 68:1 247:2 288:1 373:1 388:1 511:1 906:1 940:1 1024:1 1349:1 1418:1 1580:1 
-0.035143175714461530323440285883407 409:1 568:1 658:1 712:1 996:1 1292:1 1504:1 
-0.016976632248110207906721669246508 131:2 349:1 644:1 666:1 741:1 764:1 802:1 1035:1 1405:1 1525:1 1542:1 1553:1 1771:1 
-0.0092923669505076741254034899952785 236:1 306:1 349:1 429:1 478:1 566:1 700:1 721:1 811:1 818:1 841:1 843:1 892:1 969:1 978:1 1302:1 1521:1 1538:1 1707:1 1741:1 
-0.069363526044337348031021406313812 132:1 585:1 
-0.014024102433780175069877316218481 161:1 499:1 634:1 771:1 789:1 842:1 1127:1 1261:1 
-0.013358805215138795305374053157266 54:1 117:1 247:1 252:1 267:2 288:1 298:1 627:1 653:1 834:1 952:1 1143:1 1169:1 1186:1 
-0.022496598397743743785737180473916 105:1 305:1 471:1 674:1 690:1 761:1 825:1 1129:1 1417:1 1503:1 1605:1 1671:1 1692:1 1714:1 
-0.017972506659983743942943235083476 315:1 813:1 973:1 986:1 996:1 1013:1 1026:1 1104:1 1111:1 1117:1 1194:1 1201:1 1356:1 1472:1 1603:1 1646:1 
-0.0033658517518897201892258408406633 105:2 443:1 533:1 759:1 908:1 1106:1 1155:3 1213:1 1370:1 1427:3 1442:1 1444:1 1679:1 1712:1 1737:2 
-0.041988576533541946411709488984343 540:1 1403:1 1435:1 1531:1 1548:1 1566:1 1695:1 
-0.028027879606681144891711099376153 930:1 952:1 1073:1 1182:1 1624:1 1662:1 
-0.061023030124093380344163506379118 414:1 488:1 605:1 1092:1 
-0.0041580028747419620765990444510862 33:1 45:4 741:1 1021:1 1055:1 1230:1 1264:1 1371:1 1558:1 
-0.032171214182721688534805082326784 100:1 980:1 1107:1 1146:1 1217:2 1340:1 1346:1 1515:1 1556:1 
-0.030370891126038492696670445525342 402:1 417:1 435:1 493:1 705:1 850:1 925:1 1221:1 
-0.014878432029380769113791060931362 6:1 220:1 384:1 490:2 841:1 843:1 1010:1 1030:1 1266:1 1398:1 1432:1 1640:1 1741:1 
-0.0091112585238939357290544052148107 17:2 327:1 437:1 595:1 722:2 749:1 751:1 783:1 968:1 993:1 1081:1 1171:1 1232:1 1317:1 1622:1 1729:1 
-0.0093288773971332682871659969237044 380:1 509:1 562:2 590:1 623:1 772:1 794:1 905:1 1017:2 1082:1 1099:1 1161:1 1459:1 1554:1 1682:1 1743:1 
0.01078089912984916617921804515845 600:1 659:2 697:1 864:1 872:1 1253:1 1256:2 1309:1 1343:1 1456:1 1603:1 1700:1 
-0.0071644329536941775415925803827122 45:1 131:1 721:1 910:2 933:1 995:1 1273:1 1314:1 1338:1 1361:2 1538:1 1571:1 
-0.040167024006623364140722287629615 361:1 496:1 657:1 668:1 
-0.033535155526475665666019665422937 30:1 59:1 184:1 269:1 300:1 906:1 923:1 1421:1 1551:1 1637:1 1735:1 
-0.025512265635859249918171443027859 209:1 385:1 391:1 416:1 626:1 664:1 755:1 781:1 1660:1 
-0.0049662959593588656970197803275369 97:1 305:1 674:1 761:1 772:1 825:1 908:1 975:1 981:1 1161:1 1370:1 1428:1 1431:1 1550:1 1586:1 1605:1 
-0.0023046374803208083056893507034601 17:1 262:2 366:3 571:1 595:2 743:2 876:1 1317:1 1393:1 1543:1 1555:1 1574:1 1620:1 
-0.013341636026676284912384495839888 51:1 64:1 113:1 127:1 409:1 774:1 979:1 1175:1 1288:1 1452:1 1646:1 1747:2 1768:2 
-0.019665171238882735160746761948758 51:1 201:1 278:1 850:1 881:1 1112:1 1272:1 1472:1 1533:1 1557:1 1747:1 
-0.026255464611623161030884432420862 389:1 521:1 547:1 697:1 786:1 1110:2 1327:1 1403:1 1429:1 1738:1 
-0.016044296313654594909881012654296 245:1 262:1 602:1 718:1 937:2 1200:1 1250:1 1422:1 1448:1 1738:1 
-0.012498481250264929093285459771323 178:3 383:1 779:1 832:1 874:1 912:2 1307:3 1499:1 1560:1 
0.010954600151067287253092707999258 60:1 92:1 196:1 308:2 392:1 439:1 608:1 678:1 838:1 889:1 947:1 1004:2 1075:1 1110:2 1402:1 1416:1 1432:1 1566:1 1600:1 1708:1 
-0.017143515922097781606359134798367 119:1 183:1 249:1 471:1 474:1 715:1 763:2 1057:1 1155:1 1527:1 
-0.0049843592236904670292330088443578 119:2 275:1 756:1 983:3 1335:3 1537:3 
-0.006477905541613490116026330412069 71:1 96:1 100:1 116:1 160:1 479:1 675:1 770:1 1022:2 1146:1 1344:1 1347:1 1767:1 
-0.012938333153118330293152027365977 94:1 123:1 271:1 363:1 390:1 647:1 705:1 707:1 875:1 1115:1 1216:1 1278:1 
0.018841366501964492558007790989905 170:1 426:2 504:1 565:1 821:1 914:1 1002:1 1019:1 
-0.036354876200750979586828748324479 292:1 883:1 1019:1 1475:1 
-0.024973057155670524975832336167514 356:1 532:1 617:1 1161:1 1320:1 1333:1 1368:1 1627:1 1746:1 
-0.03916221166641817991171947710427 285:1 320:1 513:1 779:1 1260:1 
-0.026623515889166688569433816269338 172:1 394:1 571:1 1251:1 1524:1 1648:1 
-0.0307388521910273888881892645486 64:1 500:1 1015:1 1299:1 1455:1 
-0.012039641054919534429723526613998 29:1 138:1 299:1 334:1 491:1 506:1 542:1 1198:1 1559:1 1759:1 1760:1 
-0.0082400967497704077913134312893817 15:2 126:1 268:1 665:1 787:1 795:1 797:1 987:1 1209:1 1294:1 1396:1 1736:1 
-0.015222703073815929686318781932641 105:2 120:1 218:1 273:1 314:1 387:1 759:1 848:1 1106:1 1399:1 1737:1 
-0.011302638261168639066678309745839 772:2 853:1 945:1 1161:1 1428:1 1586:2 1626:1 1647:2 1671:1 1688:2 1723:1 
-0.012307077837995450408925535157323 24:1 184:1 248:1 1098:1 1128:1 1163:1 1192:1 1251:1 1555:1 1620:1 1668:1 1735:1 
-0.016519657610316935969496654479372 62:1 90:1 320:1 459:1 639:1 1049:1 1594:1 1665:2 1706:1 
-0.0061672395924581846493595094216289 2:2 169:1 270:1 571:1 573:1 617:2 691:1 749:1 893:1 1077:1 1404:1 1540:1 1587:1 
-0.0070148800850996246430968383833715 40:1 167:1 367:1 391:1 428:1 456:1 641:1 1036:1 1227:1 1230:1 1354:1 1371:1 1415:1 1467:1 1469:1 1514:1 1567:1 
-0.022008597609534635841654903742892 119:1 232:1 387:1 592:1 1367:1 
-0.0099357613326214472976305458473689 592:1 950:1 954:1 1684:1 1694:1 
-0.0059232671072836449305265560383305 170:1 202:1 209:1 319:1 323:1 470:1 565:1 735:1 1090:4 1197:1 1290:1 
-0.0095663899381381364145360279849228 349:1 574:1 644:1 795:1 1178:1 1305:1 1314:1 1336:1 1558:2 1669:1 
-0.0075005933390840037744418111742561 254:1 288:1 298:1 343:1 398:1 511:1 1151:1 1169:1 1186:2 1441:1 1593:1 1677:1 
-0.0050046538269420924593955390946576 349:1 411:1 665:1 669:1 971:1 995:1 1123:1 1137:1 1324:1 1336:1 1405:1 1473:1 1718:1 
-0.0041177268504100561150038650737315 204:1 223:1 498:1 669:2 717:1 1055:1 1137:1 1324:1 1409:1 1473:2 
-0.012351114943182195382576082920423 484:1 575:1 1257:1 1329:1 1431:1 1576:1 1737:1 
-0.0082113322510867434167458611682378 34:1 81:1 714:1 1173:1 1234:1 1341:1 1523:1 1551:2 
-0.0096568160773846476591097953701137 26:1 478:1 975:1 1038:1 1137:1 1274:1 
-0.0064748647925356207777358719113181 170:1 331:1 348:1 458:1 536:1 567:1 580:1 738:1 833:1 1154:1 1280:1 1395:1 1593:1 
-0.0045858789925068152784626285267677 28:1 154:1 361:1 393:1 994:1 1071:1 1082:1 1182:1 1752:1 
-0.0033153667445664997473486756973671 316:1 592:1 605:1 704:1 861:1 888:1 1008:1 1020:1 1025:1 1054:2 1594:1 1748:1 
-0.0022107470630606698529241338491147 222:1 294:1 340:1 517:1 519:2 572:1 788:1 792:2 967:2 1061:1 1228:1 1599:4 
-0.0065106125164046861966693491297065 118:1 874:2 912:1 972:1 1020:1 1080:1 
-0.0028017661068230614862528682351694 16:1 210:1 441:1 529:1 749:1 787:1 941:1 1171:1 1172:1 1201:1 1270:1 1717:1 
-0.0024655170072709771920960175606297 32:1 178:1 513:1 639:1 680:2 832:2 861:1 888:1 1037:1 1304:1 1311:1 1701:1 
-0.0020232472766282820660077579333347 37:1 219:1 273:1 362:1 443:1 459:2 474:1 549:1 575:1 680:1 938:1 954:1 1293:1 1378:1 1387:1 1442:1 1694:1 
-0.0020859234700178769933431865979401 337:1 370:1 395:1 673:1 885:1 895:1 975:1 1064:1 1275:1 1464:1 1485:1 1605:1 1610:1 1720:1 1728:1 
-0.0018987091902682891320086611131046 280:1 1036:1 1237:1 1363:2 1406:1 1545:1 1644:1 1704:1 
-0.0031126431345038507725320187091711 236:1 457:1 530:1 544:1 1066:1 1157:1 1182:1 1624:1 
-0.001016754439552112511402359729118 108:1 125:2 129:1 610:1 879:1 882:1 996:1 1180:1 1299:1 1356:1 1460:1 1494:1 1570:1 1622:1 1717:1 1734:1 
-0.0012391539233658297597395758771199 14:1 113:1 477:1 508:1 584:1 760:1 964:1 971:1 1487:1 1524:1 1544:1 1571:1 1644:1 
-0.0024730895934191865492834949691314 234:1 320:1 702:1 1009:1 1037:1 
-0.0010225956956051685756842184460425 249:1 275:3 387:1 552:1 983:2 1537:1 1673:1 1705:1 
-0.00070807138845282741740350118675451 110:1 309:1 370:1 395:2 484:1 562:1 672:1 736:1 981:2 1161:1 1214:1 1601:2 1626:2 1671:2 
-0.00021505532107486181360445076649057 19:1 36:1 184:1 259:1 278:1 408:1 456:1 745:1 787:1 887:1 996:1 998:1 1069:1 1073:1 1122:1 1172:1 1229:1 1342:1 1436:1 1443:1 1455:1 1539:1 1603:1 1736:1 1740:1 
-0.00034042811246774826346161990642258 30:1 333:1 486:1 508:1 654:1 875:1 883:1 1284:1 1342:1 1371:1 1612:1 1619:1 1732:1 
-0.00046171033705223567256137329195553 72:1 548:1 644:1 670:1 685:1 1003:1 1035:1 1215:1 1305:1 1314:1 1379:1 1434:1 1753:1 1771:1 
-0.00053239111466792240698331362125373 332:1 606:1 634:2 785:1 806:1 1036:1 1364:1 1486:1 
