SVM-light Version V4.00
0 # kernel type
3 # kernel parameter -d 
1 # kernel parameter -g 
1 # kernel parameter -s 
1 # kernel parameter -r 
empty # kernel parameter -u 
2000 # highest feature index 
645 # number of training documents 
359 # number of support vectors plus 1 
0.97946908 # threshold b 
-0.00049235661482535588318737440616246 1:1 2:1 16:1 26:2 58:1 80:1 135:1 141:1 203:1 238:1 241:1 248:1 254:1 310:1 318:3 352:1 393:1 394:1 417:1 444:1 449:2 493:1 523:1 546:1 589:1 742:2 765:1 768:1 806:2 843:1 848:1 880:2 892:1 893:1 932:1 941:2 968:1 973:2 988:1 1067:1 1086:1 1100:1 1123:1 1245:1 1300:2 1308:4 1313:1 1321:1 1341:1 1379:1 1403:2 1408:3 1464:2 1471:1 1488:1 1517:2 1546:2 1549:1 1641:1 1658:1 1677:1 1686:1 1730:1 1753:2 1793:1 1815:1 1820:2 1821:1 1835:1 1847:1 1888:1 1890:1 1932:1 1953:1 1980:1 1999:1 
0.0025928283875121253994333603287714 26:1 78:1 122:1 148:1 385:1 403:1 526:1 615:1 632:1 637:1 650:1 656:1 714:1 778:1 794:2 806:2 845:1 847:1 976:1 992:1 1036:1 1043:1 1046:1 1061:1 1261:1 1284:1 1322:1 1538:2 1580:1 1589:1 1594:1 1623:1 1630:1 1676:1 1717:1 1728:1 1752:1 1849:1 1970:1 
-6.5976215720423152829958446385916e-05 16:19 147:13 153:4 212:4 241:1 293:11 639:4 656:31 712:11 721:1 737:3 806:5 823:7 831:5 895:8 899:24 902:1 932:5 1046:6 1071:1 1077:9 1144:1 1245:1 1270:3 1308:5 1321:6 1333:2 1386:1 1396:4 1403:3 1406:1 1421:1 1563:4 1570:3 1641:6 1802:2 1812:7 1815:4 1827:1 1998:2 
-0.0025928283875121253994333603287714 21:1 33:1 63:9 132:3 144:2 174:4 203:11 215:4 222:5 239:5 257:2 308:2 396:1 405:1 408:2 456:6 457:4 475:1 514:1 518:2 530:3 542:1 554:3 606:3 610:1 614:2 644:1 661:1 728:4 787:1 837:1 877:2 878:4 890:2 904:7 914:2 923:1 942:1 953:1 1013:3 1027:2 1036:6 1039:6 1056:1 1061:1 1082:1 1118:4 1156:3 1176:1 1248:4 1252:3 1276:1 1284:4 1299:3 1356:6 1358:6 1360:1 1384:2 1404:1 1426:5 1436:1 1493:3 1515:3 1529:4 1557:2 1583:2 1623:9 1659:3 1676:7 1729:1 1776:2 1782:5 1784:3 1798:1 1804:5 1853:9 1943:1 1952:4 1966:1 1982:1 
-0.00050762257101449957241018351439266 15:1 42:3 99:1 115:1 147:1 190:1 198:15 214:1 218:1 219:2 235:1 238:3 277:1 321:3 344:1 394:4 397:1 441:1 446:1 482:3 498:1 505:1 511:3 514:1 546:2 555:1 589:3 639:1 646:5 656:1 659:4 661:1 668:1 712:3 742:2 779:1 795:2 806:1 823:1 831:3 845:2 848:1 853:1 895:8 896:1 902:3 926:1 963:2 998:1 1020:6 1087:2 1097:1 1115:1 1124:1 1144:1 1201:1 1238:1 1239:2 1243:1 1270:4 1308:3 1313:3 1321:2 1328:1 1333:4 1339:2 1347:1 1386:5 1412:1 1421:5 1436:1 1560:2 1570:8 1594:1 1641:1 1677:6 1695:1 1697:1 1706:7 1733:3 1740:1 1753:1 1754:1 1783:4 1802:1 1849:16 1850:1 1882:2 1899:3 1900:1 1905:1 1906:3 1964:4 1973:1 1974:3 
-0.0025928283875121253994333603287714 33:1 63:7 127:2 131:6 132:5 144:7 155:2 174:1 179:2 188:1 203:8 215:6 239:10 257:1 294:2 297:1 301:4 305:2 308:1 330:1 378:1 396:2 405:4 408:2 433:2 438:1 457:9 470:1 475:2 488:1 514:3 530:1 542:5 554:3 603:3 606:1 614:2 679:3 690:2 728:3 753:1 769:2 784:4 835:2 877:5 878:5 890:2 904:6 914:3 1013:2 1027:1 1036:3 1056:2 1061:1 1082:1 1118:4 1132:4 1138:1 1143:2 1156:4 1176:3 1182:1 1248:2 1252:10 1254:1 1255:2 1276:1 1279:1 1284:9 1299:5 1337:1 1356:7 1357:1 1358:5 1360:2 1384:3 1426:4 1428:2 1436:1 1457:1 1468:2 1481:2 1493:1 1510:1 1515:7 1520:2 1529:2 1536:3 1553:2 1557:5 1588:8 1623:5 1648:1 1659:2 1676:3 1679:2 1735:3 1742:1 1776:1 1781:1 1782:2 1784:2 1798:3 1804:3 1848:2 1853:1 1862:1 1943:1 1952:3 1979:1 
0.0025928283875121253994333603287714 1:1 5:1 23:1 57:1 59:1 64:1 80:1 132:1 174:1 184:1 213:1 222:1 254:1 318:1 322:1 373:2 411:1 422:1 428:1 438:1 464:1 542:1 586:1 652:1 677:1 695:1 739:2 764:1 825:1 835:1 932:2 954:1 1000:1 1002:1 1028:1 1058:2 1097:1 1105:1 1118:2 1147:2 1187:1 1208:1 1245:1 1253:2 1276:1 1299:2 1311:1 1358:1 1361:1 1379:1 1432:1 1483:1 1488:1 1493:1 1500:1 1510:1 1550:1 1583:1 1597:1 1612:1 1623:1 1657:1 1659:1 1676:1 1679:1 1716:1 1729:2 1768:1 1784:2 1804:1 1835:1 1848:1 1862:1 1952:1 1982:1 1984:1 
0.0025928283875121253994333603287714 17:1 134:1 211:1 493:1 582:1 594:1 599:1 672:1 688:1 693:1 830:1 864:1 971:1 1122:1 1132:1 1194:1 1293:1 1424:1 1426:1 1662:1 1796:1 1809:1 1897:1 1937:1 
0.0025928283875121253994333603287714 222:1 237:1 457:1 594:1 596:1 688:1 763:1 774:1 862:1 1027:1 1082:1 1291:1 1389:1 1408:1 1744:1 
0.0025928283875121253994333603287714 22:1 172:1 180:1 203:1 254:1 260:1 266:1 288:2 396:1 405:1 605:1 667:1 679:1 704:1 838:1 877:1 1000:1 1068:1 1107:1 1132:1 1194:1 1276:1 1356:1 1423:1 1436:1 1453:1 1466:1 1496:1 1527:1 1529:2 1536:1 1557:1 1623:2 1784:1 1798:1 1910:1 1912:1 1957:1 1979:1 
-0.0011831072752453281309720223291038 22:13 25:13 74:2 96:7 180:12 211:9 260:15 407:16 413:3 458:1 488:6 552:7 577:7 667:14 671:8 680:10 743:1 801:3 856:11 857:5 907:2 1051:1 1089:1 1159:3 1193:6 1223:1 1224:7 1297:11 1409:13 1420:6 1490:1 1503:1 1519:20 1526:7 1551:4 1593:2 1654:2 1669:3 1718:1 1778:7 1818:2 1828:1 1954:11 
0.0025928283875121253994333603287714 33:1 42:1 59:1 63:1 86:1 99:2 129:1 144:1 174:1 215:1 239:1 291:2 297:1 302:1 303:1 329:1 354:1 378:1 456:1 457:1 479:1 537:1 542:1 554:1 585:2 605:1 614:1 644:1 652:1 654:1 682:1 719:1 729:1 749:1 752:3 779:1 860:1 877:1 914:1 925:1 928:1 942:1 951:1 957:1 983:1 996:1 1020:1 1037:1 1048:1 1053:2 1058:1 1116:3 1118:2 1147:1 1177:1 1182:2 1248:1 1299:2 1305:2 1320:1 1356:1 1394:2 1404:1 1426:1 1436:1 1454:2 1461:1 1491:1 1529:1 1648:1 1676:1 1679:2 1705:1 1776:1 1782:2 1829:1 1831:1 1862:1 1879:1 1896:1 1943:2 1972:1 1982:1 
0.00069646444085572078996904110681498 22:1 25:6 49:1 50:1 96:1 108:1 113:2 159:1 180:1 190:1 191:1 201:1 218:1 226:1 233:1 244:2 301:1 305:1 335:1 365:1 383:1 387:2 404:2 407:3 409:1 434:2 470:2 488:1 538:4 552:1 560:1 568:3 577:1 589:3 595:2 601:2 603:1 646:1 659:1 679:1 704:1 714:1 743:1 750:1 778:1 784:4 789:1 794:1 800:1 801:1 816:1 853:1 856:2 857:1 900:2 907:2 908:2 954:1 961:1 963:1 1012:4 1020:8 1028:1 1051:1 1104:1 1124:1 1143:1 1157:2 1159:1 1184:2 1193:3 1194:2 1201:2 1253:1 1311:1 1314:1 1326:1 1368:1 1370:4 1378:1 1385:1 1388:1 1409:1 1419:1 1439:3 1453:1 1457:3 1460:1 1492:1 1506:1 1507:3 1524:4 1556:1 1589:3 1630:2 1638:4 1644:5 1668:1 1669:1 1671:1 1689:1 1695:2 1697:2 1699:1 1735:2 1749:2 1753:1 1759:2 1770:2 1778:1 1783:3 1794:4 1818:2 1828:1 1842:1 1848:3 1858:1 1869:2 1897:1 1900:1 1903:3 1905:1 1912:2 1915:2 1923:3 1929:2 1932:1 1933:2 1958:1 1960:1 1994:1 
-0.0012720732526984928571073263370295 22:1 25:3 79:1 96:1 140:4 158:1 175:1 179:2 180:2 191:2 201:1 211:5 226:1 260:5 262:1 295:3 297:1 301:1 305:2 326:2 337:1 340:3 378:1 387:1 407:4 419:2 425:4 434:5 458:4 462:1 467:5 488:1 552:7 577:6 584:4 600:1 667:6 671:1 679:2 704:1 708:1 714:1 784:3 801:1 809:1 819:13 833:2 856:4 857:9 907:3 933:1 940:3 954:1 961:2 1043:3 1051:6 1132:5 1138:1 1143:2 1150:1 1157:5 1159:5 1161:7 1193:3 1194:8 1224:1 1253:1 1297:2 1336:13 1409:4 1420:1 1428:2 1451:1 1490:4 1496:5 1503:6 1506:2 1519:8 1520:1 1526:4 1535:2 1551:1 1556:3 1644:2 1654:4 1669:5 1699:1 1718:1 1735:1 1778:3 1781:4 1794:1 1814:3 1842:2 1846:2 1848:4 1894:1 1900:1 1912:4 1934:4 1948:1 1954:3 1960:8 1994:1 
-0.00099801444470980433046336521840658 61:1 84:1 111:1 118:1 377:1 473:1 536:1 711:1 732:1 946:1 1577:1 1940:1 
0.0024154777159947548800800198876004 7:1 63:2 64:1 127:1 131:4 132:3 144:6 155:1 170:1 174:2 203:2 215:3 222:1 228:2 239:3 257:1 294:1 295:1 301:1 305:1 354:1 359:1 378:1 396:1 405:1 408:3 422:1 440:1 457:6 488:1 518:1 530:2 542:3 554:1 569:1 587:1 606:1 661:1 679:1 682:3 704:2 769:2 778:1 809:2 824:1 833:2 836:1 838:1 877:3 878:3 904:2 914:2 940:1 942:1 954:1 961:1 1002:1 1028:1 1036:6 1039:4 1056:1 1061:1 1118:1 1132:1 1157:2 1176:4 1229:1 1230:1 1237:1 1248:2 1252:3 1254:1 1276:1 1337:2 1356:1 1358:3 1387:1 1428:1 1483:1 1510:1 1515:1 1520:2 1527:1 1529:1 1551:1 1553:1 1557:2 1588:1 1611:1 1649:1 1659:2 1676:3 1718:1 1722:1 1728:2 1729:3 1742:1 1768:1 1776:2 1784:1 1798:1 1804:1 1814:1 1842:1 1848:1 1853:1 1862:2 1900:1 1912:1 1934:1 1939:1 1943:1 1952:3 1954:1 1981:1 1982:1 1990:2 
0.0025928283875121253994333603287714 23:1 59:1 64:5 131:4 144:1 155:1 174:12 222:4 239:2 245:1 269:5 354:4 358:2 414:2 450:2 456:7 457:5 518:6 587:2 606:6 610:7 614:1 644:12 654:10 661:2 707:2 728:1 729:1 749:1 787:1 791:1 803:1 890:1 923:8 927:5 930:4 942:1 1013:11 1027:3 1054:2 1082:6 1084:4 1118:4 1230:2 1237:1 1247:2 1248:2 1319:1 1323:2 1343:1 1356:4 1360:1 1387:3 1478:2 1483:1 1493:2 1529:1 1583:14 1648:1 1649:2 1659:8 1679:6 1729:12 1768:7 1782:4 1853:10 1860:1 1966:6 1982:4 
0.0025928283875121253994333603287714 14:1 15:1 42:5 108:2 132:1 144:1 159:1 183:1 194:1 198:3 202:1 219:3 238:9 239:1 292:1 303:4 342:1 344:5 355:1 359:1 361:1 378:1 394:7 411:2 432:1 433:1 441:1 479:2 482:2 484:1 498:1 507:1 511:3 537:2 546:3 563:1 586:1 589:1 629:1 646:3 656:3 659:1 661:1 692:2 712:5 769:1 795:3 823:1 831:1 832:7 845:3 848:3 895:3 902:2 911:1 925:1 947:1 963:2 969:4 996:6 1053:1 1107:2 1127:1 1137:1 1144:1 1157:1 1165:1 1177:1 1201:1 1225:1 1241:1 1243:1 1251:1 1313:2 1320:1 1321:2 1329:3 1333:5 1344:1 1354:1 1358:3 1374:2 1378:1 1392:1 1396:1 1421:1 1431:1 1432:2 1436:3 1487:2 1489:1 1491:1 1498:1 1509:2 1510:3 1545:2 1570:1 1588:1 1604:2 1615:4 1628:1 1632:1 1634:1 1653:1 1675:2 1677:1 1696:1 1701:2 1736:1 1784:1 1849:2 1850:2 1859:2 1862:1 1872:2 1882:2 1887:1 1895:2 1897:1 1921:1 1932:1 1958:2 1972:1 1974:5 1980:1 
0.0025928283875121253994333603287714 170:1 239:1 242:1 301:1 305:1 308:1 361:1 405:1 407:2 542:2 554:1 714:1 819:1 877:1 878:2 1036:1 1049:1 1056:2 1103:1 1124:1 1132:1 1138:1 1156:1 1161:1 1193:1 1252:3 1275:1 1279:2 1293:1 1311:1 1337:1 1368:1 1451:1 1490:1 1503:1 1510:1 1523:1 1524:1 1529:1 1547:1 1623:1 1781:1 1792:1 1798:1 1804:1 1848:1 1897:1 1954:1 1979:2 1981:1 1987:1 1994:1 
0.0018633129825368582952599405544447 24:1 57:1 63:1 99:3 106:1 131:1 132:2 144:2 163:1 179:1 203:4 239:2 268:1 302:3 322:2 354:1 408:1 411:1 457:2 475:1 498:1 542:3 554:4 580:2 606:1 614:1 651:2 661:4 719:2 779:2 825:1 845:1 877:4 878:1 914:2 917:1 942:1 947:2 1013:1 1036:2 1039:2 1053:1 1056:1 1061:1 1107:3 1127:1 1165:1 1177:1 1214:2 1229:3 1248:1 1252:2 1254:2 1299:1 1356:2 1358:4 1426:3 1436:3 1444:1 1468:2 1487:1 1489:1 1491:2 1493:1 1509:3 1515:2 1555:1 1557:1 1582:1 1588:2 1615:1 1623:5 1653:1 1661:1 1676:1 1679:1 1701:1 1728:2 1742:1 1758:2 1776:1 1784:1 1798:2 1804:1 1895:2 1900:1 1902:2 1943:1 1952:2 1979:1 1981:1 1982:1 
0.0025928283875121253994333603287714 14:1 15:1 32:1 42:4 46:1 108:1 119:1 163:2 172:1 179:1 184:3 198:1 211:1 238:1 297:1 303:1 308:1 344:2 378:2 397:1 404:2 411:1 426:2 458:1 498:3 500:1 514:2 537:2 538:3 541:1 544:5 554:1 568:1 578:2 589:1 605:2 626:1 651:1 682:1 692:1 708:1 719:1 759:2 767:2 816:1 832:5 835:2 947:1 954:1 963:3 969:1 983:1 996:1 1000:2 1012:1 1037:1 1053:6 1104:6 1119:1 1129:2 1137:1 1143:1 1177:1 1201:2 1225:4 1241:1 1243:1 1253:1 1280:1 1327:1 1329:1 1342:1 1344:1 1354:2 1361:4 1370:1 1385:3 1392:2 1404:1 1405:1 1412:3 1431:1 1432:1 1444:2 1456:3 1487:2 1492:2 1500:1 1509:1 1510:3 1517:1 1524:1 1527:1 1536:1 1545:1 1550:1 1601:1 1615:2 1618:1 1632:2 1668:1 1669:1 1671:1 1675:1 1680:2 1693:2 1701:1 1705:3 1726:1 1736:1 1755:3 1784:1 1819:2 1845:1 1862:1 1882:2 1887:4 1895:1 1897:1 1902:2 1903:2 1914:1 1921:1 1932:2 1963:1 1980:1 1996:3 
-0.001205172360529019413150075834551 23:5 64:7 245:3 269:3 354:6 358:5 371:2 414:8 450:4 456:1 564:4 569:3 587:5 610:6 644:20 654:20 661:3 707:11 729:1 749:6 787:10 791:4 803:1 923:16 927:1 930:12 953:3 1013:1 1054:7 1082:1 1084:6 1237:3 1247:3 1319:9 1323:2 1369:1 1387:2 1478:7 1483:2 1502:6 1583:13 1648:2 1649:8 1659:1 1679:5 1722:1 1729:10 1732:2 1768:9 1808:1 1860:4 1966:20 
0.0025928283875121253994333603287714 5:1 21:3 23:1 103:2 105:1 131:1 144:1 174:1 203:1 206:1 239:1 269:1 274:1 358:5 414:2 450:1 569:2 610:1 623:3 644:1 654:1 726:1 741:1 775:1 791:1 803:1 825:2 837:1 844:1 890:1 923:1 930:1 953:2 957:1 1006:2 1013:1 1027:1 1061:1 1081:1 1082:1 1084:3 1120:1 1205:1 1247:1 1343:1 1356:1 1402:1 1407:1 1461:1 1478:2 1575:1 1616:1 1624:2 1629:1 1648:1 1649:1 1651:1 1659:1 1665:1 1679:3 1722:1 1798:1 1805:2 1808:3 1911:1 1956:1 1966:1 1990:2 
-0.00044025901999999593645906958983005 5:3 21:13 23:4 72:1 86:9 105:1 358:11 414:7 418:3 440:13 450:1 564:2 569:11 775:16 787:3 791:4 803:2 825:3 837:4 953:16 1002:14 1004:1 1006:1 1084:2 1198:5 1230:1 1237:3 1283:1 1319:4 1323:1 1461:2 1478:1 1483:1 1502:1 1624:13 1648:3 1649:11 1664:8 1698:2 1707:1 1732:1 1768:11 1808:26 1822:1 1860:5 1911:3 1939:7 1966:14 1990:25 
-0.0025928283875121253994333603287714 24:2 31:5 32:1 57:1 59:2 71:2 99:3 106:1 129:1 131:1 133:1 138:1 183:3 257:1 268:2 270:1 292:5 302:3 303:1 329:1 359:1 411:5 414:1 422:1 426:1 431:1 432:3 433:2 440:1 450:1 479:2 521:1 537:1 563:4 580:1 585:2 652:1 682:1 698:1 719:1 767:1 779:2 832:1 845:1 903:2 914:1 923:2 925:4 927:1 947:1 951:3 963:1 970:1 975:4 983:2 991:4 1000:1 1037:1 1044:2 1053:1 1058:2 1098:2 1107:2 1116:1 1118:2 1127:2 1165:1 1177:8 1196:1 1208:5 1214:3 1221:1 1225:1 1237:1 1249:3 1356:1 1394:1 1432:1 1436:1 1443:1 1489:3 1491:1 1500:8 1504:2 1509:2 1510:1 1525:3 1545:1 1550:6 1575:1 1582:2 1602:1 1611:1 1623:1 1642:4 1649:1 1659:2 1661:2 1672:1 1679:1 1688:1 1701:1 1705:2 1722:2 1729:2 1758:1 1768:1 1777:5 1798:1 1819:3 1829:5 1853:1 1860:1 1882:2 1887:1 1895:3 1914:1 1921:2 1972:2 1982:1 1984:2 1990:1 
0.0025928283875121253994333603287714 25:2 49:3 74:1 96:1 175:3 191:1 201:3 211:1 221:1 226:3 262:1 295:2 315:1 407:2 419:1 434:1 458:1 488:1 552:2 560:2 577:2 667:2 669:1 679:1 703:1 714:1 743:1 819:10 833:2 856:2 907:4 961:1 1028:2 1055:1 1057:2 1089:1 1124:1 1157:3 1161:1 1169:1 1193:1 1194:1 1224:1 1271:1 1297:3 1336:1 1351:1 1409:1 1420:2 1457:1 1490:4 1519:2 1535:4 1536:3 1551:1 1556:3 1644:1 1654:2 1669:3 1671:2 1699:1 1727:1 1778:1 1828:1 1842:1 1846:1 1848:1 1865:2 1869:1 1903:1 1905:1 1912:1 1923:1 1934:2 1935:1 1941:1 1948:1 1954:2 1960:1 1961:1 
0.0025928283875121253994333603287714 27:1 35:1 40:1 87:1 96:1 140:4 170:1 175:2 179:1 180:1 182:1 195:1 211:2 260:1 262:1 295:1 301:1 305:1 313:1 315:1 326:1 340:2 378:2 381:1 383:1 387:4 407:2 413:2 419:2 425:2 434:1 458:3 462:1 467:2 488:1 506:1 552:1 577:4 595:1 600:1 603:3 667:1 671:1 679:3 680:1 684:1 689:2 703:1 704:3 714:1 761:1 784:4 801:1 809:3 819:2 821:1 839:1 889:1 907:2 910:2 940:3 948:1 954:2 958:1 961:2 986:1 1028:1 1045:1 1051:2 1089:1 1103:1 1138:2 1143:1 1157:3 1159:1 1193:2 1194:4 1207:1 1219:2 1253:1 1271:4 1297:1 1311:1 1314:1 1330:1 1336:2 1342:1 1351:1 1409:2 1422:1 1451:2 1457:1 1506:2 1520:1 1526:1 1535:2 1536:2 1551:2 1553:2 1556:1 1589:2 1597:1 1614:1 1644:1 1654:2 1671:6 1699:4 1718:2 1735:4 1778:1 1781:6 1814:1 1818:1 1842:3 1848:4 1873:2 1894:1 1903:1 1912:2 1934:2 1935:1 1943:1 1954:2 1960:3 1979:1 1987:2 1994:2 
0.00039947553776465192067537945952438 22:1 25:3 35:1 50:2 77:3 79:1 96:4 115:1 149:2 175:1 180:1 190:3 211:2 221:2 226:1 233:1 280:1 335:1 337:1 365:1 407:3 409:4 425:1 458:1 506:1 538:2 552:1 560:2 589:1 599:1 601:1 667:1 669:3 671:1 679:1 680:1 714:1 725:4 778:2 839:2 841:1 857:1 869:1 887:2 948:1 954:1 1020:9 1040:1 1045:2 1049:3 1051:1 1089:1 1124:1 1132:1 1157:2 1159:1 1161:1 1169:2 1193:2 1207:1 1253:1 1297:4 1322:5 1326:1 1336:3 1368:3 1370:4 1388:2 1409:5 1416:2 1420:2 1440:1 1490:2 1492:1 1503:1 1507:1 1519:6 1526:1 1551:3 1556:2 1579:1 1589:5 1614:1 1625:1 1644:1 1654:1 1689:1 1693:1 1695:1 1718:2 1727:2 1774:1 1778:2 1818:2 1828:3 1846:1 1869:3 1873:1 1894:1 1912:1 1915:1 1923:1 1934:1 1948:2 1954:2 1987:2 1993:1 
0.0025928283875121253994333603287714 22:3 94:1 108:2 127:2 140:1 142:1 158:1 175:1 184:1 211:3 228:1 262:2 295:2 297:1 301:4 305:1 308:2 315:1 330:1 337:1 340:2 361:1 378:3 383:1 387:3 405:1 407:1 434:1 462:1 467:1 488:2 489:1 507:1 514:2 552:4 577:1 578:1 603:1 605:1 669:1 679:3 680:3 704:1 784:1 801:1 819:2 824:1 835:1 856:1 857:1 878:1 907:1 910:2 948:2 954:2 961:2 963:2 1000:2 1028:1 1043:1 1051:3 1055:1 1056:1 1124:1 1132:4 1138:3 1143:1 1157:2 1193:2 1194:1 1252:1 1253:3 1263:1 1271:1 1279:2 1299:1 1311:2 1336:4 1378:2 1440:1 1444:2 1451:2 1457:1 1490:1 1503:1 1506:2 1510:1 1519:1 1520:1 1524:2 1526:1 1527:2 1536:3 1551:1 1556:2 1557:1 1588:1 1654:3 1669:1 1671:2 1681:1 1735:4 1742:3 1778:1 1781:1 1794:1 1814:2 1842:1 1862:1 1912:2 1920:1 1923:1 1934:2 1938:1 1948:1 1954:2 1960:1 1981:1 1987:1 1989:1 1994:2 
-0.0017889756562819100500077995619108 8:5 22:1 27:1 87:8 96:3 149:6 182:4 195:5 233:2 296:4 489:2 522:2 560:13 595:5 669:1 684:18 689:9 703:3 725:1 869:5 887:3 922:1 948:12 958:2 986:2 1040:6 1057:2 1089:1 1103:14 1124:2 1207:6 1263:5 1271:19 1330:1 1351:6 1388:2 1418:6 1547:3 1551:2 1579:6 1614:7 1625:13 1689:1 1818:1 1867:14 1880:2 1915:1 1935:2 1941:15 1987:15 
-0.0025928283875121253994333603287714 14:1 46:1 47:1 49:1 74:2 79:1 108:2 127:2 184:1 221:1 226:1 228:1 262:1 301:1 305:4 315:4 326:1 330:1 337:2 340:3 361:1 378:4 383:1 387:6 405:1 415:3 426:1 434:2 438:2 458:2 467:2 470:7 488:1 500:4 507:10 514:4 530:1 578:4 584:3 600:2 647:1 679:4 704:3 705:1 708:4 714:2 769:3 784:6 797:1 809:1 816:2 824:3 833:2 835:1 878:1 884:2 907:1 908:1 933:2 940:2 954:9 961:1 1028:1 1036:3 1051:3 1056:3 1097:2 1132:2 1137:1 1138:1 1143:1 1157:2 1176:2 1184:1 1194:4 1253:1 1255:1 1266:1 1311:5 1314:1 1337:3 1342:2 1378:6 1404:2 1428:1 1432:2 1440:1 1451:2 1457:2 1492:1 1496:4 1510:1 1520:1 1527:2 1535:1 1536:2 1545:1 1553:2 1556:4 1615:3 1627:2 1644:1 1669:1 1671:4 1681:3 1693:1 1718:2 1726:1 1735:4 1742:2 1749:1 1842:6 1848:2 1862:5 1897:4 1900:3 1903:2 1905:1 1912:1 1923:1 1943:3 1979:2 1981:3 1994:2 
-0.0012317886524878941638394547197777 127:12 170:2 228:2 294:26 301:14 305:13 330:1 378:5 383:8 438:12 462:2 514:10 530:12 603:11 679:3 690:10 704:2 708:4 809:10 838:6 933:4 954:1 1036:1 1132:11 1143:1 1219:6 1279:2 1311:11 1337:2 1342:1 1451:1 1520:5 1527:2 1553:16 1671:4 1735:19 1742:2 1848:14 1862:6 1897:3 1900:3 1912:4 1943:3 1979:14 1981:1 
-0.001220359772637702585815211442366 127:3 140:3 170:2 175:1 179:1 211:1 228:1 262:1 294:1 301:13 305:12 330:1 378:4 383:8 387:3 419:3 434:1 438:1 462:3 467:2 488:5 514:4 552:1 584:2 600:1 603:3 679:7 690:1 704:4 708:4 784:6 809:3 819:2 824:7 833:4 838:1 907:1 910:1 933:3 940:7 954:2 1043:1 1051:1 1055:1 1132:10 1138:2 1150:1 1161:1 1194:3 1219:7 1279:1 1311:7 1314:1 1336:3 1337:3 1342:2 1428:1 1457:3 1506:5 1520:2 1535:2 1536:13 1553:3 1627:1 1654:2 1671:4 1699:2 1735:9 1781:8 1814:2 1842:4 1846:1 1848:9 1862:3 1865:2 1900:2 1912:8 1938:1 1943:1 1960:3 1979:5 1994:2 
0.0025928283875121253994333603287714 21:1 24:1 31:2 57:1 59:1 71:1 72:1 99:2 131:1 136:2 144:1 183:4 194:4 222:1 247:2 269:1 292:8 302:4 303:3 329:2 341:1 357:1 371:1 411:6 422:1 431:2 432:4 433:1 435:2 482:1 484:2 521:1 537:1 541:3 563:6 585:9 586:2 606:2 629:1 640:1 661:2 698:4 719:1 729:2 752:2 759:1 767:1 779:1 832:1 835:1 836:2 872:2 877:1 911:1 919:3 925:7 927:1 947:1 951:6 970:1 975:4 983:4 991:3 996:2 1037:2 1044:5 1048:1 1053:3 1054:3 1059:1 1084:1 1127:2 1129:1 1165:1 1208:7 1214:1 1221:3 1237:2 1247:1 1249:3 1282:1 1283:1 1344:3 1358:1 1394:3 1436:1 1443:1 1456:2 1458:2 1468:1 1500:2 1504:1 1509:1 1512:1 1517:1 1528:1 1550:6 1555:1 1575:2 1582:4 1583:1 1611:1 1642:7 1649:2 1659:1 1661:5 1675:2 1688:1 1698:1 1705:2 1722:1 1758:3 1776:1 1819:2 1825:5 1829:3 1831:1 1879:1 1887:1 1895:3 1896:1 1972:4 
0.0013168126675160199932912430398346 23:1 24:1 31:3 57:3 59:1 64:1 86:1 99:3 105:1 132:1 138:1 183:1 188:3 215:2 239:1 245:1 247:1 257:1 268:1 269:1 292:4 302:6 303:1 357:1 411:1 432:2 435:3 440:2 450:1 456:3 518:1 544:1 554:2 569:1 585:1 586:3 587:2 606:2 629:1 644:1 651:2 654:2 661:5 698:4 729:2 767:1 779:1 872:1 877:1 919:1 925:3 942:1 947:1 951:1 975:1 991:2 996:3 1013:1 1044:4 1053:1 1054:4 1061:1 1082:3 1084:2 1098:1 1107:2 1127:5 1156:1 1177:3 1182:1 1196:1 1208:4 1214:1 1225:1 1237:1 1254:1 1283:2 1356:1 1360:2 1374:1 1407:1 1443:1 1483:2 1489:1 1491:6 1500:5 1502:1 1504:1 1510:1 1512:1 1525:2 1529:1 1550:4 1555:1 1582:1 1583:1 1611:3 1618:1 1634:1 1642:9 1659:1 1661:2 1675:1 1679:3 1680:1 1698:1 1701:3 1722:1 1758:3 1768:2 1776:1 1777:2 1782:2 1819:4 1822:1 1825:1 1829:3 1860:3 1939:1 1966:1 1982:3 1984:1 1996:1 
0.0010307794112812357443381694466211 15:1 21:2 24:6 31:1 57:5 64:1 71:1 86:1 99:1 105:1 183:7 194:1 239:2 243:2 245:1 292:1 302:1 303:2 317:1 322:1 341:1 354:5 357:2 411:3 432:4 435:2 450:1 501:2 518:1 537:1 541:1 563:2 585:1 587:1 604:4 606:2 610:1 644:1 646:1 652:4 654:1 661:1 698:1 719:1 720:2 729:2 753:1 767:1 779:3 783:1 832:1 836:3 837:1 904:1 911:1 923:1 927:1 930:1 942:2 947:3 951:3 953:1 970:2 975:3 996:4 1006:1 1044:3 1053:2 1054:2 1058:1 1059:2 1082:2 1098:2 1104:1 1127:3 1129:2 1165:2 1177:3 1196:2 1198:2 1205:1 1208:1 1214:1 1225:2 1243:1 1251:1 1320:3 1329:7 1343:2 1344:1 1356:1 1360:1 1361:2 1394:3 1404:1 1405:1 1436:5 1443:1 1454:1 1480:3 1483:1 1489:4 1491:1 1500:4 1504:1 1512:4 1525:3 1529:1 1555:3 1582:1 1583:1 1602:1 1611:2 1618:1 1624:3 1642:2 1647:1 1649:4 1653:1 1672:1 1675:1 1698:1 1701:3 1728:1 1729:1 1732:1 1768:1 1776:1 1819:2 1822:1 1825:1 1829:1 1831:2 1853:3 1860:1 1902:1 1958:1 1966:2 1972:2 1974:4 1984:9 1990:2 1996:1 
0.0025928283875121253994333603287714 7:1 23:2 63:1 64:4 131:2 144:1 155:1 174:4 215:2 222:1 239:1 257:1 269:3 354:1 405:1 414:3 435:1 440:1 450:1 456:5 457:5 475:2 518:2 542:2 554:1 564:4 569:1 587:1 606:2 610:4 614:1 644:3 654:6 661:1 728:1 729:2 739:1 775:1 779:2 787:2 791:2 877:1 878:1 890:1 904:2 923:6 927:3 930:1 942:4 966:1 1013:1 1027:1 1039:1 1054:2 1061:2 1082:5 1084:2 1107:1 1118:2 1156:2 1177:1 1230:1 1237:1 1248:1 1252:2 1283:1 1284:1 1319:2 1343:2 1356:3 1358:2 1387:4 1426:1 1478:3 1493:2 1502:1 1512:2 1557:2 1583:7 1611:3 1624:1 1659:2 1676:1 1679:2 1701:1 1729:6 1768:4 1776:1 1798:2 1804:2 1822:1 1853:4 1860:2 1939:1 1982:4 1984:1 1990:4 
-0.0025928283875121253994333603287714 59:1 64:3 131:2 155:2 174:8 215:3 222:15 239:1 245:1 269:2 354:9 414:1 450:1 456:14 457:3 518:5 564:1 587:3 606:7 610:10 644:7 654:6 661:3 728:1 749:2 787:2 923:11 927:2 930:1 1013:5 1027:5 1054:1 1082:12 1084:1 1118:4 1230:1 1237:2 1247:1 1248:3 1283:1 1319:1 1323:1 1358:2 1360:1 1369:1 1387:2 1478:1 1493:1 1502:2 1529:1 1583:9 1648:2 1649:2 1659:11 1679:5 1729:10 1732:1 1768:2 1782:4 1853:15 1860:1 1966:2 1982:5 
-0.0025928283875121253994333603287714 15:1 57:1 99:1 106:1 119:2 121:2 131:3 144:7 163:2 172:2 183:1 184:4 188:1 203:1 228:1 297:1 303:2 405:2 408:1 411:2 415:1 422:1 433:2 435:1 457:2 498:1 507:2 514:1 537:1 541:2 543:1 544:1 554:6 580:4 586:5 640:1 647:1 651:5 661:1 682:1 692:1 705:1 719:5 720:1 753:1 779:1 793:5 832:3 835:1 845:1 877:1 914:1 947:5 963:1 996:4 1000:2 1047:1 1053:2 1059:1 1107:3 1125:1 1137:1 1165:1 1177:1 1214:5 1225:2 1229:1 1252:4 1254:1 1299:1 1354:1 1358:2 1361:1 1404:2 1405:2 1412:1 1426:2 1432:1 1436:4 1444:3 1455:1 1456:3 1481:2 1487:6 1489:2 1491:2 1498:4 1500:1 1509:4 1510:4 1515:1 1529:3 1545:2 1555:1 1557:3 1588:1 1601:1 1602:1 1615:2 1623:2 1627:2 1632:1 1653:2 1668:2 1672:1 1675:3 1676:1 1680:2 1681:1 1728:1 1755:1 1776:1 1784:2 1798:1 1819:1 1895:1 1902:1 1914:5 1921:3 1943:1 1972:1 1996:3 
-0.0025928283875121253994333603287714 7:2 42:6 57:5 102:1 106:2 119:1 131:1 136:2 144:2 159:1 163:1 172:1 183:1 184:3 194:1 222:1 238:1 303:2 308:1 310:1 329:1 408:1 411:2 415:1 479:1 498:3 500:1 501:1 507:1 514:1 537:2 543:1 544:4 554:2 580:1 586:1 640:4 647:1 651:2 661:1 682:2 719:2 753:1 767:2 769:1 779:1 793:1 832:2 835:1 845:2 904:1 925:1 947:4 963:1 969:1 975:1 1000:1 1037:1 1047:1 1053:2 1059:1 1104:1 1107:1 1118:1 1165:2 1177:1 1182:1 1196:1 1208:1 1214:4 1243:2 1254:1 1255:1 1276:1 1354:2 1356:2 1358:3 1361:1 1374:1 1404:3 1405:2 1431:1 1432:1 1436:4 1443:2 1444:3 1456:1 1481:1 1487:6 1489:1 1491:1 1498:2 1500:1 1509:1 1510:3 1515:2 1545:1 1555:1 1582:1 1583:1 1601:1 1602:1 1618:1 1642:1 1659:1 1675:3 1693:1 1728:1 1736:1 1845:1 1872:1 1887:2 1895:1 1902:2 1914:2 1921:2 1932:2 1972:2 1980:1 1982:1 
-0.0025928283875121253994333603287714 25:1 39:1 96:1 211:1 260:1 407:1 488:1 522:1 575:1 599:1 856:1 907:1 908:1 935:1 948:1 1159:1 1184:1 1193:1 1420:1 1645:1 1915:1 
0.0022156914874051150676770305381069 108:1 127:5 132:1 172:3 179:1 203:1 211:1 242:1 262:2 294:4 297:1 301:9 305:9 330:1 383:2 387:2 404:1 434:2 438:2 458:1 462:2 467:1 475:1 488:2 500:1 501:1 507:1 514:5 530:3 542:2 584:1 603:4 679:6 704:1 708:2 784:5 833:1 835:1 845:1 878:1 933:4 940:1 954:4 1028:2 1036:2 1056:1 1132:5 1138:1 1143:1 1194:1 1252:2 1253:1 1276:4 1279:1 1299:2 1311:2 1337:4 1358:1 1404:1 1405:2 1426:1 1428:1 1432:2 1451:3 1457:1 1487:1 1496:1 1506:1 1520:3 1527:6 1535:2 1536:2 1553:2 1557:3 1588:1 1615:1 1623:1 1671:2 1681:1 1735:2 1742:2 1781:3 1784:1 1804:2 1842:1 1848:5 1862:1 1865:1 1897:2 1900:2 1903:1 1912:1 1943:2 1952:3 1979:6 1981:3 
0.00093952052404879546430166437076537 22:2 35:1 46:1 49:1 74:2 77:1 96:2 140:1 175:1 179:1 180:1 191:1 226:1 228:1 262:2 295:2 301:1 337:1 340:2 378:3 383:2 387:1 407:2 462:1 467:1 488:2 552:1 577:3 589:1 600:3 603:1 605:3 669:1 679:4 689:1 714:2 784:3 801:1 809:3 819:2 824:1 833:1 907:1 940:1 948:1 954:4 961:1 1043:1 1045:1 1051:2 1097:1 1103:1 1132:3 1138:1 1143:5 1150:1 1157:2 1161:2 1181:2 1193:2 1194:1 1224:1 1266:1 1297:1 1342:1 1378:1 1409:2 1420:3 1428:4 1440:1 1451:1 1457:2 1492:2 1496:2 1503:1 1506:3 1519:2 1526:1 1527:1 1535:2 1536:1 1551:1 1568:1 1627:1 1669:1 1671:2 1749:2 1778:1 1781:2 1818:2 1842:2 1848:2 1862:8 1865:1 1894:1 1903:2 1923:1 1934:4 1948:1 1960:1 1987:1 1994:6 
-0.0021033030957201869284856066144584 140:5 142:2 158:1 170:1 175:1 191:1 211:1 226:1 228:1 262:5 295:1 301:4 305:7 326:1 335:1 337:2 340:5 378:1 383:4 387:1 425:1 434:3 438:4 458:1 462:6 467:4 552:5 584:3 679:8 704:4 708:2 778:1 784:8 809:2 819:3 824:7 833:5 838:2 857:1 907:2 910:1 940:7 954:8 1043:2 1051:1 1132:7 1138:4 1143:3 1150:1 1157:3 1161:1 1181:1 1193:1 1194:7 1219:7 1223:2 1336:2 1342:1 1409:2 1428:1 1440:1 1451:1 1457:5 1490:1 1496:3 1503:2 1506:3 1520:1 1524:1 1526:1 1535:6 1536:16 1654:1 1671:6 1699:2 1718:1 1735:9 1781:15 1794:1 1814:3 1842:2 1848:14 1862:3 1865:2 1900:1 1912:1 1934:1 1938:1 1954:1 1960:2 1979:2 1994:3 
-0.0024469955408546783040546479526256 122:1 266:1 429:1 649:1 892:1 1209:1 1300:1 1754:1 1851:1 1855:1 1991:1 
-0.0025928283875121253994333603287714 8:1 87:1 233:1 296:2 395:1 413:1 669:2 671:1 1089:1 1388:1 1547:1 1594:2 1636:1 1738:1 1792:1 1873:1 1915:1 1941:1 
0.0010169266705476200617075388521471 15:1 57:1 59:3 99:3 102:1 119:1 131:5 136:3 144:3 174:1 183:1 188:1 203:2 239:2 268:1 302:2 303:3 308:2 329:1 342:1 411:4 432:3 456:1 457:1 498:1 514:1 537:1 541:1 544:1 554:4 563:1 564:1 569:2 580:1 586:1 606:2 652:2 658:1 682:1 753:1 767:1 825:1 832:1 877:3 878:1 914:1 925:5 951:1 996:1 1013:2 1036:1 1044:1 1054:3 1059:1 1061:2 1082:1 1107:3 1118:4 1156:1 1165:1 1177:3 1214:2 1237:1 1247:1 1248:1 1252:2 1254:5 1276:1 1284:1 1323:1 1356:4 1358:2 1426:1 1436:2 1468:2 1489:2 1491:1 1498:1 1500:2 1502:1 1504:1 1509:2 1510:1 1515:1 1525:1 1528:1 1529:2 1550:3 1555:1 1557:1 1582:2 1615:1 1618:1 1623:1 1628:1 1642:5 1649:1 1653:2 1659:4 1661:1 1676:1 1679:2 1681:1 1698:1 1758:1 1777:1 1804:2 1829:1 1853:2 1887:1 1895:1 1902:4 1914:2 1982:1 1984:1 
0.0025928283875121253994333603287714 57:2 87:1 88:1 96:1 132:1 172:1 183:2 222:1 239:3 302:1 354:1 396:1 426:1 434:2 458:1 479:1 542:1 560:1 580:1 605:1 679:1 704:1 719:1 833:1 835:1 940:1 954:2 1125:2 1157:2 1176:1 1194:1 1253:1 1276:1 1279:1 1287:2 1356:1 1357:1 1358:1 1387:1 1392:1 1426:1 1428:1 1436:2 1453:1 1457:1 1492:1 1493:1 1498:1 1509:1 1520:1 1529:1 1536:1 1557:1 1654:1 1705:1 1731:1 1751:1 1777:1 1781:1 1792:1 1804:1 1846:1 1872:1 1923:1 1934:1 1943:1 1948:2 1979:1 1996:1 
-0.0025928283875121253994333603287714 8:1 25:1 35:1 44:1 74:1 88:3 95:1 96:1 115:2 149:3 175:1 177:2 180:1 182:1 190:5 226:1 282:1 296:2 323:2 336:2 349:1 362:1 365:1 381:1 395:1 400:1 407:2 409:1 489:3 534:1 538:2 555:1 558:1 599:4 601:1 624:1 638:1 650:1 669:2 680:2 683:1 703:1 714:3 738:4 794:2 800:1 839:1 889:2 898:1 907:1 929:1 948:2 986:2 1017:1 1019:4 1020:6 1029:1 1057:1 1088:1 1089:2 1090:2 1109:1 1113:2 1124:2 1169:3 1238:1 1260:1 1287:1 1293:1 1322:5 1326:1 1351:1 1370:2 1378:1 1388:3 1401:2 1409:1 1416:2 1417:1 1418:1 1495:1 1507:2 1538:1 1542:1 1551:3 1552:1 1554:1 1568:1 1571:1 1589:2 1597:1 1613:2 1614:1 1625:1 1644:1 1689:1 1723:1 1734:1 1738:3 1751:2 1752:1 1759:1 1765:1 1791:1 1792:1 1828:1 1833:1 1873:1 1880:1 1907:2 1908:2 1920:2 1923:1 1935:1 1941:1 1961:1 1978:1 1993:2 
-0.00064731619364596590122246100307279 20:1 54:2 56:1 66:1 76:1 150:1 177:1 237:1 244:2 263:1 282:1 311:1 323:1 334:1 336:2 373:3 382:1 386:1 399:1 409:1 412:3 478:1 505:1 519:2 562:1 570:1 601:1 613:1 622:1 627:1 631:1 632:1 650:2 685:1 713:1 727:1 773:1 792:1 851:2 853:1 912:1 944:1 950:1 952:1 1001:1 1057:1 1064:1 1148:1 1168:1 1169:1 1173:1 1231:1 1246:2 1261:1 1267:1 1275:1 1328:2 1362:1 1364:1 1484:1 1563:1 1596:1 1606:1 1608:1 1621:1 1636:2 1639:1 1685:1 1695:1 1700:1 1717:3 1751:1 1752:1 1765:2 1767:1 1813:1 1871:2 1873:1 1910:1 1927:1 2000:1 
-0.0011855401302472532050480413801097 3:1 4:3 12:1 40:1 44:2 62:1 109:3 114:1 150:2 225:1 246:9 250:1 263:1 264:1 266:1 271:2 277:1 290:1 316:3 343:1 349:1 350:1 362:2 389:1 403:1 406:3 416:1 439:3 442:5 476:1 483:2 487:4 499:2 502:1 510:1 519:1 551:1 562:1 599:4 622:5 625:1 638:1 649:4 688:2 696:1 710:3 713:2 745:4 761:3 777:1 785:1 814:3 817:2 846:1 852:1 868:2 869:1 889:1 898:1 918:1 922:2 926:1 934:2 944:1 960:1 1008:1 1010:1 1017:1 1021:2 1035:3 1078:1 1079:2 1088:2 1090:2 1109:2 1113:2 1117:2 1130:1 1155:3 1162:1 1226:1 1231:2 1250:1 1260:3 1293:1 1298:1 1315:4 1331:1 1334:1 1338:3 1347:1 1371:2 1380:2 1390:2 1416:1 1422:1 1425:5 1445:1 1447:3 1494:1 1495:7 1508:1 1516:2 1552:5 1562:2 1564:1 1571:3 1573:1 1574:1 1613:4 1621:2 1633:1 1684:1 1710:1 1724:1 1734:4 1738:7 1751:3 1752:2 1762:1 1764:4 1765:1 1771:1 1774:1 1791:2 1792:8 1813:1 1851:2 1855:1 1871:2 1874:2 1878:4 1881:3 1908:4 1935:3 1961:2 1978:1 2000:2 
-0.0022300344766613584834846761850713 20:2 27:3 78:2 87:8 95:1 149:1 182:1 195:1 209:1 227:1 233:4 246:4 250:4 251:1 313:9 316:3 347:1 348:1 349:2 350:2 381:3 406:3 416:2 442:9 480:2 494:1 504:3 505:1 508:1 558:3 593:2 595:1 599:6 622:1 625:6 672:1 685:1 687:2 710:1 745:2 761:7 782:1 785:2 813:1 846:1 868:1 869:2 879:1 887:1 889:3 898:1 935:2 960:3 964:1 974:1 986:2 1008:7 1017:2 1029:1 1040:1 1088:1 1102:1 1105:1 1109:1 1113:2 1115:3 1117:2 1153:1 1155:2 1240:1 1260:5 1286:2 1293:3 1315:4 1331:2 1371:2 1380:1 1416:4 1422:4 1495:7 1538:5 1547:1 1552:1 1564:9 1571:1 1572:1 1587:2 1606:1 1609:3 1613:4 1639:1 1650:2 1670:2 1734:6 1738:4 1746:1 1751:3 1764:4 1765:1 1774:4 1791:1 1792:7 1855:1 1856:6 1861:2 1880:4 1881:2 1908:1 1935:8 1965:1 1968:1 1978:1 1989:1 
0.0011282960986797965254047060312814 46:3 79:2 127:1 140:2 142:3 158:1 170:2 175:1 179:1 211:2 228:3 262:3 295:1 297:3 301:4 305:2 315:2 330:2 337:3 340:4 378:2 383:1 387:1 392:1 405:1 419:3 438:3 458:1 462:3 467:1 488:1 552:3 584:3 600:3 603:1 605:2 679:5 682:1 704:1 708:1 714:2 778:1 784:1 801:1 809:3 819:4 824:2 833:3 838:2 878:1 907:3 910:1 933:3 940:2 954:11 1051:4 1055:1 1132:3 1137:2 1138:2 1143:2 1150:1 1157:3 1161:3 1193:2 1194:7 1219:1 1311:1 1336:6 1337:1 1342:3 1370:1 1378:2 1420:2 1428:2 1440:1 1444:1 1451:2 1457:3 1490:1 1492:1 1496:1 1506:1 1520:1 1524:1 1527:1 1535:2 1536:3 1553:1 1556:1 1588:1 1627:1 1632:1 1654:1 1671:4 1699:5 1718:5 1727:1 1735:2 1749:3 1759:1 1781:3 1814:2 1842:2 1846:4 1848:4 1862:6 1865:3 1900:1 1903:1 1912:2 1934:4 1938:1 1948:2 1960:3 1979:1 1981:2 1994:1 
0.0025928283875121253994333603287714 57:1 82:1 203:1 235:1 247:1 297:1 305:1 357:1 361:2 378:1 396:1 405:1 415:1 441:2 457:1 514:1 530:1 538:1 542:1 554:1 570:1 652:1 679:2 683:1 742:1 835:2 836:1 838:1 863:1 878:2 891:1 947:2 970:1 975:1 976:2 982:1 1048:1 1053:1 1059:1 1104:1 1107:1 1176:1 1221:1 1222:1 1252:1 1276:1 1299:1 1343:1 1356:1 1412:1 1416:1 1439:1 1440:2 1487:1 1510:1 1515:1 1521:1 1529:1 1550:1 1556:1 1557:1 1588:1 1638:1 1675:1 1784:2 1787:1 1862:1 1887:1 1897:1 1943:1 1952:1 
0.0022486299173385447883188881235128 25:1 46:1 79:1 106:1 121:7 127:5 159:2 163:1 172:1 179:3 184:2 219:1 226:1 228:1 238:1 242:1 294:1 297:1 301:4 305:3 315:1 330:2 344:1 361:4 378:1 387:2 404:1 405:1 438:1 470:3 488:1 500:1 501:1 514:5 538:1 542:1 543:2 568:4 578:1 589:2 603:2 605:1 626:1 651:1 679:2 682:2 705:3 769:1 784:1 797:2 809:1 816:1 835:1 839:1 878:1 907:2 917:1 933:3 940:2 963:2 1009:4 1012:2 1020:1 1028:1 1036:1 1097:1 1125:1 1132:2 1157:1 1194:1 1219:1 1251:1 1253:2 1255:1 1266:2 1276:1 1299:1 1311:3 1313:1 1342:1 1354:3 1357:3 1358:1 1370:2 1378:4 1392:1 1412:1 1426:1 1428:1 1444:2 1448:1 1460:3 1487:1 1492:4 1507:1 1520:1 1524:1 1535:1 1545:1 1553:1 1556:1 1588:1 1589:1 1591:1 1597:1 1601:1 1628:2 1632:5 1638:2 1668:3 1671:1 1681:3 1693:4 1727:1 1728:1 1735:6 1755:1 1759:1 1770:2 1778:1 1781:1 1848:3 1850:1 1862:1 1872:1 1887:4 1897:2 1900:1 1905:2 1923:1 1929:1 1933:1 1943:1 1963:2 1979:3 1981:2 1993:1 
-0.0025928283875121253994333603287714 79:1 106:1 127:10 140:3 170:6 172:1 175:1 179:1 211:1 242:4 294:5 297:3 301:2 305:1 330:4 340:1 361:1 378:2 387:1 396:4 405:2 422:1 434:1 438:5 462:4 467:1 475:1 514:11 530:7 542:13 577:1 600:1 603:5 679:1 682:2 690:2 704:1 784:3 809:1 819:4 835:1 838:4 878:11 954:1 1036:5 1055:1 1056:5 1132:3 1150:1 1161:1 1176:7 1194:2 1219:3 1252:2 1255:1 1276:5 1279:4 1299:2 1311:1 1337:1 1342:1 1357:1 1358:2 1404:2 1426:6 1428:1 1457:1 1490:1 1496:1 1506:2 1527:3 1535:2 1551:1 1553:5 1557:3 1588:2 1654:1 1671:2 1681:1 1735:4 1742:1 1781:1 1784:4 1804:3 1814:2 1842:1 1846:3 1862:3 1865:1 1897:11 1900:2 1912:1 1934:1 1938:1 1943:7 1952:1 1960:2 1979:4 1981:1 
-0.0025928283875121253994333603287714 14:1 25:1 35:1 40:1 46:2 49:1 50:2 87:1 96:1 108:1 113:1 121:1 159:2 163:1 172:1 175:1 179:2 184:2 201:1 207:1 211:1 219:3 221:1 228:1 262:1 297:1 305:1 330:1 335:4 365:1 387:3 404:1 426:1 438:1 470:1 500:1 501:3 522:1 538:3 543:3 568:1 577:1 578:1 589:1 599:1 601:1 605:1 669:1 679:3 680:1 683:1 692:1 714:1 761:1 778:1 784:2 797:2 809:1 816:2 824:1 838:1 845:1 856:1 869:2 900:1 907:3 908:1 917:1 935:1 954:1 963:2 1000:1 1009:3 1012:1 1028:1 1049:1 1097:3 1109:1 1137:1 1157:1 1193:1 1194:1 1207:1 1251:2 1279:2 1311:2 1326:1 1330:1 1331:1 1342:1 1354:1 1368:2 1370:2 1378:7 1385:1 1392:1 1418:1 1419:1 1428:1 1432:1 1444:2 1451:1 1453:2 1490:1 1492:8 1496:1 1507:3 1520:1 1524:1 1545:2 1551:2 1556:4 1589:1 1591:1 1597:1 1601:3 1615:2 1627:2 1628:2 1630:2 1632:3 1638:1 1644:1 1669:1 1671:1 1693:4 1696:1 1699:1 1726:1 1749:1 1770:3 1778:2 1818:1 1842:3 1850:1 1865:1 1872:1 1873:1 1887:1 1900:4 1901:1 1903:1 1905:1 1915:2 1929:2 1934:2 1943:1 1954:1 1960:1 1963:1 1979:1 1980:1 1981:1 1994:1 
-0.00075331589431230385183607678456497 79:1 140:16 142:4 158:4 175:2 191:3 211:5 262:4 295:6 337:2 340:14 392:2 419:9 425:11 434:1 458:2 462:2 467:1 488:3 552:1 584:5 600:2 679:2 819:27 833:6 857:1 907:2 910:1 954:4 1028:1 1043:2 1051:6 1055:4 1132:2 1150:6 1157:7 1161:2 1181:1 1193:2 1194:9 1336:14 1337:1 1342:2 1419:1 1428:4 1440:2 1496:3 1506:1 1535:4 1536:1 1644:1 1654:2 1671:10 1699:4 1718:3 1778:2 1794:1 1814:10 1842:1 1846:1 1862:3 1865:1 1912:2 1934:7 1938:5 1948:1 1960:15 1994:8 
-0.0025928283875121253994333603287714 35:1 46:1 79:1 108:2 121:2 142:1 159:3 163:3 184:2 211:1 232:2 295:1 330:1 335:1 378:1 404:1 405:1 438:1 458:2 470:1 488:1 500:1 501:2 507:1 514:1 522:2 543:1 544:1 554:1 568:2 578:3 589:1 595:1 601:1 605:3 651:1 679:2 683:1 697:1 714:1 719:1 778:1 797:1 800:1 824:1 832:1 838:1 857:1 907:2 954:2 958:1 963:4 1009:1 1012:1 1049:1 1089:1 1097:1 1105:1 1125:1 1137:6 1143:1 1157:2 1161:1 1184:2 1194:2 1201:1 1223:1 1225:2 1251:1 1252:1 1253:2 1255:1 1266:1 1271:1 1299:1 1314:1 1337:1 1357:1 1358:1 1368:2 1370:1 1378:2 1385:2 1392:2 1418:1 1419:1 1428:1 1431:1 1456:1 1460:1 1487:1 1492:3 1496:2 1507:1 1510:1 1519:1 1523:1 1545:3 1551:1 1556:1 1589:1 1601:1 1614:1 1615:4 1627:1 1628:3 1632:3 1638:1 1644:1 1680:1 1693:5 1718:1 1735:1 1736:1 1742:1 1770:3 1784:1 1842:1 1845:2 1846:1 1865:1 1873:2 1900:1 1905:1 1912:1 1923:1 1933:1 1934:1 1963:1 1981:3 1993:1 1994:2 
0.0025928283875121253994333603287714 40:4 114:1 185:1 217:1 227:1 246:5 250:9 271:1 290:1 316:3 362:2 381:1 382:3 389:1 395:2 406:1 416:1 442:7 469:2 558:1 573:1 599:2 615:2 624:1 638:1 710:4 713:2 738:1 745:2 750:1 761:3 782:3 794:3 817:2 868:8 896:2 898:3 935:3 952:1 960:6 1010:1 1088:4 1090:2 1109:6 1113:4 1117:2 1124:1 1155:4 1162:2 1250:1 1260:2 1293:2 1315:4 1331:2 1371:2 1380:1 1401:2 1416:5 1417:1 1422:1 1425:4 1495:4 1538:1 1542:1 1552:6 1562:1 1564:6 1571:5 1613:2 1650:3 1723:1 1724:3 1734:6 1738:5 1741:1 1751:3 1752:3 1754:1 1762:2 1764:5 1765:5 1774:6 1791:4 1792:10 1813:1 1833:2 1856:5 1878:1 1881:5 1908:5 1961:1 1968:1 1978:1 1989:1 
0.0025928283875121253994333603287714 8:3 87:6 94:5 96:1 182:1 195:4 207:1 217:1 233:2 246:1 250:1 271:1 296:1 313:1 349:1 381:3 406:4 413:2 442:3 489:1 550:3 560:4 595:6 599:5 625:1 638:4 669:1 684:2 689:3 703:1 710:2 761:4 782:2 800:2 817:1 867:2 868:2 869:4 887:2 889:1 922:1 935:1 948:2 952:1 958:2 960:1 964:1 986:6 1008:3 1017:2 1019:1 1029:2 1040:4 1089:2 1090:1 1103:3 1109:4 1117:1 1124:2 1159:1 1207:3 1250:3 1260:1 1271:5 1315:1 1322:3 1330:3 1371:2 1388:1 1416:2 1417:1 1418:1 1422:1 1495:1 1547:1 1552:1 1564:2 1571:2 1579:1 1609:1 1613:1 1614:2 1625:1 1689:2 1723:1 1734:3 1738:3 1751:2 1752:3 1762:1 1765:2 1791:1 1813:1 1818:1 1833:1 1841:1 1856:1 1869:3 1880:5 1881:2 1901:1 1915:1 1935:8 1941:5 1968:3 1987:6 1989:2 
0.0025928283875121253994333603287714 8:5 35:1 40:2 87:6 94:6 177:1 182:1 227:2 233:3 250:2 290:1 313:2 316:1 349:1 362:1 381:3 395:2 406:5 416:2 442:2 469:1 483:3 522:3 550:1 558:3 560:1 595:1 599:9 624:1 625:3 638:3 669:1 687:1 689:1 703:2 710:4 725:1 738:1 745:2 750:1 761:3 782:3 785:1 794:1 801:1 817:1 867:2 868:3 869:3 889:3 898:1 922:1 929:1 935:2 952:1 958:3 960:1 986:4 1008:3 1017:2 1029:6 1089:1 1105:1 1109:2 1117:2 1124:2 1162:1 1169:1 1207:1 1260:1 1271:1 1293:2 1315:3 1330:2 1371:1 1417:1 1422:1 1425:2 1495:2 1538:2 1552:5 1564:6 1579:1 1609:1 1613:2 1614:1 1650:1 1689:1 1710:2 1734:8 1738:4 1751:1 1764:3 1774:1 1791:2 1792:10 1856:6 1867:1 1880:2 1881:2 1901:1 1907:2 1908:1 1920:2 1935:7 1961:1 1968:2 1989:3 
0.0022195222689080462523392167639713 22:1 35:2 50:3 74:1 77:2 96:2 149:1 180:2 190:2 218:3 232:2 244:4 260:2 280:2 282:1 296:2 316:1 323:3 336:1 365:1 381:1 400:1 407:2 409:2 442:1 446:2 506:1 522:3 534:1 550:2 555:1 557:1 560:2 570:1 571:1 595:1 599:2 601:2 650:4 667:2 669:2 684:1 703:1 725:4 761:1 762:2 782:1 789:1 794:1 800:4 841:2 853:3 856:2 869:3 887:4 889:2 898:2 909:5 922:1 929:1 958:1 1017:1 1019:1 1020:7 1029:3 1040:1 1049:1 1057:1 1089:2 1103:1 1124:5 1159:1 1169:7 1207:4 1238:1 1263:1 1271:4 1297:2 1330:3 1331:1 1368:1 1388:5 1419:1 1422:2 1425:1 1445:1 1523:1 1538:2 1554:2 1564:1 1614:3 1640:1 1695:2 1723:1 1765:1 1778:1 1794:1 1818:4 1828:4 1833:1 1864:1 1869:1 1873:2 1877:1 1906:1 1908:1 1915:4 1929:1 1933:1 1935:1 1941:2 1942:1 1954:2 1983:3 1987:3 
-0.0013377624184610118710653248186304 40:2 87:3 195:1 217:3 227:1 232:1 233:1 246:2 250:3 263:1 313:10 316:1 349:1 350:2 362:1 381:3 406:2 416:1 442:2 504:1 522:1 527:1 558:4 560:1 599:6 625:6 687:6 710:2 745:3 761:5 782:2 785:8 867:3 869:1 896:1 898:2 922:1 929:2 935:2 952:1 958:1 960:3 964:1 986:5 1008:4 1088:2 1090:4 1105:6 1109:5 1113:1 1117:6 1124:2 1155:5 1162:1 1207:2 1260:5 1293:1 1315:3 1331:2 1371:1 1380:1 1416:4 1417:2 1418:2 1422:8 1425:3 1495:2 1538:2 1547:1 1552:2 1562:2 1564:2 1571:2 1587:2 1609:4 1613:5 1723:1 1734:11 1738:7 1751:1 1752:4 1762:1 1764:8 1765:6 1774:6 1792:8 1856:8 1874:1 1880:8 1881:3 1907:1 1935:7 1968:4 
-0.0025928283875121253994333603287714 50:1 58:2 186:1 387:1 402:1 420:1 748:1 766:1 786:1 830:1 931:1 940:1 987:1 1015:1 1086:1 1091:1 1236:2 1252:1 1415:1 1428:1 1643:1 1772:1 1912:1 
0.0025928283875121253994333603287714 35:3 48:1 96:2 115:1 117:2 190:2 226:1 282:1 323:2 336:1 412:2 461:2 464:1 522:1 534:1 538:2 555:2 560:2 577:1 595:2 599:1 639:1 650:2 670:1 684:1 689:2 703:1 725:1 743:2 754:1 761:1 762:2 794:1 800:1 822:2 828:2 853:1 892:1 909:1 922:1 932:1 1020:2 1049:1 1139:2 1162:1 1184:1 1193:1 1207:1 1263:1 1271:2 1328:1 1339:1 1388:1 1409:1 1419:1 1427:1 1507:1 1538:1 1554:2 1568:1 1594:4 1597:1 1614:1 1638:1 1657:1 1669:1 1695:1 1706:1 1717:1 1741:1 1801:1 1834:1 1864:2 1867:1 1907:1 1920:1 1929:1 1935:1 1941:1 1954:1 1987:1 
-0.0025928283875121253994333603287714 548:1 901:1 1375:1 1656:1 
0.0014794235100278191330502863820584 14:1 15:1 99:1 106:2 108:1 131:1 132:2 144:1 159:1 163:1 172:1 183:1 184:2 201:1 203:1 219:2 228:1 330:1 344:1 361:1 378:1 396:1 405:3 411:1 422:1 426:3 438:2 470:1 479:1 500:1 501:2 507:2 514:3 541:1 542:2 543:1 544:1 554:2 568:1 578:3 580:2 589:1 605:6 626:1 640:2 646:1 651:4 682:1 719:1 720:1 759:1 767:2 784:1 878:1 933:1 947:1 963:2 996:1 1000:2 1020:1 1107:1 1119:1 1137:1 1214:1 1252:1 1255:1 1279:1 1299:1 1313:1 1337:1 1342:1 1357:3 1358:2 1361:1 1392:1 1412:2 1426:6 1432:3 1444:2 1455:1 1456:3 1487:5 1489:1 1491:1 1493:1 1498:3 1510:4 1524:1 1527:1 1557:1 1588:1 1601:1 1615:2 1627:1 1632:1 1680:4 1693:1 1726:2 1742:3 1770:1 1784:1 1798:2 1850:1 1859:2 1872:1 1887:2 1902:4 1914:5 1943:1 1979:2 1981:1 1996:1 
-0.0022134411922688931005642754001883 22:9 23:1 25:2 64:4 74:1 96:3 121:2 174:2 180:1 203:1 211:1 222:3 239:1 260:2 269:1 294:1 305:2 337:1 340:1 358:3 405:2 407:4 413:4 414:2 415:1 450:4 456:2 457:1 475:1 488:1 530:1 542:2 552:1 560:1 564:1 569:1 603:1 644:11 654:12 667:2 669:1 671:1 680:2 684:1 689:2 707:1 749:1 784:2 787:3 791:1 803:4 819:5 856:2 857:2 869:1 904:3 910:1 914:1 923:4 927:1 930:1 1036:1 1045:1 1054:1 1055:2 1082:1 1084:2 1103:2 1138:2 1159:1 1161:1 1193:1 1194:2 1219:1 1224:3 1237:1 1247:1 1263:2 1276:7 1284:2 1297:3 1299:1 1319:5 1323:4 1388:1 1409:3 1420:1 1478:1 1490:3 1519:5 1520:1 1526:4 1579:1 1583:3 1589:1 1593:2 1614:1 1623:4 1644:1 1649:1 1654:1 1669:1 1729:5 1732:3 1742:2 1778:1 1781:2 1804:1 1842:1 1853:1 1860:2 1869:2 1897:2 1915:1 1939:1 1941:2 1952:4 1954:2 1960:1 1966:4 1979:4 1981:1 
-0.0025928283875121253994333603287714 5:1 21:1 24:5 30:1 57:1 59:1 64:1 99:1 138:1 139:5 144:1 269:1 274:3 289:1 292:2 302:3 322:1 371:1 411:2 432:1 435:2 440:3 456:1 563:1 569:3 585:2 606:1 644:3 652:2 654:1 661:1 698:5 707:1 729:4 739:1 753:1 775:5 787:3 791:2 825:4 836:3 837:1 873:5 923:2 925:3 927:1 942:1 983:1 991:4 1002:1 1006:5 1013:1 1044:6 1054:4 1058:3 1061:1 1082:2 1084:2 1098:2 1118:1 1127:6 1165:2 1177:7 1196:1 1198:2 1208:1 1230:2 1237:4 1254:1 1282:1 1283:1 1323:1 1343:1 1356:1 1358:1 1394:1 1443:1 1461:1 1478:1 1483:2 1502:2 1504:2 1512:3 1550:6 1575:1 1582:2 1611:3 1624:1 1642:13 1648:1 1649:1 1659:1 1661:7 1665:3 1679:1 1698:3 1701:1 1707:1 1719:1 1758:1 1768:1 1777:5 1808:1 1822:2 1825:1 1829:2 1860:3 1939:1 1950:2 1956:3 1966:1 1984:2 1990:3 
0.0025928283875121253994333603287714 22:2 25:1 27:1 87:1 96:2 140:4 149:1 179:1 180:1 182:1 195:3 211:1 217:1 232:1 262:1 296:1 305:1 313:5 316:1 337:1 340:2 349:2 381:3 392:1 407:1 442:2 458:1 467:1 504:1 560:2 599:1 625:1 667:1 679:1 684:2 687:1 761:2 784:1 785:1 800:1 809:1 817:1 819:1 867:1 868:1 869:1 889:1 898:1 922:1 940:1 948:3 954:1 964:1 986:2 1008:2 1017:1 1040:1 1103:2 1105:1 1109:2 1117:2 1132:1 1193:2 1194:2 1260:1 1271:1 1315:1 1330:1 1331:2 1388:1 1420:1 1422:2 1428:1 1490:1 1496:1 1503:1 1506:1 1520:1 1535:3 1536:4 1547:1 1552:1 1564:1 1571:1 1579:1 1609:2 1614:1 1669:2 1718:1 1734:5 1738:2 1764:1 1765:1 1791:1 1792:1 1846:1 1856:1 1862:3 1869:1 1880:3 1881:3 1894:1 1912:1 1915:1 1935:3 1941:1 1954:1 1960:1 1961:1 1968:1 
0.0025928283875121253994333603287714 22:1 44:1 62:1 87:1 95:1 96:1 112:1 149:1 158:1 182:1 195:1 211:2 217:1 250:2 271:2 295:1 296:1 297:1 301:3 313:1 315:1 316:2 349:1 362:2 378:1 381:1 407:1 442:2 458:1 467:1 522:1 552:1 595:1 599:1 603:1 625:1 669:1 671:1 684:1 689:2 690:1 710:2 713:1 745:2 778:1 784:2 794:1 801:1 809:1 819:1 824:1 856:2 857:1 868:2 869:1 898:2 940:1 954:1 960:1 986:1 1008:1 1029:1 1040:1 1078:1 1089:1 1090:1 1103:2 1105:1 1109:2 1113:1 1117:1 1124:1 1155:2 1157:1 1159:1 1162:1 1219:5 1260:2 1297:1 1315:1 1336:1 1337:1 1342:1 1409:3 1418:1 1422:2 1428:1 1495:2 1496:2 1503:1 1519:1 1526:1 1535:1 1562:1 1579:2 1593:1 1671:2 1689:1 1718:1 1724:1 1734:2 1735:3 1738:5 1751:1 1752:1 1764:3 1781:2 1792:1 1813:1 1846:1 1848:2 1856:2 1862:1 1867:1 1869:1 1880:1 1881:1 1897:1 1908:1 1912:2 1915:1 1934:2 1935:4 1960:3 1968:2 1979:1 1987:1 
0.0025928283875121253994333603287714 26:1 27:1 35:1 58:2 93:1 122:2 149:1 150:1 189:1 216:1 217:1 225:1 234:1 244:1 253:1 256:1 258:1 263:1 277:2 285:1 296:1 323:1 327:1 350:1 375:1 385:1 400:1 402:1 428:1 442:2 448:1 452:1 453:1 468:1 474:1 480:1 505:1 522:1 538:2 558:1 559:1 570:1 601:1 643:2 645:1 665:1 683:2 699:1 738:1 763:1 774:1 785:1 790:1 847:1 853:2 863:2 876:1 897:1 906:1 908:1 934:1 944:1 981:1 1010:1 1012:1 1015:1 1022:1 1023:1 1034:1 1035:1 1057:1 1066:1 1090:1 1167:1 1169:1 1170:1 1175:1 1184:2 1202:1 1216:1 1317:1 1339:1 1351:1 1370:1 1371:2 1400:1 1408:1 1419:1 1430:1 1438:1 1462:2 1469:1 1479:1 1507:1 1516:1 1519:1 1538:1 1549:2 1564:1 1569:1 1592:1 1594:1 1613:1 1638:1 1684:2 1687:2 1695:1 1700:1 1715:2 1723:1 1725:1 1737:1 1738:2 1740:1 1746:1 1772:1 1790:1 1840:1 1846:1 1847:1 1865:1 1867:1 1873:2 1880:1 1884:1 1906:2 1920:5 1968:1 
-0.00068726652253851827634179016968119 170:2 179:1 228:2 242:2 262:2 295:2 297:1 301:10 305:8 337:1 378:3 383:9 438:2 462:5 467:2 488:4 584:2 679:7 690:1 704:7 708:3 784:10 809:2 824:12 833:7 838:1 933:4 940:13 954:8 1132:10 1138:8 1143:3 1194:4 1219:19 1311:3 1337:2 1342:2 1428:2 1451:2 1457:10 1496:1 1506:7 1520:3 1536:12 1553:1 1671:10 1699:1 1735:4 1781:29 1842:3 1848:9 1862:4 1900:4 1912:9 1979:2 
-0.0014628619477073520269150286310378 82:1 126:1 253:1 267:1 474:1 526:2 538:1 582:1 665:1 756:1 766:1 768:1 856:1 906:1 954:2 1031:1 1269:5 1296:1 1337:2 1388:4 1594:1 1687:1 1740:2 1915:3 1918:8 1934:1 1953:1 1973:1 
-0.0023896603892970599142264731540308 8:1 25:1 49:2 62:1 74:1 87:1 94:1 96:1 114:1 140:1 142:1 158:1 165:1 170:1 190:1 195:1 226:1 233:1 260:2 264:1 265:1 295:2 301:1 356:1 362:1 378:1 383:1 392:2 403:1 416:1 425:1 434:2 438:1 442:1 458:1 462:1 465:1 488:1 514:1 584:1 595:1 599:2 601:1 603:1 649:1 687:1 704:1 784:4 817:1 819:3 833:1 841:1 866:1 867:1 922:1 929:1 933:1 954:4 1028:2 1051:1 1078:1 1088:1 1109:1 1138:1 1150:2 1157:1 1193:1 1194:1 1207:2 1219:1 1297:1 1330:1 1331:1 1342:4 1371:1 1380:1 1388:1 1417:1 1418:1 1419:1 1422:1 1425:1 1451:1 1495:1 1496:1 1503:1 1507:1 1523:1 1535:1 1536:2 1542:1 1551:1 1556:1 1609:1 1644:1 1684:1 1700:1 1734:1 1738:1 1754:1 1765:1 1781:2 1791:1 1792:2 1813:1 1814:1 1846:1 1848:2 1862:1 1874:1 1878:1 1906:1 1908:1 1912:1 1934:2 1938:1 1979:1 1987:1 1994:2 
-0.00077999577851053567521810716556274 27:1 28:1 87:1 96:1 182:1 186:1 195:1 261:1 285:1 336:2 365:1 373:1 452:3 453:1 480:2 574:1 588:1 595:2 599:1 632:1 684:2 689:2 691:1 703:1 812:1 851:1 869:1 948:4 1011:1 1040:2 1103:1 1111:1 1134:1 1136:1 1188:1 1216:1 1220:1 1236:1 1271:7 1430:1 1485:1 1523:1 1548:1 1579:1 1614:2 1625:1 1637:1 1752:1 1760:1 1763:1 1773:1 1795:1 1941:1 1987:1 
-0.001485221730288655396859387458619 31:14 42:1 57:2 59:1 71:3 99:3 102:3 103:1 119:1 129:1 133:1 136:1 139:1 144:1 155:1 183:1 194:5 243:1 247:1 292:8 303:6 329:1 341:2 357:1 411:4 432:3 435:1 521:3 537:1 544:1 563:5 564:1 586:1 629:2 640:1 651:1 652:1 654:1 739:1 759:1 767:1 775:1 793:1 860:1 872:2 903:2 919:2 925:5 927:1 947:1 951:4 956:1 983:3 996:2 1044:2 1053:6 1059:2 1075:1 1084:1 1118:1 1127:5 1135:1 1182:1 1196:1 1208:5 1221:3 1237:4 1243:1 1249:2 1295:2 1344:1 1491:2 1500:2 1504:3 1525:4 1528:2 1550:2 1575:1 1582:11 1618:1 1624:2 1634:1 1642:2 1659:1 1661:1 1679:1 1688:1 1705:7 1758:2 1819:3 1825:1 1829:1 1831:1 1879:11 1882:4 1895:4 1896:1 1921:1 1971:4 1972:3 1996:1 
-0.0015147476614529779923717933698413 59:1 63:16 131:2 144:11 155:1 174:1 203:11 215:4 239:17 242:2 257:3 308:1 408:7 433:2 457:15 475:5 554:10 661:1 728:6 753:1 835:1 877:13 890:1 904:8 914:10 942:5 1013:2 1036:2 1039:6 1061:4 1118:5 1156:13 1229:1 1247:1 1248:5 1252:9 1284:9 1356:10 1358:5 1384:6 1426:2 1493:2 1515:2 1529:10 1588:4 1623:1 1659:3 1676:8 1679:1 1776:2 1782:2 1804:3 1853:1 1952:1 
-0.0013267430178468284183296299616472 5:2 21:1 24:2 31:4 42:1 59:1 71:1 102:6 103:3 105:1 133:1 138:2 247:2 292:3 317:1 341:1 357:2 411:7 431:3 432:4 435:1 482:1 484:2 490:1 498:1 521:4 528:3 537:1 563:3 585:4 629:3 652:1 698:8 729:1 752:4 780:1 783:1 844:1 860:2 872:1 903:3 919:1 925:11 951:3 956:2 970:3 975:5 983:1 996:2 1037:1 1044:2 1053:2 1058:1 1059:1 1075:1 1135:4 1196:3 1208:6 1221:2 1222:1 1237:1 1249:3 1256:1 1282:2 1295:5 1305:1 1344:1 1436:2 1443:4 1458:2 1480:1 1500:1 1504:1 1512:2 1540:5 1550:4 1555:2 1575:1 1582:4 1618:1 1624:1 1634:4 1642:1 1661:4 1665:1 1688:1 1703:1 1705:8 1758:2 1768:1 1777:3 1819:1 1822:1 1825:7 1829:2 1831:1 1879:5 1882:2 1895:1 1896:1 1930:1 1939:1 1950:1 1966:1 1972:2 
-0.0025928283875121253994333603287714 7:2 15:4 24:1 42:1 57:3 108:1 119:1 127:1 131:3 132:1 144:4 163:1 172:2 179:2 184:1 215:2 238:1 242:2 257:1 297:1 303:1 308:3 330:1 408:1 422:1 457:1 479:1 500:2 507:1 514:3 530:1 535:1 537:1 541:1 542:1 543:1 554:6 580:1 586:1 605:1 651:5 661:2 679:1 682:1 692:2 697:1 705:1 719:7 767:1 779:1 793:1 832:2 835:1 838:1 947:1 951:1 963:4 996:4 1000:4 1137:1 1165:1 1201:1 1214:4 1225:2 1247:1 1251:1 1252:3 1255:1 1276:1 1279:3 1299:2 1327:1 1358:1 1378:1 1392:3 1404:2 1405:4 1432:2 1434:1 1436:1 1444:3 1456:5 1481:3 1487:6 1489:2 1491:2 1492:1 1493:1 1498:4 1509:6 1510:5 1515:3 1529:1 1557:1 1588:1 1623:3 1632:2 1642:1 1653:2 1672:1 1675:2 1680:1 1726:1 1728:2 1742:3 1749:1 1784:3 1872:1 1887:5 1895:1 1902:2 1914:6 1921:1 1943:8 1980:1 1981:1 1996:3 
0.0025928283875121253994333603287714 8:1 27:1 35:1 39:1 40:1 54:1 62:1 77:2 87:1 94:1 96:2 115:1 149:1 150:2 175:1 177:3 180:1 211:1 232:2 260:3 262:2 277:1 290:1 296:2 309:1 312:1 313:1 327:1 335:3 349:1 362:1 365:2 381:2 400:1 406:1 407:2 442:1 476:1 488:1 499:1 527:1 552:6 560:2 562:1 599:2 601:2 625:2 669:1 680:3 687:1 689:2 713:2 714:2 725:1 743:1 794:1 796:1 800:1 801:2 817:1 841:1 856:2 867:1 868:2 869:2 887:1 889:2 907:1 934:1 948:1 958:1 960:1 961:1 1008:1 1010:1 1017:1 1051:1 1078:1 1105:1 1109:1 1113:1 1130:1 1133:2 1155:1 1159:4 1161:1 1169:3 1207:1 1227:1 1250:2 1260:1 1265:1 1271:3 1293:1 1297:1 1322:2 1331:1 1334:1 1368:1 1370:1 1371:1 1390:1 1409:5 1416:1 1417:1 1495:1 1507:1 1519:4 1523:1 1526:1 1538:1 1562:1 1564:2 1571:1 1589:2 1614:2 1631:1 1644:3 1650:1 1654:1 1669:1 1671:1 1689:1 1723:1 1734:3 1751:2 1759:1 1764:1 1765:1 1791:1 1792:1 1818:1 1824:1 1869:1 1873:1 1877:1 1878:1 1880:2 1881:1 1908:1 1915:1 1935:1 1942:1 1954:1 1987:4 1991:1 
0.0025928283875121253994333603287714 22:2 87:3 96:4 142:1 175:1 180:1 182:1 191:1 195:2 211:2 233:1 262:1 296:2 301:1 349:1 381:1 407:3 522:1 552:1 560:2 595:1 667:4 684:2 689:4 778:2 819:1 833:1 856:1 857:1 869:1 889:1 948:2 964:1 1040:2 1103:2 1159:1 1169:1 1207:1 1271:3 1337:1 1351:1 1388:1 1409:1 1428:1 1519:1 1526:1 1579:1 1614:4 1625:3 1644:1 1671:2 1718:1 1778:1 1794:1 1869:2 1915:1 1935:1 1941:1 1948:1 1960:1 
0.0025928283875121253994333603287714 35:2 44:1 46:1 77:3 94:3 96:2 115:1 142:1 158:1 175:1 177:1 180:2 185:1 191:1 207:1 211:1 232:2 250:3 260:2 271:1 330:1 335:1 337:2 340:2 362:2 365:1 383:1 395:1 407:1 413:1 415:1 416:1 419:2 434:2 442:2 488:4 522:1 552:4 577:2 595:1 599:2 601:1 624:1 669:2 671:2 679:1 680:1 703:1 714:1 738:1 761:3 782:1 784:1 794:3 809:1 833:1 838:1 839:1 856:1 857:1 869:1 878:1 889:1 896:1 907:2 954:3 960:1 986:1 1008:1 1019:1 1051:1 1089:3 1090:2 1103:2 1105:2 1113:1 1124:1 1138:1 1150:1 1157:1 1159:1 1161:1 1162:1 1193:1 1194:3 1250:1 1261:1 1271:1 1279:1 1297:1 1314:1 1330:1 1331:2 1337:1 1347:1 1351:1 1388:1 1409:3 1416:1 1420:2 1428:1 1440:2 1441:1 1444:1 1445:1 1457:1 1490:1 1496:1 1503:1 1506:1 1519:1 1520:1 1538:2 1547:1 1551:1 1552:2 1564:1 1571:1 1589:3 1613:1 1614:1 1625:1 1631:1 1640:1 1681:1 1693:1 1710:3 1724:1 1727:1 1735:2 1738:1 1751:3 1764:1 1765:2 1774:1 1778:2 1781:1 1791:1 1792:2 1818:2 1828:1 1842:2 1846:1 1848:1 1862:2 1869:3 1881:1 1900:1 1901:1 1903:1 1908:1 1912:1 1934:1 1935:2 1943:3 1954:1 1978:1 
0.0025928283875121253994333603287714 13:1 30:1 38:4 53:3 69:2 86:1 103:3 130:1 142:1 168:2 206:1 220:1 262:1 289:2 320:1 322:1 340:1 360:4 374:1 384:6 451:1 467:2 496:1 530:1 547:2 567:1 572:2 592:1 598:1 642:1 676:3 707:1 708:1 723:6 726:2 740:2 741:2 764:2 769:1 781:3 784:1 844:4 859:2 870:1 938:6 947:1 957:2 1016:1 1054:1 1094:1 1107:1 1120:2 1121:3 1157:1 1161:1 1205:1 1230:1 1262:1 1268:1 1319:1 1340:1 1426:1 1452:1 1453:1 1475:1 1553:1 1556:2 1617:1 1629:4 1651:3 1652:3 1665:3 1716:1 1719:6 1789:3 1805:5 1830:2 1839:1 1846:1 1865:1 1934:1 1936:1 1950:3 1956:1 1976:2 
0.0025928283875121253994333603287714 8:1 77:1 96:2 180:1 191:1 226:1 262:1 295:1 340:1 365:2 407:1 419:1 458:2 552:1 584:1 680:1 714:2 784:1 800:1 819:2 857:2 907:1 948:2 961:1 1043:1 1051:1 1057:2 1089:2 1150:2 1157:2 1159:2 1161:1 1193:2 1271:2 1297:1 1336:1 1409:1 1440:1 1503:1 1519:2 1526:1 1535:1 1551:1 1556:1 1614:2 1644:1 1654:1 1669:1 1689:1 1778:2 1814:1 1846:1 1865:1 1877:1 1880:1 1894:1 1915:1 1934:1 1938:1 1960:1 1987:1 1994:1 
-0.00045127231889414092360149344251852 24:1 30:1 31:10 42:3 59:1 71:2 86:2 102:2 119:1 129:1 136:1 183:1 194:4 247:8 270:1 292:7 302:1 303:2 329:1 341:2 357:2 431:1 432:2 435:1 450:1 479:1 482:1 484:1 498:1 521:3 535:1 537:4 541:3 544:1 563:6 564:1 583:1 585:1 640:2 661:1 698:2 719:1 729:1 752:1 759:2 767:1 775:1 836:1 860:2 872:1 873:1 903:1 919:1 925:5 947:1 951:5 956:2 970:4 975:2 982:1 983:3 998:1 1044:3 1048:1 1053:6 1058:1 1075:1 1127:3 1135:2 1196:1 1208:14 1211:1 1221:3 1237:2 1243:1 1249:5 1295:2 1344:1 1394:3 1436:1 1443:2 1458:2 1483:1 1491:2 1500:2 1504:6 1525:2 1540:1 1550:3 1575:2 1582:4 1634:1 1642:2 1649:1 1661:3 1679:2 1705:8 1714:1 1758:1 1777:2 1806:1 1819:1 1829:1 1831:5 1860:1 1879:4 1882:6 1895:1 1896:2 1971:1 1972:4 
-0.00090341939450661761824845630286518 8:4 22:2 27:2 87:10 94:2 96:5 149:3 182:8 195:19 207:3 232:4 233:2 260:2 296:1 313:2 349:2 381:4 413:1 489:2 522:3 558:1 560:5 595:2 599:3 625:1 669:1 684:4 689:8 800:2 841:1 867:1 869:7 887:3 889:2 948:7 958:15 964:1 986:13 1008:1 1017:3 1029:1 1040:3 1089:2 1103:7 1105:5 1124:2 1159:2 1207:1 1263:2 1271:6 1322:1 1330:3 1351:4 1388:1 1409:1 1418:4 1422:1 1547:3 1579:2 1609:8 1614:5 1625:2 1867:3 1869:1 1880:8 1908:1 1935:14 1941:4 1987:4 
-0.0010880022195388500128032660541066 14:1 27:1 131:2 235:2 408:1 433:2 446:2 508:1 570:1 606:1 734:1 742:1 885:1 914:1 992:1 1082:2 1148:1 1236:1 1326:1 1418:1 1427:1 1469:1 1549:1 1650:1 1672:1 1679:1 1680:1 1754:1 1798:1 1846:1 1848:1 1852:1 1853:1 1925:1 
0.0025928283875121253994333603287714 15:1 57:1 131:1 132:1 144:2 159:1 172:1 184:2 242:2 257:1 294:1 297:1 301:1 305:2 308:1 330:1 378:2 387:1 396:1 405:3 415:1 422:1 457:2 462:1 470:1 475:1 507:3 530:5 542:5 544:1 554:2 580:1 679:1 705:1 719:4 779:1 838:1 877:1 878:2 914:2 947:1 963:2 1036:2 1056:1 1107:1 1132:2 1137:1 1143:1 1176:1 1214:1 1229:1 1241:1 1254:1 1255:2 1276:2 1284:1 1299:2 1337:1 1356:1 1358:3 1404:2 1426:1 1428:1 1432:1 1436:1 1444:1 1457:1 1481:1 1487:1 1489:1 1509:1 1510:1 1557:2 1615:1 1627:2 1668:1 1671:1 1679:1 1681:1 1726:2 1728:1 1731:1 1736:1 1742:2 1784:3 1798:2 1848:1 1859:2 1897:1 1900:3 1914:2 1943:2 1952:1 1979:2 1981:2 
0.0025928283875121253994333603287714 74:2 108:1 175:1 179:1 191:1 198:2 211:2 262:1 295:2 305:3 340:1 378:2 383:1 387:1 426:2 458:1 467:2 470:3 488:1 514:1 530:1 554:1 571:1 577:1 600:3 601:1 667:1 679:3 682:1 704:1 705:1 789:2 801:1 819:1 833:1 856:1 857:1 878:1 907:1 933:2 940:1 948:1 954:1 1009:1 1028:1 1051:2 1125:1 1132:3 1143:1 1157:3 1194:1 1219:1 1252:1 1253:2 1263:1 1274:2 1279:1 1311:1 1358:1 1368:1 1378:1 1388:1 1419:1 1426:1 1432:1 1457:1 1492:1 1519:1 1520:4 1535:1 1536:1 1551:2 1614:1 1669:1 1671:3 1681:1 1693:2 1699:1 1718:1 1726:2 1735:1 1742:1 1749:1 1781:1 1804:1 1828:1 1842:2 1846:1 1848:1 1859:1 1897:1 1903:1 1905:1 1915:1 1943:1 1954:1 1960:1 1979:1 
-0.0025928283875121253994333603287714 222:1 301:1 354:1 371:1 457:2 462:1 518:1 530:1 587:1 661:1 877:1 947:1 1036:1 1056:1 1061:1 1082:1 1118:1 1157:1 1299:1 1336:1 1481:1 1583:1 1659:3 1672:2 1679:3 1736:1 1853:1 1887:1 1979:1 
-0.0025928283875121253994333603287714 73:1 76:1 127:1 174:1 179:2 193:1 204:1 213:1 225:1 237:1 251:1 278:1 282:1 283:1 299:1 345:1 396:2 405:1 457:1 480:1 508:1 530:1 613:1 631:1 679:1 682:1 685:1 694:1 708:1 757:1 808:2 813:3 835:2 855:1 883:1 900:1 905:1 965:1 974:2 1036:2 1182:2 1255:1 1276:2 1279:1 1336:1 1337:2 1342:1 1362:1 1501:2 1527:1 1529:1 1537:1 1557:1 1639:1 1735:1 1742:1 1745:1 1767:1 1785:1 1816:1 1857:2 1876:1 1934:1 1952:1 1954:1 1982:1 
-0.0022145585762889980104006770744718 25:1 112:1 140:4 171:1 250:1 300:1 326:1 415:1 419:1 428:1 434:1 446:1 468:1 540:2 552:1 555:1 562:1 630:1 687:1 819:2 841:1 857:1 863:1 877:1 954:1 977:1 992:2 1088:1 1113:1 1124:1 1150:1 1157:1 1161:2 1188:1 1193:2 1194:1 1238:1 1336:3 1420:1 1465:1 1519:1 1614:1 1644:1 1704:1 1727:1 1740:1 1746:1 1794:1 1832:2 1844:1 1862:1 1865:1 1934:2 1948:1 1954:1 1970:1 1994:2 
0.0025928283875121253994333603287714 23:1 31:1 45:3 99:1 239:1 243:1 269:1 292:1 329:1 414:1 430:5 431:1 432:1 450:3 484:1 546:3 569:2 585:1 644:1 654:2 698:2 707:1 729:1 749:1 775:1 780:1 787:1 791:1 825:2 848:1 902:2 923:2 927:2 969:1 983:1 1000:1 1002:2 1006:1 1044:2 1054:3 1084:1 1116:1 1127:1 1198:1 1208:1 1221:3 1237:3 1243:2 1323:1 1387:1 1436:1 1461:1 1480:1 1487:1 1500:1 1502:1 1525:1 1540:3 1570:1 1576:1 1634:3 1641:1 1642:1 1648:1 1649:3 1661:3 1679:1 1707:1 1722:1 1732:1 1733:1 1806:1 1808:3 1860:1 1866:1 1879:2 1882:4 1896:1 1911:1 
-7.971048844800924691126470245095e-05 21:10 23:2 64:2 86:5 105:1 269:3 358:17 371:1 414:5 418:1 440:5 450:4 564:1 569:6 587:1 610:1 644:10 654:7 707:1 729:1 749:1 775:7 787:4 791:2 803:6 825:4 837:3 923:9 930:2 953:6 1002:11 1084:2 1198:3 1237:1 1247:1 1283:1 1319:5 1323:7 1369:1 1387:3 1461:2 1478:9 1483:2 1502:2 1583:2 1624:6 1649:5 1664:1 1679:3 1698:1 1707:4 1729:1 1732:5 1768:8 1808:4 1822:2 1860:4 1911:2 1939:8 1966:2 1990:7 
0.0025928283875121253994333603287714 32:1 42:2 46:1 57:1 74:2 77:1 99:1 132:1 144:1 159:4 172:1 219:3 221:1 228:1 238:1 257:1 268:1 303:3 305:1 344:2 394:2 404:1 405:1 411:1 426:1 457:1 470:1 500:3 507:1 511:1 514:1 526:1 538:1 541:1 542:1 543:5 544:1 554:3 568:2 589:1 605:1 606:1 640:1 652:1 669:1 679:1 719:1 720:1 832:5 833:1 911:1 917:1 940:1 947:1 951:1 963:1 1009:1 1012:1 1020:1 1036:1 1053:1 1104:2 1119:2 1137:3 1157:2 1196:1 1201:1 1214:3 1229:1 1241:2 1252:1 1266:3 1276:2 1279:1 1299:1 1311:1 1314:1 1320:1 1337:1 1354:1 1358:1 1392:1 1404:3 1405:1 1426:1 1428:2 1431:1 1436:1 1444:1 1456:2 1457:1 1487:5 1489:3 1492:1 1496:1 1507:2 1509:1 1510:1 1524:1 1529:1 1545:1 1557:1 1591:1 1601:1 1615:3 1623:1 1675:1 1680:1 1736:1 1749:2 1770:1 1784:2 1842:1 1848:1 1850:1 1872:2 1882:2 1887:1 1900:1 1902:1 1903:1 1958:2 1963:2 1974:1 1979:1 1981:1 1987:1 1994:1 
0.0025928283875121253994333603287714 19:1 35:1 47:1 144:1 159:1 175:1 190:1 202:1 203:1 214:3 228:1 310:4 344:2 355:1 357:1 383:1 392:1 422:1 475:1 482:1 507:2 526:1 538:3 546:1 556:1 577:1 608:6 659:1 705:1 708:1 742:2 778:1 793:1 801:1 816:1 819:1 835:1 848:2 884:1 895:2 910:1 924:10 932:1 954:1 976:1 992:1 1036:2 1051:1 1055:1 1071:3 1087:1 1229:1 1270:2 1361:1 1386:8 1392:1 1409:2 1436:1 1444:1 1517:1 1521:3 1557:1 1570:3 1602:1 1615:2 1623:1 1676:1 1677:2 1688:1 1727:1 1735:1 1736:1 1749:1 1781:1 1804:1 1806:1 1846:1 1862:1 1872:3 1882:1 1887:3 1899:3 1914:1 1948:1 1963:1 
0.0025928283875121253994333603287714 46:1 57:1 99:1 106:1 121:2 127:1 132:1 144:1 172:1 179:1 184:1 203:1 228:1 242:1 257:1 262:1 294:1 297:1 305:1 308:1 361:2 387:1 396:2 405:1 411:1 422:1 426:1 434:1 457:3 475:1 488:1 514:5 542:3 543:1 554:1 578:1 600:1 626:1 679:1 682:1 692:1 705:1 739:1 769:1 784:1 797:1 838:1 878:4 890:1 904:2 917:1 954:1 1036:1 1056:1 1097:1 1118:1 1132:1 1143:1 1156:2 1176:2 1194:1 1252:3 1276:1 1279:1 1284:1 1299:1 1337:2 1412:1 1426:1 1440:1 1451:1 1468:1 1481:1 1487:2 1489:2 1492:1 1496:1 1515:2 1517:1 1524:1 1527:3 1545:2 1557:3 1588:1 1623:3 1653:1 1681:2 1729:1 1731:2 1742:4 1749:1 1781:1 1784:3 1798:1 1842:1 1862:1 1865:1 1887:1 1897:1 1900:1 1902:1 1912:2 1914:1 1923:1 1934:1 1943:3 1952:1 1979:1 1994:1 
0.0025928283875121253994333603287714 22:1 63:1 74:1 127:2 131:1 155:1 174:1 175:1 180:1 294:1 305:1 337:2 378:1 383:1 407:1 408:1 457:2 462:1 475:1 514:1 530:1 542:1 554:1 603:1 647:1 682:1 690:1 728:1 753:1 784:1 809:1 833:1 835:1 878:2 904:2 914:1 933:1 954:4 1028:1 1039:1 1055:1 1056:2 1118:3 1132:1 1161:1 1193:1 1194:2 1276:1 1279:1 1297:1 1299:1 1342:1 1356:1 1358:3 1368:1 1388:1 1409:2 1419:2 1420:1 1426:1 1436:1 1451:1 1490:1 1510:1 1515:2 1526:1 1536:1 1551:1 1553:2 1556:1 1557:3 1623:1 1653:1 1679:1 1681:3 1699:1 1728:1 1735:4 1759:1 1804:1 1848:1 1897:1 1905:1 1943:1 1952:2 1987:1 
-0.0020551751194934709046635568086003 15:1 32:2 48:4 117:2 136:1 190:1 212:1 219:1 238:1 241:3 263:1 282:1 307:1 317:2 342:1 366:1 376:3 409:1 411:3 412:3 441:1 442:1 449:1 452:1 476:1 480:1 501:1 525:1 528:1 541:1 544:1 556:1 570:1 588:1 591:1 640:1 650:2 651:1 652:1 659:1 670:2 674:1 675:1 710:1 720:8 721:1 736:6 737:2 740:1 742:1 767:1 804:1 815:5 822:1 828:1 900:1 909:2 911:5 932:1 949:1 950:1 963:1 993:7 1019:1 1029:1 1037:3 1046:2 1129:2 1139:2 1144:1 1149:1 1171:1 1201:1 1207:1 1215:1 1245:1 1270:1 1320:1 1350:1 1361:5 1391:1 1396:2 1403:1 1425:1 1431:1 1448:3 1455:1 1456:1 1467:2 1481:1 1489:1 1517:14 1518:1 1563:3 1566:1 1571:1 1591:3 1601:2 1638:1 1647:2 1696:1 1697:1 1728:1 1770:1 1783:1 1791:2 1800:1 1810:1 1864:3 1873:1 1902:3 1910:1 1926:1 1929:1 1933:1 1946:1 1964:1 
-0.0025928283875121253994333603287714 25:1 228:2 250:1 296:1 301:1 309:1 315:1 406:1 442:1 599:2 778:1 785:1 857:1 878:1 1117:2 1138:1 1184:1 1250:1 1260:1 1266:1 1342:1 1422:1 1520:1 1536:1 1556:1 1654:1 1734:1 1738:1 1742:1 1751:2 1764:1 1774:1 1792:1 1828:2 1881:1 1900:1 1908:1 1934:2 2000:1 
-0.0025928283875121253994333603287714 40:1 62:1 66:1 78:1 81:1 87:1 233:1 263:1 271:2 283:2 290:1 348:1 350:1 362:2 406:1 442:2 469:1 562:1 570:2 573:1 599:1 625:1 687:1 688:1 745:1 757:1 814:2 855:1 868:1 929:2 935:1 936:1 1008:1 1250:1 1261:2 1273:1 1328:1 1330:1 1347:1 1422:2 1425:1 1441:1 1495:1 1522:1 1538:1 1552:1 1564:2 1613:1 1689:1 1724:2 1734:1 1751:2 1764:4 1765:1 1774:1 1792:2 1856:4 1917:1 1968:1 1988:1 
-0.0019836272564062282404429016224867 77:2 112:1 195:1 246:2 279:1 282:1 316:1 327:2 336:2 362:1 395:1 403:1 413:1 442:3 476:1 478:2 483:1 571:1 624:1 638:1 643:1 684:1 689:2 710:1 798:1 867:2 868:1 869:1 952:1 1010:1 1017:1 1078:1 1088:1 1103:2 1109:2 1113:2 1155:1 1227:1 1250:4 1265:1 1275:2 1293:1 1315:2 1331:1 1516:1 1552:1 1562:1 1571:3 1606:1 1608:1 1723:1 1734:1 1741:1 1746:1 1762:1 1764:1 1765:2 1791:1 1881:1 1968:1 1983:4 
-0.0013168718203564278110967444845869 40:4 94:1 112:1 114:3 150:2 182:1 185:1 217:1 227:3 232:1 233:1 246:6 250:1 271:3 280:1 282:1 290:2 296:1 309:1 316:3 349:1 362:1 381:2 395:1 403:3 406:1 442:4 469:1 483:1 502:2 504:1 508:1 527:1 558:1 560:1 599:5 615:1 624:4 625:1 638:1 689:1 703:1 710:1 717:2 725:1 745:1 782:1 785:2 794:1 798:1 817:3 867:1 869:2 889:1 896:1 952:3 958:1 960:8 1008:1 1017:1 1073:1 1078:4 1088:3 1109:1 1113:3 1124:1 1155:6 1162:3 1209:1 1227:2 1234:2 1250:2 1260:4 1271:1 1275:1 1293:1 1315:7 1331:1 1347:3 1351:2 1371:1 1380:7 1401:1 1417:2 1418:1 1422:1 1425:4 1441:1 1445:1 1495:7 1542:1 1552:5 1562:4 1571:4 1608:1 1631:2 1650:1 1710:1 1720:2 1734:4 1738:4 1741:2 1751:3 1752:4 1762:5 1764:4 1765:2 1774:1 1791:3 1792:10 1813:3 1856:2 1873:1 1874:2 1880:3 1908:2 1961:1 1978:3 1985:1 1987:1 
0.0025928283875121253994333603287714 7:1 23:1 108:1 172:2 188:1 198:1 203:1 214:2 215:1 222:1 235:1 242:1 292:2 301:1 303:1 361:1 366:1 408:1 414:1 415:1 433:1 434:1 514:1 526:2 538:1 540:1 561:2 580:1 601:1 610:1 654:2 669:1 703:1 707:1 743:2 800:1 833:1 863:2 873:1 925:1 947:2 985:1 1013:1 1020:1 1045:1 1082:1 1137:1 1156:2 1165:1 1174:1 1196:2 1219:1 1252:1 1254:2 1259:1 1279:1 1303:1 1318:2 1356:1 1358:1 1404:1 1436:1 1439:2 1451:1 1461:1 1481:1 1483:1 1493:1 1509:1 1510:1 1520:1 1521:1 1528:1 1529:1 1539:1 1551:1 1553:1 1583:1 1618:1 1623:2 1624:2 1653:1 1659:1 1663:3 1672:1 1679:1 1681:1 1698:1 1735:1 1740:1 1768:1 1782:1 1783:1 1784:1 1798:1 1800:2 1819:1 1828:1 1842:1 1848:1 1869:1 1887:2 1899:1 1910:1 1934:1 1954:1 1957:1 1973:2 1979:1 1990:1 
0.0025928283875121253994333603287714 16:1 86:1 113:1 117:1 144:1 174:1 188:1 212:2 238:1 330:1 358:1 371:1 428:1 537:1 554:1 589:1 606:1 651:1 697:1 698:1 752:1 775:1 806:1 823:4 895:2 899:3 1049:1 1084:1 1127:1 1184:1 1221:1 1252:1 1313:1 1321:1 1327:1 1333:1 1396:1 1436:1 1510:1 1583:1 1641:3 1672:1 1677:3 1680:1 1701:1 1768:1 1777:1 1783:2 1802:2 1849:1 1850:1 1858:1 1879:1 1996:1 
0.0025928283875121253994333603287714 20:2 44:1 54:1 65:1 66:1 67:1 81:1 95:1 150:1 193:1 225:1 230:1 263:1 271:1 278:1 309:1 311:1 380:1 400:1 478:1 505:3 551:2 553:2 562:2 613:1 630:1 631:1 672:1 694:1 711:1 727:2 745:2 808:1 814:1 817:1 858:1 865:1 879:2 896:2 934:1 950:1 960:1 974:2 1001:1 1021:1 1033:1 1035:1 1092:1 1115:2 1128:1 1130:1 1155:1 1162:1 1168:2 1204:1 1209:1 1226:1 1228:1 1239:1 1278:1 1286:1 1291:1 1371:1 1380:2 1390:2 1411:1 1417:1 1423:1 1447:1 1465:2 1495:1 1562:2 1564:1 1571:1 1574:1 1581:1 1606:1 1621:2 1631:1 1720:1 1724:1 1745:2 1752:1 1771:1 1861:1 1876:1 1891:1 
0.0025928283875121253994333603287714 73:1 79:1 131:1 140:1 175:1 213:1 222:2 242:1 383:1 400:1 488:1 564:2 599:1 606:1 645:1 731:1 779:1 792:1 819:1 838:1 855:1 856:1 898:1 927:1 1008:1 1088:1 1090:1 1132:1 1140:1 1194:1 1204:1 1237:1 1248:1 1328:1 1347:1 1384:1 1387:1 1481:1 1506:1 1588:1 1848:1 1966:1 1988:1 
-0.0025928283875121253994333603287714 7:2 59:1 106:1 144:5 155:3 184:1 203:1 228:1 361:1 408:1 438:1 457:1 514:1 542:1 554:5 614:1 651:1 679:1 779:1 809:1 835:3 877:3 878:2 914:2 935:2 942:1 947:1 963:1 1000:1 1013:1 1029:1 1036:1 1056:1 1061:1 1082:1 1107:1 1118:1 1132:1 1137:1 1165:1 1182:1 1229:2 1248:1 1252:3 1266:1 1276:1 1284:1 1356:4 1358:1 1370:1 1409:1 1426:1 1434:1 1436:1 1444:1 1468:1 1498:3 1510:1 1515:3 1527:1 1529:1 1551:1 1557:2 1588:1 1627:1 1671:1 1672:1 1676:4 1679:2 1699:1 1727:1 1749:1 1776:1 1798:2 1804:2 1853:1 1862:1 1897:1 1914:5 1943:3 1948:1 1954:1 1982:1 
-0.0025928283875121253994333603287714 127:1 132:1 144:2 174:1 257:1 297:1 308:1 518:1 610:1 784:1 816:1 838:1 878:1 927:1 930:1 1013:1 1252:1 1284:2 1299:1 1529:1 1557:1 1583:1 1588:1 1659:1 1784:1 1798:1 1943:2 
-0.00010130999191562639301974341199397 101:1 143:1 146:1 151:2 162:1 230:9 278:4 472:9 575:4 612:2 619:4 621:3 627:1 691:2 694:11 702:5 711:6 732:3 763:2 773:3 858:4 876:1 1007:1 1024:1 1111:10 1140:3 1141:1 1158:2 1179:1 1186:3 1199:1 1200:1 1244:4 1246:2 1272:13 1291:21 1377:1 1433:3 1459:8 1473:5 1476:10 1514:15 1537:1 1569:4 1578:2 1586:5 1600:4 1610:14 1619:6 1678:10 1708:1 1745:1 1760:2 1766:4 1870:9 1885:3 1909:4 1916:3 1940:10 1997:8 
0.0025928283875121253994333603287714 12:1 20:1 92:1 96:1 109:1 148:1 261:1 356:1 377:1 399:1 400:1 413:1 472:1 477:1 481:1 533:1 551:1 560:1 632:1 679:1 689:1 711:1 812:1 814:1 819:2 861:1 868:1 869:1 958:1 1103:1 1162:1 1209:1 1231:1 1234:1 1235:1 1267:1 1272:1 1368:1 1409:1 1506:1 1559:1 1578:1 1660:2 1670:1 1671:1 1693:1 1710:2 1720:2 1917:2 1920:1 1926:1 
-0.0025928283875121253994333603287714 2:1 74:1 85:1 115:1 189:2 267:1 297:1 314:1 324:1 477:1 669:1 701:1 731:1 794:1 817:1 833:1 863:1 879:1 950:1 1014:1 1051:1 1140:1 1200:1 1355:1 1408:1 1414:1 1524:1 1574:1 1580:1 1687:1 1754:1 1756:1 1773:1 1817:1 1848:1 1862:1 1864:1 1878:1 
0.0025928283875121253994333603287714 45:2 57:2 99:1 129:1 131:1 136:2 138:1 205:1 274:1 310:2 317:4 411:2 432:3 450:1 528:4 556:1 569:1 580:1 585:1 591:1 648:3 652:2 720:1 729:1 736:1 767:6 783:1 815:8 836:3 872:2 911:3 925:2 951:4 991:1 996:1 1002:1 1037:7 1053:2 1054:1 1058:3 1059:3 1127:1 1172:7 1198:1 1237:2 1243:6 1295:1 1319:1 1327:2 1361:5 1394:2 1448:6 1455:4 1483:1 1498:1 1500:2 1502:1 1504:2 1517:10 1525:2 1550:4 1555:1 1603:7 1611:1 1618:2 1642:2 1647:1 1649:1 1698:1 1705:2 1808:1 1819:1 1825:1 1902:1 1949:4 1971:1 
-0.0020559218748059009465589674903185 8:1 27:2 40:1 54:1 65:1 77:1 87:2 96:1 115:1 182:1 195:2 232:4 244:2 260:1 264:1 277:2 286:1 313:4 323:1 380:1 381:3 395:1 400:1 406:3 416:1 442:2 469:1 480:1 504:2 510:1 522:3 558:3 560:3 599:5 622:1 625:2 632:1 669:1 687:2 688:1 693:1 710:2 717:1 725:1 745:2 760:1 785:1 794:3 887:1 889:5 898:3 922:1 929:1 958:2 960:2 964:2 986:2 1008:2 1017:2 1029:2 1057:1 1078:1 1109:3 1117:1 1124:2 1155:1 1240:1 1250:4 1260:1 1261:1 1271:2 1275:1 1278:1 1286:1 1315:2 1330:2 1331:4 1338:2 1351:1 1364:1 1380:1 1388:3 1411:1 1417:2 1418:1 1425:1 1497:1 1523:1 1538:5 1547:2 1552:1 1554:1 1564:4 1608:2 1609:4 1613:1 1625:1 1633:1 1670:1 1723:3 1734:2 1738:6 1751:1 1752:1 1762:1 1764:4 1765:2 1774:1 1791:2 1792:7 1856:1 1867:2 1878:1 1880:5 1881:1 1908:2 1915:1 1920:1 1935:7 1941:1 1968:1 1987:2 1989:2 
-0.0012042443783154203711116547736992 27:1 40:3 62:1 87:2 94:2 96:2 112:3 114:3 185:1 195:1 207:1 217:1 227:2 232:3 233:2 246:3 250:1 263:4 271:2 279:1 290:2 296:1 309:2 316:2 362:3 365:1 381:1 403:2 406:1 416:1 442:2 469:1 483:5 502:2 527:2 558:2 560:1 595:1 599:1 625:4 684:3 687:1 703:1 745:2 761:1 782:1 785:1 794:2 817:1 867:3 868:3 869:1 889:4 896:2 898:1 929:2 935:1 960:1 1008:3 1017:2 1040:1 1057:2 1078:3 1088:3 1090:1 1103:2 1105:1 1109:2 1113:3 1117:1 1155:5 1162:7 1197:1 1207:3 1209:1 1227:1 1234:1 1250:1 1260:6 1271:2 1293:2 1315:2 1330:1 1331:1 1351:1 1371:2 1380:7 1425:4 1441:1 1495:1 1538:2 1552:3 1562:5 1564:1 1571:5 1574:1 1579:1 1609:2 1613:2 1614:1 1631:1 1650:2 1673:1 1710:3 1720:1 1724:1 1734:3 1738:9 1751:3 1752:3 1764:3 1765:1 1791:2 1792:3 1856:2 1867:1 1874:1 1880:1 1908:2 1935:9 1961:2 1968:4 1978:2 
0.0019405188053582224025350733143114 33:1 106:1 113:1 131:1 132:1 144:2 172:1 179:1 184:1 203:2 211:1 215:1 242:1 262:1 308:2 344:1 378:2 396:1 405:3 409:1 415:1 457:1 462:1 501:1 514:3 530:2 538:1 542:2 554:6 605:1 661:2 714:1 769:1 797:1 809:1 835:2 838:1 839:1 857:1 877:5 878:3 907:1 914:2 917:2 942:1 954:1 1009:1 1020:3 1036:1 1039:1 1056:1 1061:2 1118:2 1156:1 1184:1 1229:2 1248:1 1252:2 1254:1 1276:1 1284:2 1299:4 1326:1 1337:2 1342:1 1358:1 1368:1 1426:3 1428:1 1468:1 1492:1 1507:2 1515:3 1529:1 1536:1 1553:1 1556:1 1557:2 1588:2 1591:1 1601:1 1623:1 1630:1 1638:2 1659:1 1676:2 1693:1 1696:1 1728:2 1758:1 1770:2 1776:1 1782:1 1804:2 1842:1 1846:1 1853:1 1858:1 1897:2 1903:1 1952:2 1979:1 1981:1 1993:2 
0.0025928283875121253994333603287714 7:1 33:1 63:1 131:1 203:1 215:3 239:2 257:1 308:1 405:1 457:3 475:1 542:1 554:3 769:1 835:2 838:1 877:3 890:2 904:1 914:2 947:1 963:1 1009:1 1036:1 1039:1 1107:1 1118:1 1156:1 1229:1 1248:1 1252:2 1255:1 1276:1 1299:1 1360:1 1392:1 1487:1 1510:1 1515:1 1529:1 1588:1 1628:1 1679:1 1742:1 1776:2 1784:1 1798:1 1804:3 1853:1 1897:1 1952:1 
-0.00048866982793077412983856477879385 59:1 63:5 131:4 144:4 155:1 174:9 203:6 215:4 222:7 239:11 257:1 456:2 457:4 475:4 518:1 554:2 606:2 614:12 661:1 728:9 877:11 878:1 904:15 914:3 942:1 1013:3 1039:1 1061:1 1082:11 1118:2 1156:5 1248:5 1254:1 1284:4 1356:9 1358:1 1384:9 1387:1 1426:2 1493:3 1515:2 1529:1 1623:2 1659:6 1676:1 1679:2 1729:4 1776:2 1782:9 1804:1 1853:6 1952:2 1982:3 
-0.0025928283875121253994333603287714 7:1 14:1 15:1 33:1 49:1 99:1 108:1 121:3 123:1 132:1 144:1 159:2 163:3 172:2 179:1 184:2 219:1 226:1 228:2 238:2 242:1 257:1 260:1 262:1 297:1 308:2 330:2 365:1 404:1 415:1 458:1 467:2 479:2 500:5 501:6 514:1 537:2 538:1 544:3 554:4 560:1 568:2 580:2 605:2 626:1 651:1 679:2 692:2 714:2 719:1 720:1 767:1 769:1 784:2 793:2 797:1 832:2 835:3 845:3 878:1 900:1 907:1 933:2 947:4 963:3 975:1 1009:1 1036:1 1037:1 1059:1 1107:1 1119:1 1137:2 1165:2 1201:1 1225:1 1241:3 1248:1 1252:2 1253:1 1266:2 1279:5 1297:1 1311:2 1320:1 1330:1 1354:2 1357:1 1358:1 1361:1 1370:1 1378:2 1392:2 1404:1 1412:1 1426:2 1434:2 1436:1 1444:4 1453:1 1456:3 1481:1 1487:4 1489:4 1498:1 1509:1 1510:3 1515:1 1545:1 1556:2 1602:1 1604:1 1628:4 1632:2 1668:1 1680:1 1681:2 1693:4 1726:2 1727:3 1728:1 1731:1 1736:2 1742:2 1755:1 1759:1 1784:1 1845:1 1846:1 1850:1 1862:1 1872:2 1897:1 1902:1 1903:1 1914:1 1915:1 1921:1 1943:3 1948:1 1963:1 1974:1 1981:2 1996:1 
0.0025928283875121253994333603287714 115:1 213:2 264:1 279:1 282:1 356:1 362:1 395:1 406:1 439:1 476:1 508:2 534:2 551:1 570:4 615:1 625:1 632:2 687:1 710:1 794:2 796:1 868:1 898:1 952:1 960:3 978:1 1088:1 1089:1 1109:2 1153:2 1162:2 1194:1 1207:1 1227:1 1271:3 1275:1 1279:1 1315:1 1331:2 1337:1 1338:1 1364:1 1388:1 1425:1 1494:2 1497:1 1551:1 1553:1 1562:1 1568:1 1574:1 1606:3 1613:1 1673:1 1720:1 1734:1 1738:1 1741:1 1752:1 1756:2 1764:3 1774:1 1792:2 1794:1 1813:2 1856:1 1873:1 1874:2 1877:1 1906:1 1941:1 
0.0025928283875121253994333603287714 96:1 109:1 143:1 218:1 235:1 246:1 250:1 282:2 290:2 316:2 327:1 336:1 353:1 382:1 389:1 394:1 416:1 499:1 522:1 573:1 599:1 624:2 714:1 725:1 745:2 777:1 794:1 798:1 814:1 816:1 853:1 935:1 948:1 978:1 993:1 1010:1 1089:1 1109:1 1133:1 1155:1 1159:1 1162:1 1169:1 1224:1 1227:3 1238:2 1250:2 1265:1 1338:1 1388:1 1416:1 1552:1 1606:1 1720:1 1724:1 1734:1 1740:1 1752:1 1756:1 1764:1 1824:1 1935:2 1961:1 1974:1 1978:2 
-0.0023070161150161782800949161753579 10:1 15:1 42:1 47:1 69:1 122:1 139:1 159:1 219:3 235:1 238:1 289:2 342:1 357:1 360:1 382:1 384:3 431:2 446:1 496:1 501:1 505:1 563:1 570:1 583:1 589:1 592:2 624:1 642:1 659:1 664:1 669:1 720:1 726:2 740:1 764:1 794:1 828:2 863:2 951:1 957:2 983:1 1012:1 1020:5 1037:1 1049:2 1058:1 1094:1 1099:2 1131:4 1135:1 1205:1 1211:2 1222:1 1249:1 1267:1 1268:1 1277:1 1295:1 1303:1 1305:1 1326:2 1335:1 1361:1 1394:1 1401:1 1412:1 1431:1 1452:1 1475:3 1500:1 1517:1 1539:1 1540:1 1575:1 1617:1 1629:3 1638:1 1640:1 1645:1 1652:3 1688:1 1690:1 1706:2 1783:1 1789:1 1830:3 1831:1 1866:3 1950:2 1976:3 
-0.00021528641181256232082358303969727 48:7 104:1 107:1 137:2 152:1 205:14 310:5 325:1 376:1 390:1 441:1 473:4 501:1 506:1 512:1 517:1 555:1 556:2 589:1 591:25 594:2 616:1 670:1 674:6 736:16 744:1 815:1 828:2 854:2 878:1 993:1 1020:1 1093:1 1174:1 1178:1 1190:1 1195:1 1259:1 1318:2 1366:1 1410:2 1472:1 1486:1 1505:1 1543:10 1603:4 1605:1 1622:1 1626:2 1663:1 1709:2 1759:1 1783:1 1800:3 1949:19 1959:5 1967:2 1995:1 1998:2 
-0.0025928283875121253994333603287714 22:2 96:5 260:2 407:1 413:3 743:1 1089:2 1159:1 1297:1 1409:2 1519:3 1551:1 1589:1 1689:1 1869:2 
-0.0003545676799023592075041366733501 17:1 19:3 76:1 98:1 104:8 124:1 128:2 145:3 148:6 202:2 256:1 346:2 385:1 391:1 441:4 460:2 464:1 517:10 540:3 579:2 582:2 608:3 659:2 742:4 790:1 840:1 863:5 959:1 971:1 973:1 976:6 985:1 992:1 1020:3 1269:1 1288:1 1303:1 1318:1 1350:1 1415:1 1427:2 1518:1 1521:19 1530:1 1585:1 1605:2 1658:2 1706:1 1739:1 1740:2 1783:3 1800:18 1801:1 1809:1 1832:6 1834:2 1899:1 1913:1 1970:1 1999:1 
-0.00087608215395037190593302556251842 38:2 220:4 384:2 642:1 652:1 726:3 991:1 1081:2 1402:1 1651:1 1675:1 1805:2 1850:1 1976:2 
-0.00037405843303403742269516718543798 16:1 117:2 147:5 153:2 198:2 212:2 214:2 219:1 287:3 293:5 394:9 397:1 501:1 546:1 646:4 656:8 712:18 721:4 736:1 737:4 815:1 823:18 848:1 895:16 899:37 902:11 993:2 1077:1 1144:14 1149:3 1270:2 1308:1 1313:3 1321:19 1333:8 1386:5 1396:9 1421:5 1448:2 1480:1 1570:2 1618:1 1641:26 1647:1 1677:7 1697:2 1753:1 1770:1 1783:3 1815:1 1849:7 1850:3 1958:2 1974:2 
0.0005899466123983602592814601273119 7:1 123:1 127:1 132:1 144:2 172:3 175:1 179:2 184:2 203:1 238:1 242:2 257:2 294:1 297:1 301:1 303:1 305:1 310:1 330:3 359:1 378:1 405:1 415:2 422:1 426:1 462:1 514:2 530:1 542:3 543:2 544:1 554:1 578:3 580:1 626:1 651:1 679:2 690:1 769:1 779:1 784:3 835:3 838:1 878:2 914:1 917:1 947:1 954:2 963:1 1000:2 1020:2 1036:3 1056:2 1097:3 1132:1 1137:1 1176:1 1181:1 1241:1 1253:1 1255:2 1276:2 1279:2 1299:1 1311:1 1336:1 1337:2 1342:2 1354:1 1357:2 1358:1 1385:1 1392:2 1405:1 1412:1 1426:3 1436:2 1444:2 1481:1 1509:2 1510:6 1527:2 1529:1 1536:1 1553:2 1556:1 1557:2 1615:4 1638:1 1668:1 1680:1 1681:3 1696:1 1699:1 1718:1 1728:1 1731:1 1735:2 1736:1 1742:1 1770:1 1781:1 1784:3 1798:1 1804:2 1845:1 1859:1 1887:2 1900:2 1902:2 1903:1 1914:2 1943:7 1952:1 1954:1 1981:1 
-0.0025928283875121253994333603287714 8:1 14:1 19:3 25:1 35:1 42:3 74:2 77:1 88:3 96:1 108:1 131:1 140:1 159:1 172:1 179:2 190:5 198:1 203:1 219:2 235:4 238:1 280:1 297:2 302:1 323:1 337:1 344:2 378:1 387:1 404:1 422:1 426:1 446:1 479:1 482:1 489:1 498:1 506:1 514:1 538:10 542:1 554:1 578:2 589:3 599:1 605:1 608:1 626:1 640:1 650:1 651:3 659:1 679:1 743:1 753:1 769:1 789:3 793:1 794:1 800:1 801:1 816:4 845:2 863:2 900:1 947:1 960:1 1000:1 1009:1 1020:9 1051:1 1056:1 1097:2 1109:1 1125:1 1157:1 1165:3 1176:1 1184:1 1193:1 1194:1 1201:1 1238:3 1253:1 1287:3 1322:2 1326:2 1342:1 1354:3 1357:1 1361:1 1370:2 1378:1 1388:1 1404:1 1405:1 1412:1 1416:1 1432:2 1434:1 1436:1 1444:3 1453:1 1492:2 1494:1 1503:1 1507:1 1510:1 1520:1 1521:1 1524:1 1538:1 1556:1 1588:1 1601:2 1604:1 1615:1 1638:4 1668:1 1693:1 1695:1 1697:1 1706:1 1727:1 1736:1 1742:1 1749:1 1770:1 1778:1 1783:1 1784:1 1791:1 1806:2 1828:1 1842:1 1850:1 1859:1 1867:1 1872:3 1877:1 1880:1 1887:2 1900:1 1901:2 1914:2 1915:1 1934:1 1948:1 1960:1 1963:1 1972:1 1981:2 1993:2 
-0.0025928283875121253994333603287714 42:8 99:2 106:4 119:5 131:2 136:1 144:3 163:1 172:1 184:1 194:1 203:1 238:3 239:1 242:1 268:1 303:6 330:3 404:1 405:1 408:1 426:1 433:1 479:4 482:1 498:4 500:3 501:1 514:1 537:2 538:1 541:2 543:3 544:3 554:8 580:1 585:1 586:1 606:1 626:1 640:3 651:9 661:1 682:2 719:3 753:2 767:2 779:1 793:1 832:5 835:2 914:1 947:6 963:2 996:1 1000:1 1036:1 1037:1 1047:1 1053:2 1097:1 1104:2 1107:2 1119:1 1137:1 1156:1 1165:2 1176:1 1177:1 1196:1 1214:2 1225:2 1229:1 1243:3 1255:1 1276:1 1279:2 1280:1 1283:1 1337:1 1354:1 1356:1 1357:1 1361:2 1392:1 1404:1 1405:1 1436:6 1444:6 1454:2 1456:6 1481:3 1487:3 1489:1 1493:1 1498:1 1509:3 1510:6 1525:1 1527:1 1545:1 1588:1 1602:1 1623:4 1672:1 1675:4 1680:1 1728:1 1736:1 1755:2 1776:2 1784:1 1798:3 1804:1 1859:1 1872:1 1882:1 1887:2 1895:1 1900:1 1902:2 1914:2 1921:3 1943:3 1996:3 
0.0025928283875121253994333603287714 22:2 47:1 96:1 114:1 116:1 140:1 227:1 260:1 290:1 362:1 382:1 428:1 441:1 442:1 534:1 560:1 622:1 667:1 684:1 794:1 814:1 819:1 851:1 868:1 1051:2 1057:1 1078:1 1105:1 1109:1 1150:1 1315:1 1322:1 1388:1 1419:2 1425:1 1571:1 1689:1 1723:1 1751:1 1752:1 1778:1 1842:1 1874:1 1934:1 1983:1 2000:1 
0.0025928283875121253994333603287714 17:2 44:1 94:1 95:1 104:3 112:2 150:1 195:1 202:1 250:1 316:2 349:1 381:1 395:1 403:1 429:1 442:2 483:2 517:1 522:1 526:2 527:1 557:1 558:1 582:1 595:1 599:1 608:2 625:1 643:1 649:1 689:2 710:1 738:1 742:1 750:1 761:3 816:1 960:1 964:1 976:1 986:1 992:1 1020:1 1087:1 1109:1 1207:1 1260:1 1263:1 1269:3 1293:1 1330:1 1388:1 1416:1 1422:2 1447:1 1519:1 1521:1 1587:2 1614:1 1625:1 1631:1 1724:1 1734:1 1738:1 1751:1 1791:1 1800:3 1821:1 1851:1 1867:1 1869:1 1901:1 1906:1 1907:1 1908:1 1935:1 1960:1 
0.0025928283875121253994333603287714 44:1 87:1 122:1 149:1 246:1 260:1 277:1 283:2 340:1 365:1 434:1 499:2 573:1 584:1 599:1 643:1 680:1 688:1 710:1 782:1 934:1 954:1 960:1 1035:1 1051:1 1088:2 1096:3 1103:2 1138:1 1161:1 1207:1 1261:1 1263:1 1265:1 1371:1 1388:1 1409:1 1418:1 1422:1 1425:1 1495:1 1579:1 1613:1 1614:1 1650:1 1671:1 1689:1 1710:1 1751:1 1792:1 1813:1 1842:1 1869:1 1880:2 1987:1 
0.0025928283875121253994333603287714 94:1 112:1 233:2 235:1 246:2 250:2 266:1 313:1 346:1 350:1 416:1 489:1 499:1 560:2 599:2 684:1 800:1 948:1 958:1 1088:2 1103:1 1115:1 1124:2 1271:1 1351:1 1422:1 1538:1 1547:1 1552:1 1571:1 1614:1 1619:1 1724:1 1734:1 1738:1 1750:1 1764:1 1792:2 1867:1 1871:1 1880:1 1961:1 
0.0025928283875121253994333603287714 20:1 22:1 40:2 73:1 95:1 96:2 98:1 143:2 150:1 207:1 223:1 227:2 260:1 263:1 265:1 278:1 296:1 323:1 332:1 343:1 356:1 365:1 478:1 480:2 483:1 505:2 527:1 551:1 558:1 575:1 596:2 630:1 669:1 684:1 688:2 696:1 710:1 725:1 745:1 808:1 813:1 945:1 974:1 1021:1 1035:1 1080:1 1089:1 1090:1 1103:1 1109:1 1115:2 1142:1 1168:1 1234:1 1261:1 1263:1 1271:1 1272:1 1278:1 1291:1 1425:2 1447:1 1497:1 1501:1 1523:2 1538:1 1578:1 1579:1 1631:1 1645:1 1685:1 1708:2 1724:1 1754:1 1824:1 1851:1 1867:1 1869:2 1878:2 1891:1 1892:1 1906:1 1927:1 1935:1 1941:1 1987:3 1988:1 2000:1 
-0.0025928283875121253994333603287714 154:1 167:1 175:1 328:1 385:1 637:1 654:1 714:1 927:1 1084:1 1485:1 1533:1 1637:1 1772:1 
0.0025928283875121253994333603287714 14:2 42:3 46:1 74:1 108:1 159:1 184:4 198:1 238:2 294:1 305:1 308:1 310:1 330:1 344:2 378:2 404:1 405:1 415:1 426:1 462:1 470:1 500:2 511:1 514:1 526:1 538:2 544:1 651:2 679:5 680:1 682:1 697:1 708:1 784:1 789:1 797:1 801:1 816:3 832:2 835:2 845:4 848:1 933:2 954:1 963:2 1020:1 1028:1 1056:2 1097:2 1137:2 1201:1 1253:1 1255:1 1266:2 1279:1 1337:1 1354:3 1357:1 1368:1 1378:2 1392:1 1404:1 1405:1 1444:2 1453:2 1492:1 1496:1 1507:1 1510:1 1520:1 1527:3 1545:1 1556:2 1615:4 1627:1 1630:2 1644:1 1681:1 1706:1 1726:1 1736:2 1742:1 1781:1 1804:1 1818:1 1842:1 1845:1 1862:3 1872:6 1897:1 1899:2 1903:1 1912:1 1914:2 1934:1 1981:1 
-0.0025928283875121253994333603287714 294:1 954:1 1276:1 1451:1 1527:1 1742:1 1943:2 
-0.0025928283875121253994333603287714 15:1 40:2 46:1 74:1 108:2 116:1 159:1 172:1 179:3 201:1 211:1 262:1 296:1 305:1 315:2 335:1 344:1 365:1 406:1 407:1 411:1 415:1 478:1 488:1 500:3 506:1 543:2 544:1 554:1 577:1 595:1 599:1 601:1 605:1 643:1 679:1 697:2 705:2 710:1 738:2 743:1 745:1 767:1 784:1 785:1 797:1 800:1 816:2 838:2 845:2 853:1 869:1 887:1 889:1 896:1 900:2 948:2 954:3 1097:2 1104:1 1113:1 1119:1 1124:1 1137:2 1155:1 1159:1 1169:2 1184:1 1214:1 1242:1 1251:1 1252:1 1253:2 1255:1 1265:1 1279:1 1293:1 1297:1 1322:1 1342:1 1370:1 1371:1 1378:1 1385:1 1388:1 1392:2 1412:1 1418:1 1432:1 1444:1 1445:1 1456:1 1457:1 1487:1 1489:1 1492:1 1507:1 1516:1 1536:2 1545:2 1547:1 1551:1 1564:1 1589:2 1601:1 1604:1 1614:1 1615:1 1654:1 1669:1 1680:1 1693:1 1718:1 1726:1 1727:2 1728:1 1736:2 1738:1 1746:1 1749:2 1755:1 1759:1 1792:1 1813:1 1818:1 1842:2 1846:1 1850:1 1872:1 1901:1 1914:1 1923:1 1942:1 1943:1 1963:1 1980:1 1981:1 1994:2 2000:1 
0.0025928283875121253994333603287714 65:1 108:1 122:1 139:1 180:1 203:1 282:1 335:2 337:1 343:1 413:1 438:1 542:1 554:1 606:1 610:1 632:1 644:1 672:1 713:1 729:1 784:1 877:2 889:1 908:1 914:1 940:1 1036:1 1057:1 1064:1 1132:1 1153:1 1155:1 1284:1 1311:1 1336:2 1356:1 1368:1 1419:1 1428:1 1489:1 1572:1 1608:1 1668:1 1679:1 1727:1 1754:1 1778:1 1798:1 1814:1 1819:1 1848:1 1896:1 
-0.0025928283875121253994333603287714 22:1 269:1 413:1 644:1 669:1 930:1 948:2 1237:1 1276:2 1409:1 1583:1 1623:1 1676:1 1679:1 1982:1 
0.0025928283875121253994333603287714 74:1 79:1 87:2 96:1 115:1 127:1 175:2 195:1 233:1 238:1 242:1 260:1 313:1 316:1 330:1 335:2 362:1 378:2 395:2 405:1 438:1 442:1 504:1 514:1 522:2 552:2 599:4 605:1 651:1 679:1 682:1 684:1 690:1 705:1 725:1 793:1 833:3 841:1 878:1 887:1 889:1 907:1 952:1 954:3 986:1 1000:1 1073:1 1078:1 1088:1 1105:1 1117:2 1132:2 1138:1 1169:1 1271:1 1297:1 1315:1 1326:1 1354:1 1357:1 1368:1 1409:3 1416:1 1420:1 1422:1 1432:1 1456:1 1492:2 1519:1 1524:2 1526:1 1527:1 1545:1 1554:2 1556:1 1589:1 1627:2 1669:1 1723:1 1726:1 1759:1 1813:1 1818:1 1841:1 1873:1 1887:1 1920:1 1935:1 1948:1 1961:1 1994:1 
-0.0025928283875121253994333603287714 316:1 785:1 868:1 1088:1 1752:1 1791:1 
-0.00050618526836188775831770758628636 25:3 28:1 36:1 37:1 43:6 74:3 157:1 175:2 176:1 180:1 186:1 191:3 211:3 236:2 244:1 258:2 260:2 335:1 373:1 401:1 407:8 454:1 471:6 534:2 539:1 552:8 565:1 577:5 590:1 607:2 667:4 671:1 680:1 748:1 751:10 819:2 833:1 843:2 856:1 857:5 901:2 906:2 907:3 990:2 1022:1 1051:2 1069:1 1091:2 1108:1 1146:1 1157:3 1159:2 1160:1 1161:1 1163:1 1193:2 1223:2 1224:1 1336:7 1372:1 1389:1 1409:6 1419:2 1420:3 1430:2 1490:14 1503:6 1519:2 1526:4 1551:1 1565:1 1589:1 1608:3 1644:5 1654:3 1718:1 1780:2 1837:2 1873:2 1912:2 1923:1 1934:4 1954:1 1983:1 
-0.0025928283875121253994333603287714 22:1 25:3 96:1 175:4 180:2 191:1 211:1 226:1 260:4 262:1 290:2 296:1 316:2 356:1 407:3 458:1 552:1 577:3 615:1 667:1 669:1 680:1 684:1 689:1 743:1 819:1 833:1 856:3 857:2 907:1 948:1 986:1 1010:1 1051:1 1089:2 1113:1 1117:1 1157:2 1159:3 1161:2 1193:1 1207:1 1223:1 1234:1 1297:2 1336:5 1409:3 1419:1 1420:1 1490:2 1503:4 1519:2 1526:1 1551:1 1593:1 1654:2 1684:1 1699:1 1718:1 1778:1 1792:1 1818:1 1912:2 1934:1 1941:1 1954:1 1968:1 
-0.0025928283875121253994333603287714 45:1 198:1 262:1 297:1 387:1 679:2 784:1 833:1 940:1 954:1 1056:1 1057:1 1137:1 1138:1 1271:1 1276:1 1336:1 1378:1 1444:1 1536:1 1588:1 1614:1 1731:1 1735:1 1846:1 1862:1 1900:1 1934:2 1943:1 
-0.0025928283875121253994333603287714 8:1 22:3 25:1 27:1 77:4 87:2 96:4 121:2 140:1 175:4 180:3 195:3 201:1 221:5 226:1 233:1 244:2 260:2 280:5 296:3 305:2 313:2 315:2 335:7 349:1 365:4 378:1 381:2 387:1 407:3 413:1 419:2 522:2 560:3 584:2 599:1 625:1 638:1 667:1 679:1 684:2 687:1 689:4 704:1 761:1 784:1 819:1 853:3 856:3 857:1 867:1 869:1 887:1 889:1 900:1 908:8 910:3 933:2 948:2 964:2 986:4 1008:1 1029:1 1036:3 1043:2 1051:2 1057:3 1103:1 1157:1 1161:1 1184:8 1194:3 1207:1 1223:5 1250:1 1260:1 1263:1 1266:1 1271:7 1297:2 1299:1 1311:1 1314:1 1330:2 1351:1 1368:3 1388:1 1409:2 1418:1 1419:3 1490:5 1519:3 1523:1 1526:1 1551:1 1554:1 1588:1 1589:2 1609:1 1614:3 1644:4 1654:1 1668:2 1669:7 1727:3 1742:2 1749:1 1846:2 1848:1 1850:2 1862:1 1869:3 1873:1 1877:1 1905:5 1908:1 1923:1 1935:5 1954:5 1960:1 1968:1 1979:2 1987:4 1989:1 
0.0025928283875121253994333603287714 184:1 438:2 462:1 500:2 514:1 538:1 797:1 933:1 947:2 963:1 1036:1 1157:1 1176:1 1276:1 1279:1 1594:1 1727:1 1755:1 1783:1 1872:1 1905:1 1943:1 1973:1 
0.0025928283875121253994333603287714 22:1 57:1 179:1 297:1 301:1 340:1 387:2 488:1 530:1 640:1 651:1 689:1 767:1 809:1 832:1 940:1 963:1 1036:1 1053:1 1056:1 1157:1 1194:1 1241:1 1255:1 1276:1 1320:1 1342:1 1404:1 1409:1 1440:1 1457:1 1498:1 1506:1 1509:1 1525:1 1614:1 1628:1 1735:1 1781:2 1882:1 1897:1 1943:2 1979:1 
0.0025928283875121253994333603287714 174:1 203:1 222:1 432:1 435:1 737:1 836:1 899:1 923:1 1044:1 1098:1 1177:3 1229:1 1237:1 1284:1 1432:1 1491:1 1661:1 1749:1 1783:1 1973:1 
0.0025928283875121253994333603287714 5:1 21:3 30:1 103:1 139:1 371:1 775:1 825:1 850:1 1120:2 1198:1 1205:2 1452:1 1461:1 1665:3 1698:1 1719:1 1860:1 1936:1 1939:1 1950:3 1956:1 
0.0025928283875121253994333603287714 22:1 40:1 56:1 106:1 112:1 113:1 115:1 122:2 172:1 180:1 185:1 198:1 211:1 235:3 243:1 260:2 302:1 344:2 362:1 382:1 442:1 447:1 483:1 507:1 530:1 538:1 543:1 544:1 626:1 638:1 640:1 646:1 651:1 675:1 689:1 696:1 703:1 719:1 738:1 753:1 777:1 816:2 821:1 832:1 835:1 848:1 863:1 884:1 896:1 947:2 963:1 1020:5 1049:1 1089:2 1097:1 1104:4 1113:1 1169:2 1201:1 1241:1 1253:1 1255:1 1265:1 1266:2 1269:1 1286:1 1287:1 1313:1 1315:1 1326:2 1337:1 1342:1 1380:1 1412:1 1419:1 1420:1 1444:1 1468:1 1487:1 1491:2 1498:1 1507:1 1517:1 1521:2 1524:1 1545:1 1556:1 1571:1 1630:1 1638:1 1650:1 1697:1 1720:1 1735:1 1740:1 1764:1 1792:1 1806:1 1851:1 1874:1 1881:1 1882:1 1887:1 1902:1 1903:1 1906:1 1907:1 1908:1 1912:1 1914:1 1920:1 1943:1 1954:2 1963:1 1985:1 1996:2 
-0.0025928283875121253994333603287714 14:1 23:1 28:1 83:1 111:1 174:1 186:1 236:1 284:1 304:1 368:1 456:1 471:1 518:1 587:1 594:1 606:2 637:1 654:1 706:1 746:1 749:1 779:1 830:1 862:1 894:2 920:1 923:3 947:1 968:1 990:2 1027:1 1082:1 1084:1 1086:2 1118:1 1284:1 1358:1 1372:1 1387:1 1438:1 1470:1 1502:1 1583:1 1630:1 1872:1 1884:1 1953:1 1962:1 1973:1 1982:1 
-0.00065806116929688015810412382577965 36:1 101:1 114:1 151:1 230:1 278:1 307:1 364:1 390:2 459:4 565:1 579:2 590:1 618:1 763:1 773:1 794:3 829:1 849:1 855:1 858:1 863:2 891:2 915:1 937:1 943:1 960:1 992:1 1065:1 1074:1 1160:1 1186:1 1257:2 1303:3 1377:1 1547:1 1561:1 1574:1 1586:1 1754:2 1840:1 1870:1 1898:1 1916:1 1961:1 
-0.0015656065175454324939208206046715 26:1 131:1 179:1 501:1 513:1 522:1 735:1 774:1 893:1 1017:1 1023:1 1102:1 1114:1 1150:1 1167:1 1170:1 1264:1 1269:1 1316:1 1357:1 1400:1 1415:1 1438:1 1521:1 1606:1 1643:1 1681:1 1697:1 1706:1 1734:1 1757:1 1811:1 1813:1 1848:1 1881:1 1920:1 1943:1 1946:1 1988:1 
-0.00038625063857493336597764832518465 4:1 12:5 44:9 62:2 95:5 109:2 114:6 150:2 185:7 227:4 263:1 264:7 265:3 277:1 290:3 298:3 309:2 312:1 316:2 362:10 380:3 400:1 403:1 447:1 469:2 476:1 483:5 499:2 502:4 527:4 549:1 562:1 622:1 624:3 649:1 713:8 731:3 777:12 796:10 814:1 896:6 934:8 944:2 960:1 1010:4 1035:6 1073:1 1078:6 1079:1 1088:4 1128:9 1133:1 1162:6 1197:2 1209:9 1227:3 1234:6 1242:1 1261:2 1310:2 1347:2 1380:5 1441:2 1494:4 1542:1 1562:3 1574:2 1631:3 1720:13 1724:5 1756:1 1762:2 1771:1 1813:6 1855:1 1874:2 1878:2 1978:3 1985:2 1991:4 
-0.0025928283875121253994333603287714 39:1 77:2 78:1 81:2 96:3 109:1 115:1 149:1 150:3 162:1 175:2 180:1 195:2 201:1 209:1 227:1 232:2 233:1 246:1 263:1 264:1 277:2 282:2 283:1 296:1 305:1 316:1 323:1 327:2 335:1 362:3 381:1 386:1 399:1 406:1 439:1 442:2 447:1 465:1 476:1 480:1 488:2 502:1 504:3 522:1 533:1 551:2 552:2 558:1 560:3 599:1 601:1 621:1 632:1 667:1 679:1 680:1 687:1 691:1 696:1 703:1 710:1 711:1 714:1 738:1 745:1 761:1 777:1 785:1 801:1 813:1 814:2 816:1 819:1 856:1 864:1 867:2 869:1 887:2 889:1 935:1 954:1 961:2 1008:1 1021:2 1035:1 1040:2 1045:1 1088:1 1089:1 1102:1 1103:1 1109:1 1111:1 1155:1 1159:1 1161:1 1168:1 1169:2 1207:1 1240:1 1242:1 1293:1 1297:1 1330:1 1351:1 1368:1 1371:2 1388:1 1439:1 1445:1 1490:1 1503:1 1514:1 1520:1 1526:1 1538:2 1547:2 1551:2 1552:1 1564:1 1586:1 1596:1 1609:1 1613:1 1614:1 1694:1 1710:2 1723:2 1734:2 1738:2 1741:1 1744:1 1745:1 1751:1 1754:1 1762:1 1765:1 1778:1 1792:2 1824:1 1842:1 1856:1 1865:1 1869:1 1874:1 1880:1 1908:1 1909:1 1926:1 1927:1 1934:1 1935:2 1960:1 1961:1 1987:2 1994:1 
-0.0025928283875121253994333603287714 25:2 35:1 49:2 74:1 158:1 260:1 335:2 340:1 392:1 407:5 425:2 789:1 800:1 833:1 856:1 857:1 887:1 907:1 1009:1 1051:2 1055:1 1124:1 1157:2 1161:2 1169:1 1193:1 1224:1 1311:1 1342:2 1388:1 1496:1 1507:1 1519:2 1526:1 1614:1 1654:1 1669:1 1699:1 1749:1 1759:1 1778:1 1818:1 1828:1 1848:2 1862:1 1869:1 1903:1 1941:1 1954:1 1960:1 
-0.0025928283875121253994333603287714 25:1 74:1 77:1 233:1 296:1 667:1 669:1 900:1 1089:1 1132:1 1271:1 1519:1 1614:1 1645:1 1669:1 1778:1 1954:1 1987:1 
0.0025928283875121253994333603287714 126:2 227:1 234:1 258:1 306:4 474:1 499:1 607:2 621:1 657:1 660:1 700:1 748:1 751:1 766:1 814:1 875:2 988:2 990:3 1015:1 1141:1 1158:1 1212:1 1273:1 1292:2 1377:1 1383:1 1429:1 1477:1 1514:1 1578:1 1756:1 1803:1 1870:2 1871:1 1884:1 1916:1 1997:1 
0.0025928283875121253994333603287714 21:1 239:1 274:1 297:1 340:1 358:2 606:2 775:2 791:1 837:1 904:1 927:1 1084:1 1248:1 1254:1 1502:1 1624:1 1648:1 1659:2 1853:1 1939:1 1956:1 
0.0025928283875121253994333603287714 21:1 23:1 289:1 358:1 374:1 423:1 433:1 877:1 927:1 1006:1 1082:1 1277:1 1426:1 1483:1 1515:1 1624:1 1665:1 1939:1 1956:1 1990:2 
0.0025928283875121253994333603287714 143:1 146:1 166:1 185:2 189:1 204:1 230:1 266:1 278:2 290:1 353:1 367:1 368:1 527:3 551:1 601:1 619:1 621:1 684:1 694:2 711:1 758:1 763:1 813:2 814:1 858:1 871:1 876:1 879:1 887:1 918:1 921:1 965:1 1010:1 1018:1 1022:1 1024:1 1068:1 1089:1 1096:1 1111:2 1133:1 1134:1 1136:1 1140:1 1164:1 1179:1 1186:1 1202:2 1257:1 1290:1 1377:1 1391:1 1413:1 1449:1 1459:1 1476:1 1477:1 1501:1 1514:2 1516:1 1522:1 1533:1 1559:1 1577:1 1586:1 1637:1 1678:2 1684:1 1712:1 1745:1 1761:1 1774:1 1816:1 1817:1 1870:1 1889:1 1916:2 1940:2 
0.0025928283875121253994333603287714 22:2 77:1 94:1 122:1 233:1 488:1 552:1 638:1 669:1 742:1 743:1 801:1 948:1 1029:1 1089:2 1169:2 1261:1 1401:1 1416:1 1420:1 1519:1 1559:1 1920:1 1954:1 
-0.0025928283875121253994333603287714 95:1 1439:1 1608:1 1735:1 
-0.0025928283875121253994333603287714 21:1 150:1 309:1 354:1 358:1 457:1 506:1 601:1 610:1 643:1 837:2 942:1 953:1 960:1 1002:1 1010:1 1044:1 1172:1 1198:1 1322:1 1347:1 1649:2 1707:1 1808:2 
0.0025928283875121253994333603287714 22:1 96:2 180:2 217:1 277:1 283:1 290:1 296:1 348:1 356:1 362:1 365:1 403:1 622:1 696:1 777:1 785:2 792:1 868:1 897:1 971:1 1015:1 1062:1 1078:1 1168:1 1209:1 1224:1 1234:1 1236:1 1267:1 1271:1 1330:1 1331:1 1371:1 1380:1 1401:1 1551:1 1562:1 1614:1 1669:1 1739:1 1744:1 1751:1 1828:1 1880:1 1941:1 1948:1 1954:1 1987:1 1994:1 
0.0025928283875121253994333603287714 12:1 22:1 25:1 74:1 96:2 180:1 185:1 211:1 260:2 290:1 296:1 305:1 340:1 392:1 407:1 427:1 447:1 458:1 502:1 552:1 558:1 560:2 577:1 667:2 669:2 680:1 761:1 778:1 800:1 986:1 1035:2 1051:1 1057:1 1162:1 1193:1 1197:1 1224:1 1261:1 1336:1 1380:1 1419:1 1422:1 1496:1 1519:1 1526:1 1556:1 1608:1 1614:2 1631:1 1699:1 1710:1 1754:1 1871:1 1880:1 1915:1 1934:1 1968:1 1985:1 1987:2 
0.0025928283875121253994333603287714 25:1 39:1 40:1 46:1 47:1 96:2 98:1 180:1 182:1 191:1 209:1 217:1 223:1 227:1 237:1 246:1 262:1 265:1 278:1 283:1 296:1 315:1 316:1 326:1 335:2 345:1 347:1 362:1 407:1 458:1 494:1 505:1 551:1 552:1 599:2 600:1 625:1 643:1 680:1 710:1 743:1 761:1 782:1 856:1 857:1 865:1 868:1 965:2 986:1 1028:1 1045:1 1051:1 1057:1 1115:1 1155:1 1159:3 1193:2 1204:1 1260:1 1263:1 1271:1 1278:1 1338:1 1370:2 1371:1 1388:1 1409:1 1419:1 1422:1 1423:1 1453:1 1490:1 1495:1 1524:1 1556:1 1614:1 1631:1 1644:2 1669:1 1685:1 1738:1 1746:1 1747:1 1750:1 1752:1 1764:1 1765:1 1791:1 1842:1 1846:1 1867:1 1869:1 1891:1 1901:1 1903:1 1920:1 1934:1 1941:1 1957:1 1987:1 1994:1 
-0.0025928283875121253994333603287714 542:1 
-0.0021175384047643890789158760412647 56:1 76:1 77:1 121:1 144:1 322:1 350:1 396:1 478:1 554:1 596:2 627:2 652:1 658:1 757:2 819:1 868:1 1061:1 1080:2 1115:4 1168:1 1586:1 1588:1 1619:1 1671:1 1734:1 1816:1 1952:1 
0.0025928283875121253994333603287714 144:1 175:1 239:1 387:1 396:1 405:1 407:1 530:1 690:1 779:1 877:1 961:1 1132:1 1150:1 1161:1 1194:1 1229:1 1311:1 1336:1 1436:1 1490:2 1503:1 1524:1 1623:2 1699:1 1778:1 1846:1 1981:1 
-0.0025928283875121253994333603287714 118:1 120:2 152:1 542:1 1332:1 
-0.0025928283875121253994333603287714 450:1 564:1 610:1 661:1 966:1 1194:1 1205:1 1842:1 1939:1 
0.0025928283875121253994333603287714 8:1 25:2 108:1 127:1 144:1 174:1 239:1 297:1 308:1 315:1 354:2 411:1 456:1 475:1 554:1 564:1 577:1 603:1 661:1 679:1 729:1 824:1 904:1 914:1 1039:1 1061:1 1118:1 1138:1 1157:1 1248:1 1254:1 1276:1 1284:1 1299:1 1343:1 1493:1 1510:1 1778:1 1862:1 
-0.0025928283875121253994333603287714 419:1 457:1 470:1 824:1 835:1 1039:1 1276:3 1299:1 1557:1 1979:1 
-0.0025928283875121253994333603287714 96:1 116:1 233:1 251:1 508:2 527:1 533:1 599:1 632:1 668:1 725:1 814:1 883:1 887:1 889:2 898:1 960:1 1040:1 1105:1 1155:1 1159:1 1250:1 1271:3 1388:1 1423:1 1477:1 1552:1 1619:1 1738:2 1751:1 1764:1 1767:1 1906:1 1907:1 1908:1 1987:1 
-0.0025928283875121253994333603287714 546:1 1041:1 1121:2 
-0.00080956042989890821415938093608133 127:1 694:1 704:1 711:1 1279:1 1704:1 
0.0025928283875121253994333603287714 8:1 22:1 25:1 127:2 221:1 361:1 442:1 457:1 462:1 467:1 552:1 809:1 856:1 889:1 948:1 1223:1 1224:1 1276:1 1297:1 1351:1 1490:1 1551:1 1553:1 1669:1 1734:2 1862:1 1865:1 1960:1 
0.0025928283875121253994333603287714 112:1 233:1 301:1 389:1 442:1 467:1 595:1 687:1 738:1 824:1 986:1 1105:1 1150:1 1155:1 1331:1 1425:1 1506:1 1574:1 1614:1 1734:1 1765:1 1934:1 
-0.0025928283875121253994333603287714 488:1 1132:1 1506:1 
-0.00098127176243760299255425305631206 94:2 96:1 104:1 125:1 205:1 260:1 275:1 413:3 503:1 513:1 550:1 571:1 597:1 671:1 718:1 811:1 997:1 1003:2 1070:4 1195:1 1466:1 1519:2 1543:2 1554:1 1568:1 1589:1 1626:1 1663:1 1765:1 1869:1 1910:1 1995:1 
-0.0025928283875121253994333603287714 626:1 
-0.0025928283875121253994333603287714 1564:1 1774:1 1881:1 1957:1 
-0.0016002718797379690031379428916125 187:1 428:1 430:1 516:1 662:1 718:1 776:1 1062:1 1191:2 1215:1 1289:1 1318:1 1352:1 1539:2 1737:1 1801:1 1834:1 1922:1 1957:1 
-0.0025928283875121253994333603287714 215:1 354:1 405:1 609:1 776:1 1468:1 1786:1 
-0.0023166909230699470230441239237962 55:1 77:1 96:1 170:1 180:1 219:2 221:1 316:1 343:1 395:1 483:1 508:1 573:1 665:1 774:2 1057:1 1064:1 1130:1 1144:1 1231:1 1338:1 1447:1 1490:1 1551:1 1553:1 1556:1 1590:1 1606:1 1644:1 1700:1 1746:1 1756:1 1862:1 1870:1 1874:1 1948:1 1954:1 1986:1 2000:1 
-0.00043747542630543604248033462411627 9:1 17:9 104:1 135:2 148:2 197:1 202:4 214:5 338:3 346:1 429:3 441:3 446:2 468:1 493:2 517:1 526:1 582:3 608:9 659:1 742:10 754:1 863:1 895:2 924:15 976:2 992:6 1071:23 1122:1 1269:5 1270:18 1386:8 1421:15 1521:1 1570:2 1580:3 1677:8 1740:2 1800:1 1802:3 1815:1 1821:2 1899:1 1918:2 1931:1 
-0.00071777587595176005168251531785018 1:1 17:1 22:1 80:1 125:1 135:3 199:1 259:1 382:1 441:1 444:1 461:1 471:1 491:1 493:1 513:1 570:1 689:1 742:1 772:1 955:1 1046:1 1050:2 1067:1 1187:1 1195:1 1245:1 1304:1 1398:1 1415:1 1425:1 1463:1 1486:1 1488:1 1513:1 1518:1 1538:1 1551:1 1567:1 1620:1 1655:1 1658:1 1840:1 1864:1 1987:1 
-0.00016463830586210847269773571710516 17:5 52:1 80:1 97:1 104:16 107:2 135:4 148:3 202:4 205:1 319:1 338:2 346:2 376:1 429:3 459:2 460:3 493:3 512:1 517:2 523:1 579:1 608:6 771:2 849:2 924:1 959:1 976:4 1067:2 1071:2 1101:1 1145:1 1213:2 1269:1 1304:1 1386:2 1470:1 1521:7 1543:1 1585:1 1605:1 1687:1 1691:1 1740:1 1779:2 1783:1 1800:9 1802:1 1821:2 1832:2 1844:1 1913:1 
-0.0024916934955794413190932612423012 61:1 176:1 275:1 281:1 296:1 321:1 338:3 365:1 503:1 513:1 520:1 526:1 560:2 595:1 608:1 616:1 684:1 689:2 818:1 869:2 958:1 1057:1 1089:1 1103:1 1270:2 1349:1 1373:1 1386:1 1410:1 1418:1 1486:1 1511:1 1706:1 1867:3 1869:1 1941:2 1987:2 
-0.0025928283875121253994333603287714 42:1 49:1 54:1 66:1 67:1 72:2 105:1 115:1 131:2 144:2 159:1 174:1 179:1 239:1 271:1 282:1 290:1 297:1 327:1 336:1 348:1 387:1 406:1 409:1 483:1 508:2 518:1 526:2 555:1 569:2 601:2 606:1 632:1 638:1 650:2 654:1 680:1 685:1 692:1 711:1 714:1 732:1 769:1 773:1 835:3 837:2 839:1 844:1 879:1 904:1 908:1 909:1 927:1 952:1 978:1 1002:1 1009:1 1011:1 1019:1 1045:1 1109:1 1118:1 1162:1 1165:1 1168:1 1169:1 1194:1 1205:1 1226:1 1246:2 1252:1 1280:1 1311:1 1328:1 1416:1 1428:1 1452:1 1487:1 1489:2 1536:1 1538:1 1556:1 1557:1 1578:1 1586:1 1594:1 1601:1 1606:2 1611:1 1613:1 1624:1 1642:1 1665:1 1669:1 1679:1 1682:1 1724:1 1728:1 1735:1 1760:1 1771:1 1777:1 1784:1 1813:1 1855:1 1872:1 1899:1 1929:1 1943:1 1954:3 1956:3 1973:2 1988:1 
-0.0020757023966457739672097915217819 22:1 77:1 79:1 140:11 158:1 175:1 179:1 180:2 191:2 211:1 226:1 232:1 260:1 262:1 280:2 301:3 305:1 313:2 315:1 326:2 335:1 340:8 378:1 387:1 392:1 406:5 419:4 425:2 434:1 462:2 467:1 488:1 504:2 522:1 552:4 560:1 577:4 584:1 599:1 600:2 625:1 667:1 671:1 679:2 684:2 738:1 761:3 784:1 785:1 801:1 809:1 819:7 833:3 857:1 867:1 898:1 907:1 922:1 940:2 954:2 958:2 986:2 1017:1 1028:1 1043:3 1051:4 1055:3 1090:1 1103:2 1132:3 1143:2 1150:8 1157:5 1159:2 1161:5 1193:3 1194:7 1219:4 1223:1 1253:1 1297:1 1314:1 1330:2 1336:3 1409:3 1420:1 1422:1 1451:1 1457:4 1490:4 1496:2 1503:4 1506:1 1519:4 1523:3 1524:1 1535:3 1536:4 1551:2 1564:1 1644:1 1654:3 1669:1 1671:3 1699:3 1718:3 1723:1 1734:2 1765:1 1778:1 1781:3 1792:1 1846:5 1848:5 1856:1 1862:4 1880:2 1894:1 1912:1 1934:5 1935:3 1938:2 1941:1 1948:1 1954:3 1960:4 1994:1 
-0.0025928283875121253994333603287714 25:1 80:1 96:4 175:2 195:1 326:1 335:1 413:2 560:2 680:1 684:3 689:1 745:1 771:1 800:1 819:1 880:1 995:1 1089:1 1100:1 1109:1 1159:1 1193:1 1209:1 1224:1 1261:1 1275:1 1314:2 1409:3 1419:1 1523:1 1524:1 1526:1 1547:1 1551:1 1614:1 1669:1 1765:2 1848:1 1941:1 1954:1 
-0.0017396250045201334683692140359312 96:4 180:2 196:1 337:1 407:1 557:1 671:1 680:1 691:1 743:1 856:1 857:1 863:1 1024:2 1065:1 1092:1 1199:1 1200:1 1224:1 1409:1 1420:1 1501:1 1503:1 1519:1 1599:1 1654:1 1997:1 
