SVM-light Version V4.00
0 # kernel type
3 # kernel parameter -d 
1 # kernel parameter -g 
1 # kernel parameter -s 
1 # kernel parameter -r 
empty # kernel parameter -u 
2000 # highest feature index 
3616 # number of training documents 
1315 # number of support vectors plus 1 
0.86618781 # threshold b 
-0.013886371946936249682780228908996 13:1 53:1 394:1 480:1 501:1 560:1 772:1 827:1 914:1 927:1 950:1 1063:1 1137:1 1185:1 1198:1 1320:1 1327:1 1343:1 1513:1 1553:1 1663:1 1736:1 1741:1 1750:1 1973:1 
-0.062255535029985799300167315095678 379:1 975:1 1452:1 
-0.030342076949798735263641447090777 576:1 627:1 1491:1 1553:1 1712:1 1750:1 
-0.020417160726465544140495467217988 322:1 454:1 458:1 716:1 994:1 1035:1 1158:1 1518:1 
0.019425243563672738716929799807076 134:1 150:1 291:1 310:1 392:1 449:1 1728:1 1738:3 1837:1 
-0.0080106248742570617532576804364908 117:1 158:1 301:1 532:1 1412:1 1669:1 1699:1 1748:1 1807:1 1854:1 
0.060789455169096777431558820126156 146:1 175:1 471:2 591:1 662:1 789:1 1081:1 1371:1 1626:1 1812:1 
0.058360229806697722088060231726558 267:2 291:3 428:1 649:2 1506:1 1846:1 
0.062255535029985799300167315095678 428:1 507:1 895:1 926:1 994:1 1007:2 1375:1 1667:1 
-0.062255535029985799300167315095678 291:4 392:1 428:1 676:2 1024:1 1454:1 1918:1 
0.061960662392555446165154364734917 19:3 147:4 267:1 693:1 1007:2 1114:4 
-0.062255535029985799300167315095678 267:1 291:2 428:1 439:1 649:1 676:1 895:1 994:3 1024:1 1069:1 1183:1 1667:2 1958:2 
-0.062255535029985799300167315095678 267:1 291:2 392:2 439:1 452:2 953:1 994:3 1069:1 1375:1 1454:1 1846:2 
0.062255535029985799300167315095678 325:1 373:2 406:1 910:1 980:1 1130:2 1193:1 1397:1 1703:2 1907:1 1986:1 1991:1 
0.062255535029985799300167315095678 13:1 239:1 341:1 363:1 841:1 896:1 1125:1 1180:1 1230:2 1378:1 1499:1 1526:1 1544:1 1547:1 1843:1 1882:1 
0.062255535029985799300167315095678 9:1 227:1 253:1 284:1 361:1 407:1 794:1 867:1 977:1 1077:1 1188:1 1272:1 1289:1 1358:1 1630:1 1700:1 1800:1 1843:1 1962:1 1974:1 1978:1 
0.062255535029985799300167315095678 208:1 786:1 802:1 927:1 1127:1 1150:1 1176:1 1187:1 1348:2 1624:1 1756:1 1843:1 
0.062255535029985799300167315095678 216:1 264:1 276:1 279:1 317:1 319:1 499:1 592:1 972:1 1293:1 1358:1 1639:1 1843:1 1882:2 1966:1 
-0.059737748072059865256377975128999 417:1 471:2 515:1 699:1 760:1 838:1 845:1 1339:1 1905:1 1911:1 1924:1 
-0.0058425801072627932611358581027616 2:2 545:2 881:2 1046:1 1056:1 1235:1 1312:1 1348:3 1389:1 1615:1 1630:1 1647:1 
-0.062255535029985799300167315095678 204:1 361:1 841:1 972:1 1153:1 1230:1 1334:2 1499:1 1507:2 1624:1 1837:1 1843:1 1998:1 
-0.02991704151122070304280597952129 13:1 227:2 276:1 363:1 557:1 592:1 769:1 905:1 1277:1 1279:1 1433:1 1573:1 1843:1 
-0.017470709700324906638035926675911 99:1 558:1 631:2 719:1 1394:1 1595:1 1661:1 1666:1 1707:1 1842:1 1993:1 
-0.028817934505389775079464698137599 352:1 1201:1 1418:1 1453:1 1576:1 1730:1 1749:1 1890:1 
0.062255535029985799300167315095678 291:3 392:1 454:1 471:1 649:1 994:1 1926:1 
0.028241263690726020607613122592738 19:1 267:3 428:7 1375:2 1546:2 1958:1 
-0.062255535029985799300167315095678 267:5 428:3 1375:5 
-0.062255535029985799300167315095678 147:3 439:1 452:1 693:2 1007:2 1183:3 1375:1 1667:2 1958:2 
-0.062255535029985799300167315095678 19:1 428:1 676:1 693:3 1375:2 1546:1 1667:1 1958:3 
0.062255535029985799300167315095678 162:1 392:1 458:1 523:1 676:1 994:1 1024:1 1326:1 1705:1 1918:2 
0.062255535029985799300167315095678 175:1 404:1 496:1 662:1 1287:1 1326:1 1464:1 1631:1 1687:1 
0.062255535029985799300167315095678 267:2 392:2 676:1 953:1 994:1 1024:1 1375:1 1546:1 1667:2 
0.062255535029985799300167315095678 452:4 1024:1 1470:1 1667:1 1818:1 1926:1 
-0.062255535029985799300167315095678 188:1 426:1 931:1 1284:1 1419:1 1557:1 1684:1 
-0.062255535029985799300167315095678 291:2 392:2 994:2 1024:1 1454:2 1506:4 1918:1 
-0.062255535029985799300167315095678 162:1 199:1 274:1 337:1 392:2 458:1 492:1 522:1 523:1 770:1 1019:1 1024:2 
-0.046913837025401916580591432648362 168:1 274:1 392:2 537:1 719:1 940:1 1010:1 1110:2 1454:3 1708:1 1743:1 1755:2 1788:1 1923:1 1926:1 1976:1 
0.062255535029985799300167315095678 19:1 147:1 267:1 428:2 693:1 994:2 1007:2 1375:5 1958:1 
-0.043169765087013839410801097074 6:1 40:1 142:1 350:1 352:1 536:1 559:1 690:1 1394:1 1803:1 1854:1 
-0.062255535029985799300167315095678 267:3 428:6 1375:8 
-0.047422747647737642506804434106016 147:4 428:1 693:1 994:1 1069:1 1375:1 
-0.062255535029985799300167315095678 428:2 649:1 676:2 994:4 1546:1 
-0.062255535029985799300167315095678 904:1 953:2 994:1 1007:1 1667:1 
0.062255535029985799300167315095678 70:1 392:2 454:1 523:1 957:2 1024:1 1454:3 1495:1 1506:1 1687:1 1846:1 
0.035917931443114524403537046737256 274:1 323:1 392:2 417:1 523:1 630:1 706:1 760:2 778:1 838:1 1254:1 1339:1 1799:1 
-0.015178731695866486822721341809483 11:1 32:1 431:1 481:1 586:1 686:1 767:1 976:1 1092:1 1450:1 1582:1 1642:1 1661:1 1823:1 1842:1 1885:1 
0.033190448115566241471530162243653 392:1 649:1 1024:2 1186:1 1454:2 1846:2 
0.062255535029985799300167315095678 676:2 1506:1 1958:1 
-0.062255535029985799300167315095678 162:2 471:1 602:1 760:1 776:2 838:2 1321:1 1326:2 1339:2 1495:2 1529:1 1838:1 
-0.062255535029985799300167315095678 392:1 454:1 471:1 515:1 523:1 845:1 981:1 982:1 1321:2 1381:1 1579:1 1838:1 1846:1 1905:1 1926:1 1954:1 
-0.062255535029985799300167315095678 162:1 417:2 699:1 760:3 776:1 845:1 1242:3 1254:1 1537:1 1687:2 1799:1 1838:1 1879:1 1905:2 1911:1 
-0.062255535029985799300167315095678 210:1 392:1 462:1 971:1 1186:1 1454:3 1506:1 1691:1 
0.062255535029985799300167315095678 428:1 507:2 994:4 1954:1 
0.025509394980006733222310799646948 210:1 391:1 401:1 452:2 454:1 462:2 630:1 994:3 1723:1 1728:1 1818:1 
0.062255535029985799300167315095678 439:1 853:1 895:2 994:2 1024:1 1333:1 
0.062255535029985799300167315095678 19:1 147:1 439:3 693:1 1183:3 1958:2 
-0.062255535029985799300167315095678 210:1 391:1 452:3 618:1 926:1 1918:2 1959:3 
-0.062255535029985799300167315095678 267:2 291:2 649:1 676:4 994:3 1546:1 1667:2 
-0.062255535029985799300167315095678 439:1 639:1 
-0.062255535029985799300167315095678 70:1 387:1 706:2 778:2 847:1 919:1 935:1 1452:1 1705:1 
0.037088519341552668440176177000467 70:2 162:5 614:1 647:1 760:1 838:1 845:1 899:1 1045:1 1321:1 1381:1 1495:1 1734:1 1799:1 1879:1 1912:2 
0.062255535029985799300167315095678 70:1 323:1 564:1 776:2 838:1 1122:1 1186:1 1321:3 1381:1 1436:1 1687:1 1879:1 1912:1 
0.018046769321825043008722389004106 162:2 175:1 315:2 567:1 776:5 838:1 1287:1 1799:1 1838:2 1906:1 
0.062255535029985799300167315095678 162:1 417:1 515:1 760:2 1242:1 1326:1 1381:1 1420:1 1464:1 1537:1 1631:1 1734:1 1879:1 1905:1 1911:1 
-0.062255535029985799300167315095678 150:1 162:1 274:1 699:1 776:2 953:1 1242:1 1381:3 1687:1 1838:1 
-0.062255535029985799300167315095678 70:1 274:1 778:1 838:2 1078:1 1242:2 1381:1 1734:4 1879:2 
0.062255535029985799300167315095678 70:1 458:1 705:1 706:1 760:1 1122:1 1186:2 1254:1 1321:1 1671:1 1687:1 1911:2 1918:1 
0.056965226034080135297799074578506 387:1 404:1 524:2 752:1 778:5 1420:1 1479:1 1512:1 1809:1 1837:1 
0.047009754705654931139502394898955 468:1 522:1 904:1 953:4 969:1 1454:1 1772:1 1926:1 1954:1 
-0.0024635998596773539537352348816057 74:1 85:1 209:1 260:1 349:17 501:1 530:8 532:1 656:3 680:1 855:1 1292:1 1313:1 1424:1 1505:1 
-0.062255535029985799300167315095678 107:1 144:1 653:1 787:1 943:1 1068:1 1306:1 1348:1 1355:1 1719:1 
0.062255535029985799300167315095678 218:2 302:1 387:2 699:1 919:1 971:1 982:1 1452:2 1475:1 1494:1 1700:1 1871:1 1912:1 1975:1 
-0.053105900919576898289165001187939 387:4 404:1 614:1 647:1 880:1 1413:2 1464:3 1537:1 1912:1 
-0.062255535029985799300167315095678 315:2 387:2 404:1 1420:2 1464:2 1475:1 
-0.062255535029985799300167315095678 564:2 614:2 647:1 648:1 752:1 833:1 1045:2 1261:1 1420:1 1452:1 1475:2 1631:1 1809:2 1938:1 
-0.062255535029985799300167315095678 387:3 614:3 778:2 880:1 1261:1 1413:1 1464:2 1809:1 1912:1 
-0.062255535029985799300167315095678 63:1 323:1 496:1 594:1 630:1 758:1 776:1 920:1 1026:1 1556:1 1723:1 1954:1 
0.062255535029985799300167315095678 838:1 1242:2 1381:1 1734:2 1876:1 1879:1 
0.035666274777397956319280325487853 454:1 705:1 760:1 899:1 1464:1 1494:1 1495:1 1687:6 
0.042050632301010373859107005500846 382:1 417:1 567:1 598:1 699:1 752:1 838:1 1242:1 1284:1 1381:2 1388:1 1428:1 1498:1 1557:1 1838:1 
0.062255535029985799300167315095678 210:1 417:2 454:1 699:2 838:3 1326:1 1436:1 1579:1 1687:1 1705:1 1879:1 1905:1 1912:1 1918:2 
0.062255535029985799300167315095678 2:1 64:1 70:1 144:1 407:1 778:1 838:1 906:1 1027:1 1078:2 1195:1 1381:1 1734:1 1838:1 1905:1 
-0.051809254624184591930813326143834 70:1 417:1 567:1 699:1 838:3 1242:1 1339:1 1381:1 1838:1 1879:2 1905:1 1911:1 
-0.062255535029985799300167315095678 162:1 417:1 523:1 567:1 699:2 760:1 831:1 1321:2 1326:1 1495:1 1687:2 1818:1 1905:1 1911:1 
-0.062255535029985799300167315095678 33:1 162:1 167:1 323:1 496:1 957:1 1221:1 1436:2 1470:2 1705:1 1799:1 
-0.062255535029985799300167315095678 33:1 458:1 699:1 705:1 760:2 1326:2 1687:3 
0.062255535029985799300167315095678 175:1 387:3 567:1 614:3 778:1 833:1 1045:1 1078:1 1326:1 1413:3 1464:2 1838:1 1876:1 1911:1 1912:2 
0.062255535029985799300167315095678 315:2 387:2 404:1 614:1 778:1 1045:3 1379:1 1529:1 1631:1 
0.035940967577394393461798216549141 263:2 387:2 524:1 648:1 893:1 1174:1 1221:1 1261:1 1345:1 1452:1 1475:2 1809:1 1871:1 
0.062255535029985799300167315095678 284:2 315:2 386:1 387:1 971:1 1045:1 1287:1 1321:1 1402:1 1464:1 1498:1 1838:1 1906:1 
0.062255535029985799300167315095678 95:1 614:2 648:1 752:1 819:2 931:1 1417:1 1420:1 1809:1 
-0.046950600799441397081857019202289 111:1 146:1 648:3 878:1 971:1 1045:2 1081:1 1329:1 1330:1 1413:2 1428:2 1452:1 1631:1 1700:1 1809:1 
-0.038444397552027997910784051782684 111:1 302:1 524:4 752:1 847:1 971:3 975:1 1195:1 1200:1 1330:1 1479:1 1700:1 
-0.062255535029985799300167315095678 315:1 404:1 648:1 833:1 880:1 1045:1 1452:1 1475:1 1498:2 1602:1 1671:1 1912:2 
0.062255535029985799300167315095678 699:1 760:1 776:3 831:1 838:1 1254:1 1321:1 1339:1 1799:1 1879:2 
0.023439484003905452363936134929645 70:1 699:3 760:1 831:2 1078:1 1242:1 1379:1 1420:1 1464:5 1475:1 1879:1 
-0.062255535029985799300167315095678 454:8 458:2 705:1 1186:3 1918:4 1926:1 
-0.036043956898823892309735583694419 417:1 567:1 699:5 1379:2 1838:3 
-0.062255535029985799300167315095678 70:1 218:1 831:1 838:1 1402:1 1464:1 1837:1 1879:1 1905:1 
-0.062255535029985799300167315095678 175:1 263:1 387:1 598:1 838:1 1078:1 1276:1 1379:1 1464:1 1475:1 1512:1 
0.062255535029985799300167315095678 162:1 274:2 523:1 699:1 760:1 1506:1 1579:1 1687:1 1818:1 
0.00071615695840543706299913262469659 41:1 162:1 387:1 524:1 567:3 598:2 647:1 833:1 845:2 1078:1 1242:1 1329:1 1452:1 1602:1 1626:1 1671:1 1684:2 1905:1 
0.062255535029985799300167315095678 70:1 111:1 564:3 614:1 752:1 778:1 833:1 838:1 1413:1 1452:1 1475:1 1512:1 1700:2 1809:1 1912:1 1938:1 
0.062255535029985799300167315095678 162:1 471:1 778:2 845:1 1339:1 1602:1 1838:2 
-0.062255535029985799300167315095678 387:1 614:1 778:1 833:2 1045:1 1700:1 1912:2 
-0.062255535029985799300167315095678 124:1 284:1 435:1 626:1 752:1 778:1 838:1 893:1 982:1 1364:1 1422:1 1700:1 1871:1 
-0.062255535029985799300167315095678 95:1 111:1 232:1 284:1 387:1 614:1 752:1 878:1 1078:1 1371:1 1420:1 1464:1 1700:1 
-0.062255535029985799300167315095678 315:3 457:1 614:1 681:1 778:1 1356:1 1626:2 1769:1 
-0.017091474326998569444047149090693 193:1 194:1 272:1 380:1 461:1 527:1 546:1 1017:1 1198:1 1491:1 1576:1 1866:1 1950:1 
0.062255535029985799300167315095678 39:1 111:1 129:1 681:2 699:2 739:1 880:1 971:1 1103:1 1286:1 1452:1 1464:1 1498:1 1591:2 1684:1 1734:1 1812:1 1938:1 
0.062255535029985799300167315095678 392:1 417:1 454:2 705:1 1186:1 1452:1 1454:1 1911:1 1926:1 
0.062255535029985799300167315095678 392:1 454:2 699:1 706:1 831:1 919:2 1122:2 1200:1 1242:1 1326:1 1436:1 1494:1 1911:1 
-0.028040282911147875605228918516332 17:1 373:1 406:1 476:1 566:1 718:1 756:1 990:1 1128:1 1370:1 1429:1 1762:1 1999:1 
-0.062255535029985799300167315095678 291:1 392:5 567:1 699:1 838:1 1122:3 1454:1 1495:2 1838:1 1905:3 1911:3 
0.062255535029985799300167315095678 48:1 368:1 471:1 833:1 847:1 878:1 880:1 975:1 982:1 1077:1 1422:1 1906:1 
0.016424987595927635630754792828156 33:1 323:1 496:1 523:1 1186:1 1838:1 1918:2 
-0.062255535029985799300167315095678 492:1 564:2 880:1 971:1 1001:1 1081:1 1121:2 1200:1 1329:1 1420:1 1428:1 1464:1 1684:1 1859:1 1906:1 1912:1 1915:1 
-0.062255535029985799300167315095678 284:1 531:1 564:3 648:2 847:1 1081:1 1428:2 1452:3 1700:1 
-0.062255535029985799300167315095678 144:1 232:1 378:1 492:1 653:1 761:1 803:1 819:1 1068:1 1077:1 1115:1 1289:1 1301:1 1306:1 1362:1 1428:1 1498:1 1552:1 1684:1 1728:1 1906:1 1915:1 
-0.0023123288089482415055830877292919 217:1 288:1 914:1 1034:1 1439:1 1534:1 1553:1 1696:1 
-0.029643259268153396984724068374817 212:1 349:2 555:1 656:1 781:1 1431:2 1533:1 
0.062255535029985799300167315095678 162:1 210:1 699:1 1186:1 1254:1 1495:3 1687:1 1905:1 1911:1 1918:1 
0.062255535029985799300167315095678 84:1 297:1 378:1 454:1 471:1 838:1 1242:1 1345:1 1379:1 1495:1 1537:2 1671:2 1905:2 1940:1 
0.062255535029985799300167315095678 831:1 957:2 1013:2 1115:1 1287:1 1421:1 1470:1 1905:3 
-0.062255535029985799300167315095678 1078:1 1242:2 1261:1 1379:3 1537:1 1671:1 1734:4 1879:2 
-0.062255535029985799300167315095678 323:1 471:1 567:1 831:1 1687:1 1723:1 1734:1 1926:1 
-0.062255535029985799300167315095678 41:1 926:1 1122:1 1158:1 1254:1 1326:1 1388:1 1671:1 1838:1 1926:1 
-0.062255535029985799300167315095678 210:1 454:1 705:1 706:2 831:1 899:1 926:1 957:2 1479:1 1818:1 1906:1 1926:2 1959:2 
-0.062255535029985799300167315095678 67:4 68:1 167:1 202:1 547:1 853:1 864:1 1345:1 1671:1 1959:1 1990:1 
0.062255535029985799300167315095678 64:1 137:1 255:1 273:1 702:1 720:1 893:1 971:3 1068:1 1121:2 1195:1 1306:1 1428:1 1510:1 1557:1 1914:1 1978:1 1982:1 
0.062255535029985799300167315095678 376:1 518:1 524:4 847:1 878:1 1330:1 1552:2 1684:1 1975:1 
0.062255535029985799300167315095678 263:1 564:1 614:2 752:2 833:2 1081:1 1413:2 1428:1 1809:1 
0.062255535029985799300167315095678 107:1 111:1 137:1 273:1 386:1 435:1 492:1 524:1 796:1 975:1 1001:2 1019:1 1077:1 1200:1 1362:1 1684:1 1694:1 1837:1 
-0.062255535029985799300167315095678 518:3 524:3 971:1 975:2 1330:1 1452:2 1498:1 1552:1 1975:1 
-0.032039249094396746175839041370637 518:1 524:3 531:1 878:1 971:1 1330:2 1552:1 1684:1 1938:1 
-0.062255535029985799300167315095678 387:1 404:1 614:1 752:2 833:3 880:1 1045:2 1081:1 1413:2 1428:1 1475:1 1700:1 1809:2 
0.056621560665675661760953829571008 177:1 392:1 487:1 496:1 770:1 920:1 940:1 1221:1 1444:1 1506:1 1579:1 1685:1 1926:2 1976:1 
0.062255535029985799300167315095678 274:1 392:1 523:1 770:1 1926:2 
0.062255535029985799300167315095678 274:1 454:1 1186:1 1926:1 
0.062255535029985799300167315095678 291:1 392:2 417:1 458:1 567:1 1454:1 1846:1 1918:1 1926:1 
0.0046125730045136576970565833732962 195:2 462:2 639:2 853:1 864:1 1115:1 1406:1 1585:1 1926:1 1990:1 
-0.062255535029985799300167315095678 2:1 64:1 137:1 548:2 702:2 1056:1 1077:1 1112:1 1121:1 1289:1 1406:1 1557:1 1630:1 1878:1 
-0.062255535029985799300167315095678 358:1 829:1 
-0.024735834263905232682789758769104 309:1 424:1 499:2 593:1 677:2 788:1 983:1 1062:1 1132:1 1218:1 1262:1 1408:1 1430:1 1526:1 1574:1 
-0.062255535029985799300167315095678 137:1 662:1 681:1 796:1 931:1 936:1 1077:1 1121:1 1286:1 1289:1 1530:1 1618:1 1694:1 1719:1 
-0.062255535029985799300167315095678 70:1 739:1 919:1 1200:5 1284:1 1436:1 
0.062255535029985799300167315095678 111:1 531:1 789:1 819:1 833:1 935:1 1081:1 1330:1 1452:1 1498:1 1626:1 1684:1 1809:1 1916:1 
0.062255535029985799300167315095678 614:1 648:1 752:1 760:1 919:1 1122:1 1242:1 1321:1 1330:1 1464:1 1475:1 1529:1 1700:1 
0.062255535029985799300167315095678 435:1 518:1 531:1 644:2 648:1 739:1 752:1 878:2 1334:1 1560:1 1684:1 
0.062255535029985799300167315095678 435:1 492:1 570:1 787:1 893:1 1289:1 1906:1 
-0.032884115896200188933207186892105 320:2 443:1 485:1 644:1 723:3 940:3 1252:1 1444:1 1477:1 1493:1 1625:2 1685:1 1702:1 1868:1 1976:1 
-0.062255535029985799300167315095678 274:1 454:2 462:1 515:1 523:1 699:1 778:1 838:1 919:1 1287:1 1339:1 1436:1 1494:1 1529:1 1990:1 
-0.054396907364670309126264413634999 162:1 417:1 699:2 760:2 831:1 1495:1 1799:1 1838:1 1905:3 1911:3 
-0.030080468168188066735435626242179 567:1 614:1 752:2 760:1 838:3 1045:2 1242:1 1261:1 1326:1 1381:1 1464:2 1537:1 1911:1 
0.062255535029985799300167315095678 137:1 302:2 381:1 548:1 653:1 702:1 936:1 1188:1 1200:3 1306:1 1362:1 1428:1 1615:1 1647:1 1802:1 
0.062255535029985799300167315095678 163:1 273:1 492:1 545:1 548:1 653:1 881:1 888:1 890:1 931:1 936:1 1329:2 1330:1 1348:1 1496:1 1530:1 1618:1 1659:1 
0.062255535029985799300167315095678 48:1 107:1 116:1 157:1 273:1 302:1 746:1 936:1 1019:1 1045:1 1284:1 1479:1 1530:1 1557:1 1630:1 1647:1 1650:1 1915:2 
0.062255535029985799300167315095678 144:1 211:1 376:1 492:1 564:1 648:1 803:2 843:1 1056:1 1188:1 1195:1 1284:2 1286:1 1364:1 1530:1 1719:1 1871:1 1878:1 1916:1 
0.062255535029985799300167315095678 157:1 188:1 510:2 977:1 1284:1 1289:1 1306:1 1312:1 1557:1 1561:1 1618:1 1878:1 
-0.00489178112528735470343477231836 121:1 236:1 257:1 556:1 737:1 839:1 1204:1 1294:1 1337:1 1401:1 1438:1 1644:1 1892:1 
-0.062255535029985799300167315095678 323:1 403:1 454:1 630:1 1345:1 1520:1 1737:1 1911:1 1926:1 
-0.010118168967835995675219606937389 64:1 107:1 208:1 510:1 890:1 1188:1 1235:1 1263:1 1312:1 1615:3 
-0.0084959197308924986474787388601726 107:1 137:2 144:1 163:1 188:1 739:1 835:2 911:1 1195:1 1284:1 1306:3 1362:3 1530:2 1618:1 1694:1 1859:1 
0.062255535029985799300167315095678 254:1 285:1 313:1 492:1 756:1 914:1 1075:1 1206:1 1351:1 1586:1 1843:1 1996:1 
0.062255535029985799300167315095678 41:1 162:1 417:1 515:2 523:2 760:2 838:1 1261:1 1579:1 1734:1 1799:1 1838:1 1905:1 
0.062255535029985799300167315095678 705:2 831:1 838:1 899:1 1200:1 1436:3 1464:1 1734:1 1905:1 
-0.062255535029985799300167315095678 157:1 179:1 387:1 598:1 614:1 1082:2 1109:1 1305:1 1420:1 1464:1 1475:1 1498:1 1537:1 1565:1 1813:1 1818:1 
-0.021848648570348121189521606311246 2:1 129:1 144:1 492:1 796:2 906:1 931:1 1019:1 1195:1 1312:1 1362:1 1812:1 1869:1 1871:2 
-0.062255535029985799300167315095678 41:1 48:1 376:1 649:1 845:1 904:1 975:1 1330:1 1344:1 1537:1 1585:1 1876:1 1915:1 
-0.062255535029985799300167315095678 210:1 515:3 603:2 760:1 1321:1 1339:1 1345:1 1470:1 1579:1 1592:1 1924:1 
-0.062255535029985799300167315095678 387:1 404:1 523:1 567:1 614:2 626:1 759:1 760:1 899:1 1321:1 1436:1 1705:1 1918:1 
0.062255535029985799300167315095678 171:1 259:2 273:1 492:1 518:2 531:1 843:2 911:1 1195:1 1289:1 1329:1 1389:1 1530:1 1684:1 1694:1 1975:1 
0.062255535029985799300167315095678 259:1 435:1 1056:1 1077:1 1121:1 1452:1 1618:1 1694:1 1719:1 1878:1 
0.062255535029985799300167315095678 291:1 454:1 1254:1 1326:1 1687:1 1911:1 
0.062255535029985799300167315095678 512:2 596:1 670:1 1263:1 1289:1 1457:1 1618:1 1658:1 1719:1 
-0.027146984909089538762216875511513 107:1 188:1 259:2 512:1 739:1 1284:1 1286:1 1362:1 1618:2 1719:1 
-0.049547179102488139723625693022768 454:3 458:1 699:1 831:1 1024:1 1321:1 1326:3 1381:1 1537:1 
-0.062255535029985799300167315095678 146:1 273:1 302:1 524:1 789:2 819:1 833:1 878:1 1077:1 1356:1 
-0.055549357008137602298436519276947 13:2 163:1 259:1 319:1 327:1 652:1 670:1 787:1 888:1 1077:1 1125:1 1187:1 1284:1 1389:1 1411:1 1548:1 1549:1 1658:1 1781:1 
0.062255535029985799300167315095678 33:1 150:1 603:1 953:1 1388:1 1603:1 1738:1 1959:2 
0.062255535029985799300167315095678 249:1 310:1 449:1 529:1 796:1 975:1 1135:1 1164:1 1373:1 1389:1 1393:1 1479:2 1577:1 1813:1 1922:1 
0.062255535029985799300167315095678 267:1 699:2 1122:1 1339:1 1671:1 1838:1 
-0.062255535029985799300167315095678 111:3 648:1 752:1 1330:2 1428:1 1452:2 1479:1 1631:1 
-0.062255535029985799300167315095678 776:1 847:1 975:2 1228:1 1479:1 1876:1 1906:1 1938:1 
-0.062255535029985799300167315095678 70:3 387:1 417:1 699:1 838:1 1339:1 1436:1 1734:1 1838:2 1879:1 1905:1 
0.062255535029985799300167315095678 107:1 144:1 286:1 492:1 835:1 911:1 927:1 931:2 1019:1 1043:1 1284:1 1286:1 1349:1 1615:1 1618:1 1655:1 1961:1 
0.015622480421768785915914712347785 48:2 116:1 518:1 524:1 531:1 739:1 819:1 1056:1 1284:1 1329:1 1362:1 1498:1 1511:2 1618:1 1700:1 1938:1 
0.062255535029985799300167315095678 64:1 123:2 137:1 163:1 182:1 259:1 739:1 977:1 1046:1 1077:1 1289:1 1355:2 1362:1 
0.062255535029985799300167315095678 376:1 760:1 819:1 847:1 931:1 973:1 1077:1 1078:1 1242:1 1284:1 1428:1 1494:1 1552:1 1618:1 
0.062255535029985799300167315095678 259:1 426:1 839:1 931:1 989:1 1179:2 1204:1 1225:1 1362:1 1466:1 1496:1 1543:1 1557:1 1615:1 1630:1 1858:1 1892:1 
-0.062255535029985799300167315095678 48:1 191:1 492:2 570:1 796:1 803:1 931:1 1001:1 1019:1 1060:1 1121:1 1289:1 1371:1 1561:1 
-0.062255535029985799300167315095678 48:2 199:1 739:1 835:1 1195:1 1334:1 1362:1 1511:2 1561:2 1618:1 1802:1 1878:1 1961:2 
-0.013379756826275124304004293662729 66:1 120:1 554:2 660:1 782:1 809:1 827:1 891:1 955:1 1178:1 1198:1 1244:1 1660:1 1745:1 1829:1 
-0.036068680611924072709761901478487 236:1 239:1 247:1 755:1 786:1 985:1 1337:1 1624:1 1760:1 1957:1 
-0.050045539431162848476031257405339 116:2 376:2 518:3 531:2 878:1 1684:1 1938:1 1975:1 
0.062255535029985799300167315095678 48:1 218:1 404:1 531:1 614:1 739:1 796:1 835:1 919:1 975:3 1077:1 1428:2 1452:1 1700:1 1719:1 1809:1 1871:2 
0.062255535029985799300167315095678 188:1 387:1 407:1 548:1 711:2 787:1 906:1 1164:1 1276:1 1286:1 1330:1 1452:1 1982:1 
0.062255535029985799300167315095678 417:1 567:1 648:1 831:1 838:2 845:1 1045:1 1242:1 1379:1 1413:1 1420:1 1464:1 1475:1 1879:1 
-0.062255535029985799300167315095678 315:1 387:1 404:2 778:2 833:1 919:1 1081:1 1413:1 1512:1 
-0.050953818406749215585982426546252 144:1 273:2 378:1 404:1 796:1 911:2 935:2 975:1 1329:1 1530:1 1684:1 1871:3 
-0.062255535029985799300167315095678 381:1 465:1 491:1 522:1 682:1 806:1 819:1 1026:1 1206:1 1326:1 1388:1 1510:1 1871:1 
-0.062255535029985799300167315095678 417:1 746:1 845:1 1242:2 1261:1 1326:1 1379:1 1381:1 1420:2 1529:1 1631:1 1671:1 1684:1 1734:1 1838:1 
0.062255535029985799300167315095678 188:1 796:1 847:1 931:1 1121:1 1263:1 1301:1 1306:1 1362:1 1694:1 1859:1 1878:1 
0.062255535029985799300167315095678 435:1 653:1 739:1 796:1 835:1 936:1 975:1 1046:1 1121:1 1187:1 1195:1 1301:1 1557:1 1915:1 1975:1 
-0.062255535029985799300167315095678 129:1 408:1 702:1 943:1 975:1 1106:1 1284:1 1286:1 1355:1 1557:1 1812:1 1982:1 
-0.062255535029985799300167315095678 81:1 349:1 351:1 656:1 682:2 876:1 1153:1 1507:1 1998:1 
-0.0024546257064057622199193531287165 209:1 229:1 272:2 400:1 542:1 580:1 638:2 673:1 898:1 925:1 1239:1 1405:1 1451:1 1696:1 1807:1 
-0.062255535029985799300167315095678 435:2 531:1 796:2 931:1 1121:1 1552:2 1915:1 1938:1 
-0.0014773457627501917002743603291037 123:1 426:1 695:1 714:1 843:2 890:1 936:1 1046:1 1056:1 1188:1 1263:1 1348:1 1362:1 1466:1 1557:1 1590:1 1607:1 1615:1 1630:1 
0.062255535029985799300167315095678 199:1 232:2 401:2 571:1 630:1 1221:1 1406:2 1691:1 
0.062255535029985799300167315095678 681:1 710:1 813:1 880:1 1242:1 1379:1 1565:1 1734:1 1902:1 
0.062255535029985799300167315095678 295:1 682:1 811:1 908:1 1199:1 1273:1 1531:1 1548:1 1734:1 1754:1 1760:1 
0.062255535029985799300167315095678 297:1 981:1 1356:1 1406:1 1483:1 1604:1 1691:1 1822:2 
-0.062255535029985799300167315095678 778:1 847:1 1045:1 1078:1 1413:1 1464:1 1565:1 1631:1 1734:1 
-0.062255535029985799300167315095678 202:1 523:1 688:1 1104:1 1368:1 1454:1 1572:1 1646:1 1669:1 1716:1 1822:2 1846:1 
-0.046954152394570146389352061078171 15:1 26:1 157:1 174:1 1027:1 1228:1 1406:2 1422:1 
-0.062255535029985799300167315095678 150:1 162:1 167:1 210:1 454:1 515:2 523:1 1010:1 1186:1 1603:1 1687:1 1705:1 1734:1 1738:1 1926:1 
0.062255535029985799300167315095678 2:2 107:1 146:1 315:1 648:1 752:1 878:1 1286:1 1301:1 1511:1 1552:1 1557:1 1618:1 1871:1 1912:1 1961:1 
0.062255535029985799300167315095678 137:1 524:2 633:1 828:1 943:1 1112:1 1187:2 1188:1 1234:1 1360:1 1373:1 1479:1 1561:1 1684:1 1851:1 1865:1 
0.062255535029985799300167315095678 107:2 199:2 702:1 739:1 847:1 936:1 969:1 1200:1 1436:1 1561:1 1802:1 1821:1 1879:1 
-0.062255535029985799300167315095678 27:1 107:2 386:1 1164:1 1374:1 1389:1 1560:1 1989:1 
-0.044926589046246523384553483992931 188:1 548:1 739:3 835:2 931:1 936:1 1195:1 1301:1 1362:1 1618:1 1878:1 
-0.055269038496422395745355515828123 315:1 492:1 648:2 752:1 778:1 880:3 1301:1 1420:2 1809:2 
-0.062255535029985799300167315095678 137:1 201:1 238:1 246:1 361:1 386:1 510:1 529:1 1129:1 1187:1 1262:1 1389:1 1810:1 1878:1 1962:1 
0.062255535029985799300167315095678 242:1 931:1 1045:1 1078:1 1242:1 1362:1 1428:1 1466:1 1479:1 1512:1 1537:1 1671:1 1734:1 
-0.062255535029985799300167315095678 291:1 608:1 618:1 1174:2 1454:1 1789:1 
-0.062255535029985799300167315095678 291:1 445:1 507:2 838:1 864:1 1334:1 1454:1 1506:1 
0.033253399034061728589684037160623 48:1 201:1 254:1 302:1 304:1 326:2 376:1 386:1 633:1 716:1 876:1 1045:1 1557:1 1700:1 1814:2 1938:1 
0.062255535029985799300167315095678 27:1 259:1 306:1 531:1 588:1 681:1 780:1 787:1 796:2 893:1 936:1 1077:1 1144:1 1289:2 1537:1 1630:1 1684:1 1809:1 1938:1 
0.062255535029985799300167315095678 116:1 124:1 157:2 786:1 788:1 843:1 943:1 985:1 1188:1 1301:2 1362:1 1650:1 
0.062255535029985799300167315095678 378:1 1068:1 1077:1 1301:1 1471:1 
0.058240227799490035254237341177941 150:1 468:1 496:2 775:1 969:1 1010:1 1723:2 
-0.062255535029985799300167315095678 263:1 648:1 878:2 893:1 971:1 1077:1 1121:1 1284:1 1871:1 
-0.0087369625106967011007874646111304 2:1 276:1 379:1 435:1 733:1 813:1 881:1 977:1 1188:1 1433:1 1628:1 1658:1 1801:1 1851:1 
-0.011225833384302059958503861025747 120:1 245:1 258:1 332:2 467:1 526:1 580:1 623:1 646:1 671:1 1455:1 1875:1 
-0.042104395939295838346971834198484 32:1 45:1 483:1 731:2 897:1 1048:2 1136:1 1231:1 1314:1 1456:1 1727:1 1780:1 1942:1 
-0.062255535029985799300167315095678 53:1 468:1 495:1 624:1 733:1 984:1 1405:1 1436:1 1531:1 1536:1 1865:1 1970:1 
-0.051675994777383660316871782924864 235:1 596:2 620:1 906:1 927:1 1083:1 1101:1 1172:1 1488:1 1621:1 
-0.062255535029985799300167315095678 95:1 146:1 368:1 1174:1 1214:1 1221:1 1768:1 1871:1 
-0.026560696895675008077919443394421 16:1 121:2 239:1 249:1 328:2 556:1 788:1 802:1 908:1 1210:1 1225:1 1393:1 1559:1 1643:1 1835:1 1974:1 
-0.060614640862997254400212909786205 2:1 163:1 201:1 259:1 426:1 492:1 670:1 739:1 787:1 936:2 1019:1 1077:1 1284:1 1289:1 1348:1 1615:1 1647:2 1650:1 1978:1 
0.062255535029985799300167315095678 53:1 426:1 495:1 702:1 1027:1 1422:1 1425:1 1659:1 1815:1 1816:1 1878:1 1981:1 
0.062255535029985799300167315095678 454:1 602:3 
0.062255535029985799300167315095678 232:1 518:1 904:1 1371:1 1734:1 1809:1 1837:2 
0.062255535029985799300167315095678 395:1 452:1 487:1 706:1 1026:1 1139:1 1375:1 1738:1 
-0.062255535029985799300167315095678 706:1 969:2 1078:1 1242:1 1464:1 1529:1 1705:2 1879:1 1911:1 
-0.062255535029985799300167315095678 334:1 364:1 395:1 487:1 585:1 649:1 895:1 1028:1 1055:1 1302:1 1350:1 1889:1 
0.062255535029985799300167315095678 41:2 80:2 84:1 368:2 594:1 662:1 758:2 761:1 872:1 876:1 1173:1 1218:1 1252:1 1457:1 1477:1 1871:1 1976:1 
0.062255535029985799300167315095678 9:1 128:1 545:1 556:1 653:1 881:1 1017:1 1052:1 1568:1 1615:1 1869:1 1949:1 
0.062255535029985799300167315095678 18:1 27:1 174:1 306:1 435:1 570:1 746:1 920:1 1286:1 1289:2 1498:1 1628:1 1769:1 1982:1 
0.062255535029985799300167315095678 2:1 85:1 247:1 381:1 810:1 1235:1 1496:1 1630:2 1682:2 
0.062255535029985799300167315095678 1:1 179:1 222:2 310:1 449:1 512:1 1056:1 1060:1 1148:1 1210:1 1289:1 1307:1 1513:1 1618:1 1915:2 
-0.062255535029985799300167315095678 18:1 408:1 435:1 512:1 571:1 920:1 1286:1 1289:1 1618:1 1839:1 1864:1 
-0.056483842419434014681112188327461 2:1 653:1 1004:1 1112:1 1150:1 1188:1 1286:1 1364:1 1496:2 1615:1 1618:1 1668:1 1871:1 
-0.062255535029985799300167315095678 208:1 377:1 556:1 727:1 761:1 973:1 1112:1 1373:1 1457:2 1471:1 1816:1 1821:1 1989:1 
-0.041645056192679816287061100865685 21:1 171:2 306:1 326:1 512:1 780:1 1027:1 1046:1 1187:1 1188:1 1408:1 1503:1 1607:1 1756:1 
-0.0051396352476029060971085549169857 102:1 103:1 187:1 407:1 434:3 541:1 636:1 813:1 817:1 1027:1 1111:1 1218:1 1492:1 1639:1 1855:1 
0.062255535029985799300167315095678 68:2 167:1 507:1 926:1 1732:1 1959:2 
-0.036275354628171330162444974121172 458:1 705:1 706:1 760:1 831:1 1122:2 1321:3 1326:2 1687:3 1911:1 
-0.062255535029985799300167315095678 584:1 760:1 837:1 969:1 1186:1 1321:2 1366:1 1481:1 1531:1 1687:1 
-0.062255535029985799300167315095678 1115:1 1186:1 1468:1 1738:1 1926:1 
0.062255535029985799300167315095678 449:1 670:1 796:1 971:1 1046:1 1176:1 1577:1 1630:1 
0.062255535029985799300167315095678 286:1 295:1 316:1 673:1 913:2 1045:1 1143:1 1702:1 1728:1 
0.062255535029985799300167315095678 53:1 300:1 408:1 431:1 743:1 775:1 891:1 963:3 1026:1 1097:1 1479:1 1742:1 1923:1 
-0.062255535029985799300167315095678 116:1 157:1 302:1 524:2 531:1 564:1 847:1 1045:1 1195:1 1329:1 1362:1 1479:1 1552:1 1700:1 1915:1 1938:1 
-0.062255535029985799300167315095678 80:1 295:1 662:1 673:1 1001:1 1419:1 1630:1 1720:1 1767:1 1864:1 1938:1 
-0.022958279447688172830721597961201 27:1 341:1 440:2 495:1 498:1 673:1 775:1 984:1 1256:1 1596:1 1630:1 1767:1 1843:1 1981:1 
-0.062255535029985799300167315095678 218:1 706:1 716:1 1213:1 1483:1 1493:1 
0.062255535029985799300167315095678 175:1 376:1 524:1 803:1 838:1 1078:1 1284:1 1631:1 1687:1 1700:1 
-0.062255535029985799300167315095678 68:2 162:1 401:1 515:1 571:1 845:1 853:1 904:1 1422:1 1585:1 1592:1 1954:1 
-0.062255535029985799300167315095678 75:3 284:1 452:1 776:1 1010:1 1114:2 1139:1 1261:1 
-0.062255535029985799300167315095678 376:1 378:1 524:1 567:1 647:1 778:1 833:1 845:1 981:1 1078:1 1261:1 1329:1 1671:1 1684:2 
-0.062255535029985799300167315095678 26:1 175:1 344:1 982:1 1026:1 1356:1 1421:1 1723:1 
-0.062255535029985799300167315095678 39:1 435:1 524:1 626:1 647:1 796:1 845:1 1195:1 1329:1 1452:1 1602:1 1700:2 
0.062255535029985799300167315095678 116:1 518:2 524:1 548:1 564:1 752:1 1464:1 1552:1 1878:1 
0.062255535029985799300167315095678 21:1 502:1 735:1 824:1 907:1 1289:1 1513:1 
-0.062255535029985799300167315095678 239:1 407:1 834:1 931:1 1153:1 1289:1 1304:1 1384:1 1401:1 1658:1 1753:1 1941:1 1974:1 
-0.062255535029985799300167315095678 694:1 838:2 919:1 1124:1 1414:1 1879:1 1912:1 
-0.012226349795322562219457296350811 56:1 93:1 130:1 153:1 250:1 572:2 579:1 607:1 680:1 884:1 932:1 1042:1 1244:1 1969:1 
-0.046604528878794487800618639994354 39:2 273:1 548:1 614:1 1060:1 1068:1 1289:1 1355:1 1413:1 1812:1 
0.062255535029985799300167315095678 71:1 222:1 344:1 449:2 524:1 973:1 1195:1 1271:1 1306:1 1498:1 1631:1 1989:1 
0.062255535029985799300167315095678 2:1 137:1 175:1 833:1 881:1 1284:1 1329:1 1452:1 1469:1 1899:1 1915:1 
-0.010330431445344904345384762223148 492:2 518:1 524:1 911:2 971:1 975:1 1060:1 1284:1 1286:1 1301:2 1329:2 1362:1 1684:1 1915:2 
-0.062255535029985799300167315095678 2:1 134:1 310:1 357:2 426:1 449:2 634:1 1228:2 1385:1 1839:1 1864:1 
-0.062255535029985799300167315095678 54:1 79:1 233:1 248:1 341:1 368:2 589:1 1271:1 1284:1 1430:1 1448:1 1471:1 1657:1 1706:1 
0.062255535029985799300167315095678 548:1 605:1 633:1 756:1 1545:1 1647:1 1941:1 
0.062255535029985799300167315095678 48:1 54:1 265:1 303:1 327:1 347:1 669:1 815:1 1045:1 1104:1 1289:1 1430:1 1511:1 
0.062255535029985799300167315095678 386:1 548:2 1273:2 1362:1 1413:1 1614:2 1615:1 1630:2 
-0.062255535029985799300167315095678 322:1 495:1 548:2 973:1 1313:1 1646:1 1684:1 1775:1 
-0.062255535029985799300167315095678 79:1 326:1 382:2 548:1 650:1 668:1 732:1 756:2 906:1 1037:1 1150:1 1232:1 1281:1 1311:1 1342:1 1389:1 1664:1 
-0.062255535029985799300167315095678 64:1 137:1 545:1 548:1 936:1 1235:1 1306:1 1466:1 1530:1 1618:1 1630:2 1719:1 1878:1 
0.062255535029985799300167315095678 111:1 116:2 524:1 531:1 739:1 844:2 908:1 975:1 1230:1 1273:2 1284:1 1301:1 1330:1 1618:1 1684:1 1814:1 1871:1 
-0.062255535029985799300167315095678 85:1 309:1 521:1 844:1 987:1 1218:1 1273:1 1362:1 1619:1 1802:1 1814:1 1949:1 
-0.062255535029985799300167315095678 116:1 563:1 798:2 907:1 1104:1 1223:1 1273:1 1494:1 1700:1 1778:1 1811:1 1854:1 1963:1 
-0.062255535029985799300167315095678 404:1 564:1 614:1 648:2 752:2 833:2 1045:2 1452:2 1631:1 1809:2 
-0.011118798135044821728811825778394 406:1 952:1 1177:1 1370:1 1376:1 1397:1 1796:1 1805:1 
-0.062255535029985799300167315095678 124:1 179:1 180:1 435:1 727:1 1143:2 1498:1 1812:1 1981:1 
-0.062255535029985799300167315095678 1942:1 
0.062255535029985799300167315095678 218:2 457:1 831:1 919:2 1200:1 1381:1 1700:1 1734:1 1911:1 
-0.02533747097267271750076211844771 211:2 231:1 306:1 398:1 605:1 687:1 888:1 915:1 1179:2 1285:1 1503:1 1904:1 
-0.052579747104699744997269306168164 18:1 27:1 137:1 310:1 337:1 344:1 591:1 739:1 775:1 1014:1 1027:1 1077:1 1103:1 1112:1 1312:1 1333:1 1477:1 1961:1 
-0.028853456306550874510552517904216 46:1 666:1 802:1 841:1 1230:1 1524:1 1545:1 1589:1 1605:1 1675:2 1892:2 
-0.01993251357442382687423787501757 324:1 355:1 508:1 1247:1 1387:1 1407:1 1571:1 1699:1 1988:1 
0.062255535029985799300167315095678 407:1 524:2 647:1 812:1 833:1 896:1 1185:1 1271:1 1498:1 1549:1 1577:1 1719:1 1735:1 1882:1 
-0.0073483083754411421609220589346023 1:1 360:1 434:1 499:1 896:2 1127:1 1328:1 1377:1 1405:1 1499:1 1774:1 1785:1 1882:3 1962:1 1994:1 
-0.0044186156015501628496755515129735 133:1 253:1 1170:1 1198:1 1469:1 1532:1 1882:2 1973:1 
-0.004442788564600522183134501119639 253:1 729:1 813:1 815:1 863:1 1052:1 1358:1 1882:1 
-0.033869604451731608052433841749007 58:1 126:1 128:1 276:1 363:1 474:1 499:1 557:1 1170:1 1544:1 1882:1 1962:1 1966:1 1984:1 
0.062255535029985799300167315095678 162:1 454:1 471:1 496:1 699:1 1738:1 1799:1 1876:1 1905:1 1911:1 
0.055925621668096427152594429799137 387:1 752:1 778:2 1045:1 1078:1 1261:2 1475:1 1512:2 1809:2 1837:1 1879:1 1912:1 
-0.0029558773958769028571136328054081 124:1 259:1 510:1 512:1 653:1 739:1 890:1 1077:1 1289:1 1355:1 1630:1 
-0.053162317858741536813482753132121 1187:1 1289:1 1618:2 
-0.03998025503357426763129112146089 4:2 397:1 635:1 794:1 811:1 1043:1 1079:1 1527:1 1583:1 1682:1 
-0.062255535029985799300167315095678 47:1 218:1 270:1 546:1 588:1 1466:1 1485:1 
-0.020704292204272840838275016039915 44:1 153:1 256:1 808:1 891:1 917:1 922:1 1369:1 1446:1 1533:1 1944:1 1951:2 
-0.062255535029985799300167315095678 48:1 739:1 852:1 1284:2 1286:1 
-0.062255535029985799300167315095678 838:1 953:1 1450:1 1498:1 1769:1 1999:1 
-0.030772912138188317915377112399256 41:2 391:1 392:1 603:1 679:1 846:1 953:1 1339:1 1454:1 1506:1 1522:1 
-0.027957931416321954443127140166325 53:1 160:1 186:1 207:1 745:1 894:2 1070:1 1231:1 1237:1 1301:1 1477:1 1485:1 1699:1 1836:1 
-0.0039486737825167603568865537511101 51:1 236:1 348:1 475:1 674:1 707:1 992:1 1135:1 1171:1 1204:1 1294:1 1675:1 1784:1 1817:1 1872:1 
-0.062255535029985799300167315095678 417:1 567:1 796:1 864:1 981:2 1537:1 1556:1 1734:1 1905:1 1922:1 
-0.062255535029985799300167315095678 146:1 175:1 323:1 404:1 523:1 598:1 1026:1 1339:1 1579:1 1906:1 
-0.062255535029985799300167315095678 476:1 594:1 673:1 779:1 872:1 1565:1 1702:1 1899:1 1940:1 1976:1 
-0.062255535029985799300167315095678 41:1 417:1 523:1 699:1 831:1 845:1 1321:2 
-0.062255535029985799300167315095678 407:2 911:1 1056:1 1150:1 1306:1 1440:1 1550:1 1606:1 1647:1 1931:1 
-0.062255535029985799300167315095678 21:1 171:1 311:1 437:1 556:1 906:1 1012:1 1176:1 1230:1 1362:1 1393:1 1558:1 1646:1 1650:1 1858:1 
-0.062255535029985799300167315095678 157:1 386:1 787:1 893:1 1019:1 1289:1 1374:1 1389:1 1417:2 1503:1 1915:1 1961:1 1978:1 
-0.0061914938651462542856807047542134 40:1 72:1 143:1 194:1 219:1 222:1 590:2 824:1 898:1 1134:1 1336:1 1387:1 1777:1 1890:1 
0.062255535029985799300167315095678 80:1 191:3 320:1 723:1 920:2 1344:1 1421:1 1477:2 1565:1 1768:1 1864:4 1976:1 
0.023675935511135871858190427019508 357:2 547:1 578:2 1214:1 1421:1 1556:4 1864:2 
0.062255535029985799300167315095678 263:1 614:1 833:1 975:1 1112:1 1329:1 1364:1 1452:1 1658:1 1940:1 
-0.032046657845722227586637842478012 170:1 395:1 753:1 804:1 824:1 1333:1 1976:1 
0.062255535029985799300167315095678 194:1 320:1 503:1 634:3 723:1 846:1 970:1 1057:1 1061:1 1333:1 1625:1 1748:1 1970:1 1981:1 
-0.035367493536020880307013669607841 89:1 283:1 285:1 295:1 381:1 493:1 608:1 612:1 920:1 939:1 1429:1 1493:1 1757:1 1899:1 1923:1 1976:1 
-0.062255535029985799300167315095678 357:1 957:1 1139:1 1626:1 
-0.062255535029985799300167315095678 222:1 337:1 723:1 913:1 1103:1 1256:2 1268:1 1333:1 1685:1 1764:2 1767:1 
0.062255535029985799300167315095678 64:1 201:1 208:1 568:1 764:1 1046:1 1171:1 1374:1 1471:1 1503:1 1627:1 1650:1 1704:1 1724:1 1877:1 
0.062255535029985799300167315095678 21:1 102:1 155:1 341:1 378:1 409:1 684:1 790:1 881:1 943:1 1232:1 1256:1 1259:1 1286:1 1374:1 1493:1 1536:1 1605:1 
0.062255535029985799300167315095678 194:1 341:1 363:1 593:1 671:1 695:1 876:1 936:1 1012:1 1037:1 1262:1 1307:1 1340:1 1374:1 1606:1 1607:1 1994:1 
0.062255535029985799300167315095678 64:1 114:1 171:1 211:1 246:1 303:1 328:1 502:1 595:1 633:1 1121:1 1150:1 1408:1 1471:1 1547:1 1615:1 1616:1 1647:1 1720:1 1821:1 1904:1 1961:1 1978:1 
0.062255535029985799300167315095678 2:1 208:1 238:1 377:1 739:1 1037:1 1150:2 1373:2 1408:1 1503:1 1675:1 
-0.062255535029985799300167315095678 124:1 201:1 208:1 446:1 517:1 943:1 973:1 977:1 1471:1 1511:1 1590:1 1816:1 
-0.0053889679627227189684379737855124 90:1 332:2 442:1 509:1 692:1 1147:1 1404:1 
-0.030740527831579503303949252313032 176:1 179:1 245:1 340:1 710:1 1108:1 1172:1 1249:1 1269:1 1275:1 1299:1 1562:1 1670:1 1910:1 1972:1 
-0.0012433124421064550672866300118358 132:1 397:1 509:1 521:1 622:2 730:2 811:1 862:1 1473:1 1965:1 1995:1 
0.062255535029985799300167315095678 72:1 423:1 982:1 1198:1 1334:1 1529:1 1700:1 1767:1 
0.062255535029985799300167315095678 15:1 26:2 337:1 344:1 493:1 615:1 771:1 859:2 940:1 1143:1 1253:1 1477:1 1685:1 1758:1 1782:3 1923:1 1932:1 
0.062255535029985799300167315095678 248:1 423:1 491:1 949:1 1223:1 1334:3 1452:1 1531:1 
0.062255535029985799300167315095678 108:2 145:1 338:1 445:1 457:1 566:1 911:1 949:1 1414:2 1520:1 1531:1 1770:1 1945:2 
0.062255535029985799300167315095678 356:1 393:1 612:1 662:1 993:1 1206:1 1389:1 1493:1 1608:1 1822:1 
-0.062255535029985799300167315095678 95:2 170:1 173:1 190:1 310:1 379:1 440:1 591:1 614:1 639:1 775:1 811:1 1084:1 1143:1 1158:1 1334:1 1442:1 1513:1 1596:1 1602:1 1626:1 1769:1 1908:1 1924:1 
-0.048987338851034650799576297686144 177:1 423:1 672:1 710:1 894:1 1094:1 1143:3 1229:1 1864:1 1952:1 
-0.049587602142604950139492814287223 338:2 359:1 775:1 872:1 1402:1 1430:1 1458:1 1609:1 1929:1 1950:1 
-0.062255535029985799300167315095678 224:1 449:1 457:1 591:1 615:1 940:1 1077:1 1469:1 1493:1 
0.062255535029985799300167315095678 137:1 226:1 259:1 381:1 584:1 684:1 739:1 1151:1 1293:1 1362:1 1389:1 1488:1 1507:1 1677:1 1814:1 1878:1 1961:2 
0.062255535029985799300167315095678 103:1 169:1 251:1 256:1 360:1 413:1 815:1 905:1 1066:1 1127:1 1293:1 1368:1 1646:1 1746:1 1893:2 1949:1 1966:1 
0.062255535029985799300167315095678 208:1 400:1 624:1 1141:1 1347:1 1348:1 1572:1 1673:1 1996:1 
0.062255535029985799300167315095678 253:1 541:1 637:1 703:1 794:1 844:1 1082:1 1127:1 1216:1 1298:1 1384:1 1544:1 1774:1 1785:1 
0.062255535029985799300167315095678 492:1 740:1 827:1 863:1 1118:1 1172:1 1377:1 1583:1 1596:2 
-0.02416681925149991722046038944427 13:1 20:1 42:2 341:1 400:1 813:1 844:1 1052:1 1066:1 1150:1 1182:1 1191:1 1232:1 1293:1 1403:1 1447:1 
-0.015223670952078320606215555699237 101:2 115:1 438:1 558:1 622:1 651:1 685:1 712:1 952:1 965:1 1231:1 1824:1 1826:1 
-0.062255535029985799300167315095678 571:1 705:1 837:1 920:1 1045:1 1531:1 1613:1 1910:1 
-0.062255535029985799300167315095678 548:1 1037:1 1532:1 1708:1 1830:1 1902:2 
0.037433610297806403643949835213789 27:1 84:1 95:1 382:1 408:1 598:1 626:1 981:1 1014:1 1158:1 1252:1 1388:1 1406:1 1458:1 1622:1 1626:1 1768:1 1777:1 1899:1 
0.062255535029985799300167315095678 323:1 760:1 845:1 1174:1 1321:1 1339:1 1879:1 1918:1 
0.062255535029985799300167315095678 458:1 626:1 778:1 789:1 1287:1 1321:1 1911:1 
0.062255535029985799300167315095678 68:2 507:1 864:1 981:1 1287:1 1356:1 1386:1 1388:1 1442:1 
0.062255535029985799300167315095678 202:1 322:1 540:1 571:2 659:1 836:2 1197:1 1629:3 
-0.019380183887763784839064484799565 184:1 444:1 451:1 617:1 998:1 1197:2 1253:3 1629:3 1782:1 
-0.062255535029985799300167315095678 515:1 603:1 772:1 845:1 859:1 920:3 993:1 1029:1 1339:2 1671:1 1708:1 1955:1 
-0.062255535029985799300167315095678 84:1 202:1 1458:1 1512:1 1629:1 
0.062255535029985799300167315095678 42:1 285:1 604:1 779:1 781:1 798:1 882:1 997:1 1138:1 1300:1 1405:1 1460:1 1576:1 1693:1 1699:1 1736:1 1902:1 
0.062255535029985799300167315095678 2:2 39:1 208:1 259:1 273:1 387:1 492:1 545:1 648:1 1284:1 1306:1 1329:1 1529:1 1537:1 1552:2 1720:1 1869:1 1914:1 
0.062255535029985799300167315095678 64:1 243:1 545:1 551:1 652:1 788:1 906:1 1056:1 1273:1 1466:1 1547:1 1614:1 1636:1 1821:1 
0.062255535029985799300167315095678 1:1 103:1 236:1 434:1 501:1 654:1 753:1 1154:1 1338:1 1401:1 1639:2 1785:1 1949:1 1984:1 
-0.050286508545655403401575256339129 658:1 684:1 1012:1 1273:1 1435:1 1453:1 1600:1 1753:1 1851:1 
-0.045311746714035108785090244509774 198:1 265:1 313:1 638:1 740:1 782:1 910:1 1057:1 1133:1 1138:1 1311:1 1645:1 1778:2 1792:1 1841:1 1902:1 
-0.062255535029985799300167315095678 6:1 35:1 758:1 779:1 1477:1 1579:1 1794:1 
-0.041850652015762317137426151703039 9:1 80:1 243:1 292:1 352:1 369:1 502:1 801:1 1223:1 1564:1 1709:1 
0.062255535029985799300167315095678 385:1 402:1 431:1 432:1 646:1 696:1 709:1 822:1 951:1 1029:1 1143:1 1253:2 1429:1 1787:1 
0.062255535029985799300167315095678 315:1 404:1 515:1 759:1 899:1 1115:1 1339:1 1371:1 1379:1 1498:1 1529:1 
0.062255535029985799300167315095678 323:1 391:2 468:1 1339:1 1592:2 1723:1 1924:1 1926:1 
0.062255535029985799300167315095678 37:1 69:1 264:1 327:1 570:2 640:1 1121:1 1153:1 1191:1 1702:1 1849:1 1887:1 1929:1 
-0.037043535559547105528999111356825 69:2 157:1 525:1 753:1 1019:1 1037:1 1125:1 1171:1 1271:1 1316:1 1401:1 1496:1 1548:1 1550:1 1616:1 1650:1 1682:1 1996:2 
-0.062255535029985799300167315095678 2:1 238:1 468:1 471:1 515:1 522:1 544:1 1132:1 1221:1 1386:4 1603:1 1614:1 
-0.062255535029985799300167315095678 1379:2 1463:1 1531:1 1912:1 1926:1 
0.04429002327856075560408299907067 515:1 598:1 845:2 982:1 1081:1 1345:1 1436:1 1470:1 1494:1 1579:1 1671:1 
0.062255535029985799300167315095678 240:1 332:1 620:1 692:1 968:1 1003:1 1104:2 1156:2 1162:1 1451:1 1825:1 1836:1 
0.046932279981026836512825184399844 118:1 368:1 563:1 682:1 716:1 864:1 950:1 972:1 1106:1 1201:1 1334:1 1402:2 1403:1 1764:1 1802:1 
0.062255535029985799300167315095678 157:1 833:2 878:1 931:1 936:1 1001:1 1417:1 
0.062255535029985799300167315095678 215:1 270:1 272:1 324:1 352:1 369:1 461:1 514:1 688:1 690:1 850:1 1021:1 1159:1 1654:1 1670:1 1749:1 1856:2 
0.062255535029985799300167315095678 3:2 86:1 87:1 101:1 266:1 268:1 372:1 416:1 866:1 909:1 1142:1 1209:2 1431:1 1445:2 1484:1 1583:1 
-0.062255535029985799300167315095678 191:2 302:1 376:1 591:1 662:1 752:1 971:1 1001:1 1371:1 1417:1 1728:1 
-0.033071623738846561701976156655292 30:1 158:1 228:1 400:1 575:1 584:1 602:1 886:1 1063:1 1319:1 1353:1 1526:1 1562:1 1586:1 1825:1 
-0.018114158703030829727920192340207 18:1 322:1 498:1 526:1 541:1 678:1 745:1 806:1 1095:1 1244:1 1297:1 1309:1 1551:1 1634:1 1775:1 1843:1 1893:1 
0.062255535029985799300167315095678 47:2 154:1 363:1 501:1 502:2 525:1 589:1 905:1 977:1 987:1 1125:1 1401:1 1624:1 
0.062255535029985799300167315095678 69:1 365:1 510:1 1038:3 1103:1 1179:1 1374:1 1398:1 1467:1 1536:1 1559:1 
0.052108931413512832309109512607392 68:3 167:3 1386:4 1480:1 1732:1 1768:3 1954:1 
0.062255535029985799300167315095678 17:1 139:1 250:1 538:1 572:1 698:1 1022:1 1249:1 1526:1 1621:1 1729:1 
0.062255535029985799300167315095678 520:1 553:1 560:1 659:1 756:1 823:1 871:1 925:1 1052:1 1191:1 1338:1 1500:1 1574:1 1596:1 1657:1 1710:1 1751:2 1792:2 1882:1 1884:1 1887:1 
-0.062255535029985799300167315095678 34:1 113:1 145:1 224:1 382:1 526:1 601:1 1067:1 1523:1 
-0.062255535029985799300167315095678 479:1 593:1 680:1 765:1 774:1 792:1 961:1 991:1 1111:1 1160:1 1173:1 1500:1 1596:2 1981:1 
-0.050304300487641243067038487879472 64:1 107:1 502:1 927:1 1185:1 1719:1 1767:1 1812:1 1887:1 1934:1 
0.062255535029985799300167315095678 191:1 591:1 711:1 761:1 920:1 935:1 1001:2 1013:1 1019:1 1045:1 1060:1 1271:1 1289:1 1552:1 1565:2 1694:1 1864:1 
0.062255535029985799300167315095678 591:1 872:1 1040:1 
0.062255535029985799300167315095678 416:1 592:1 1178:2 1313:2 1384:1 1412:1 1781:1 1840:1 
0.062255535029985799300167315095678 79:1 320:2 395:1 440:1 449:1 476:1 487:1 723:1 1110:2 1444:1 1950:1 
0.062255535029985799300167315095678 49:1 432:1 877:1 1080:2 1119:2 1120:1 1350:2 1458:1 1692:1 1942:1 
-0.028646883641567602585276119953051 136:1 402:1 422:2 508:1 743:2 877:1 1044:1 1080:2 1253:1 1303:2 1860:1 1945:1 
-0.039405623978572570931255825144035 197:1 333:1 432:2 534:1 767:1 836:1 1136:1 1250:2 1288:1 1303:1 1674:1 
-0.062255535029985799300167315095678 323:1 381:1 1188:1 1444:1 1700:1 
-0.058217350151518389156368726844448 395:1 838:1 1115:1 1428:1 1976:1 
0.062255535029985799300167315095678 386:1 392:1 462:1 515:1 981:1 
0.062255535029985799300167315095678 149:1 372:1 527:1 638:1 691:1 765:1 1015:2 1190:1 1311:1 1376:1 1665:1 1793:1 1796:1 1991:1 
0.062255535029985799300167315095678 291:1 392:1 706:1 895:1 1436:1 1454:1 1705:1 1905:1 1926:1 
0.062255535029985799300167315095678 295:1 548:1 672:1 779:1 787:1 918:1 973:1 1233:2 1269:1 1333:1 1596:1 
0.062255535029985799300167315095678 298:1 405:2 762:1 1159:1 1669:1 1775:1 
-0.027069195981203744011400758040509 53:1 286:1 527:1 996:1 1015:1 1022:1 1191:1 1223:1 1233:1 1269:1 1634:1 1722:1 1764:1 1767:1 1770:1 1887:1 1973:1 1981:1 
-0.02313465964965793347785094624669 102:1 187:1 341:1 363:1 934:1 1066:1 1377:1 1736:1 1984:1 
-0.0031078316151646589310386659121832 1:1 434:1 657:1 659:1 677:1 1125:2 1377:1 1403:1 1492:1 1550:1 1574:1 1928:1 
-0.0080720706746182646629250712067005 11:1 87:1 373:1 638:1 690:1 712:1 800:1 1015:1 1181:1 1736:1 1937:1 1991:1 
0.043793774708413564511477744645163 159:1 293:1 300:1 422:1 978:1 1346:1 1674:3 1745:1 
0.062255535029985799300167315095678 88:1 95:1 134:1 396:1 422:1 621:1 686:1 818:1 1115:1 1302:1 1444:1 1953:1 
0.062255535029985799300167315095678 278:4 384:1 1044:1 1085:1 1217:1 1308:1 1410:1 1637:1 1652:1 1674:3 1744:1 1897:1 
0.062255535029985799300167315095678 704:1 836:1 988:1 1197:1 1250:2 1612:1 1985:1 
0.019533532740298367030851167669425 29:1 94:1 99:1 142:1 308:1 945:1 1325:1 1372:1 1535:1 1571:1 1674:3 1727:1 
-0.062255535029985799300167315095678 300:2 1025:2 1521:1 1638:1 1935:1 1942:2 1985:1 
-0.043296036659995922046828553675368 12:2 293:2 505:1 743:1 1521:5 1638:1 1927:6 1935:1 1942:2 1985:3 
-0.05479357927441205755592079640337 45:1 248:1 261:1 566:1 622:1 731:1 735:1 807:1 850:1 900:1 1096:1 1208:1 1214:1 1325:1 1637:2 1881:1 1980:1 
-0.02106315176239565920002227983332 99:1 419:1 450:1 455:1 534:1 679:2 743:1 854:1 1136:1 1149:1 1217:1 1571:1 1674:2 1744:1 1766:1 1860:1 1885:1 1960:1 
0.062255535029985799300167315095678 72:1 248:2 261:1 358:1 456:1 566:1 644:1 872:1 892:1 894:1 991:1 1094:1 1310:1 1409:1 1469:1 1718:1 1764:1 
0.062255535029985799300167315095678 42:1 55:1 213:1 245:1 343:1 1322:1 1455:1 1965:1 
0.062255535029985799300167315095678 101:1 132:1 309:1 514:1 553:1 1066:1 1246:1 1279:1 1319:1 1424:2 1642:1 1833:1 
0.062255535029985799300167315095678 26:1 411:1 432:1 444:1 616:1 1278:1 1429:2 1468:1 1516:1 1871:1 1952:1 
0.062255535029985799300167315095678 148:1 614:1 803:1 1389:1 1736:1 
-0.062255535029985799300167315095678 154:1 423:1 918:1 1032:1 1144:1 1378:1 1777:1 1929:1 
-0.041370828808243616248052632045074 131:1 139:1 149:1 415:1 604:1 619:1 997:1 1133:1 1207:1 1246:1 1248:1 1282:1 1443:1 1445:1 
-0.062255535029985799300167315095678 152:1 343:1 697:1 
-0.0041695414804648030585032536521339 456:1 554:1 855:1 1079:1 1140:1 1142:1 1209:1 1290:1 1424:1 1986:1 
-0.003937036193257303917647504931665 178:1 405:1 601:1 1257:1 1300:1 1834:1 
0.049682957439484115580441425663594 196:2 293:1 712:1 897:2 1025:3 1067:1 1314:1 1357:1 1400:1 1521:3 1535:1 1597:1 1927:1 1935:2 
0.062255535029985799300167315095678 25:1 293:2 300:1 403:2 505:1 897:1 1357:1 1521:3 1523:1 1766:1 1780:2 1927:1 
0.062255535029985799300167315095678 300:1 767:1 897:1 1005:1 1241:1 1410:1 1521:3 1571:1 1638:2 1823:2 
0.035058848757546771934823226501976 45:1 99:1 293:1 743:1 767:1 805:1 816:1 897:1 1124:1 1350:1 1400:1 1535:1 1638:1 1823:2 1935:1 1942:1 1985:1 
0.062255535029985799300167315095678 36:1 45:1 300:1 477:1 655:1 731:1 743:1 767:1 816:1 976:1 988:2 1025:1 1124:1 1350:1 1521:1 1661:1 1942:1 1965:1 1977:1 
-0.050400387246823392939365504616944 12:4 196:1 505:1 1025:4 1521:3 1823:4 1935:1 
-0.034575511435682597383145520097969 111:1 146:1 492:1 531:1 564:2 878:1 975:1 1019:1 1330:1 1479:1 1552:2 1684:1 1809:1 1878:1 1938:1 1975:1 
-0.062255535029985799300167315095678 196:1 505:2 743:1 1025:1 1521:3 1638:2 1927:1 1942:1 1985:3 
-0.017591011703770330354412720907931 12:2 32:1 300:2 655:1 897:1 1357:1 1400:1 1450:1 1456:1 1597:2 1638:1 1642:1 1823:1 
0.062255535029985799300167315095678 70:1 291:2 454:1 1186:1 1321:2 1454:1 1475:1 1671:2 1911:1 
0.062255535029985799300167315095678 336:1 629:1 708:1 762:1 824:1 974:1 1021:1 1028:1 1136:1 1504:1 1653:3 1885:1 1889:2 
0.062255535029985799300167315095678 98:1 119:1 329:1 427:1 622:1 808:1 887:1 1693:1 1794:1 
0.062255535029985799300167315095678 41:1 80:1 170:1 465:2 770:1 920:1 1081:1 1602:1 1777:1 1822:1 
0.062255535029985799300167315095678 725:1 807:1 855:2 987:1 996:1 1116:1 1118:1 1335:1 1542:1 
-0.024727674676194036362808503781707 45:1 86:1 100:1 237:1 280:1 298:1 333:1 558:1 816:2 1169:1 1207:1 1535:1 1642:2 1780:1 1803:1 1806:1 1823:1 1842:2 1953:1 
-0.025734643163169711871374190081951 142:1 197:1 336:1 403:1 663:1 785:1 816:1 1009:1 1314:1 1410:2 1727:2 1935:1 
-0.038102820937716844196252452547924 72:1 298:1 324:1 467:1 632:1 665:1 823:1 1322:1 1363:1 1396:1 1463:1 1575:1 1662:1 1823:2 1935:1 
-0.02970934001287759557152767797561 100:1 272:1 356:1 464:1 684:1 691:1 725:1 892:1 922:1 948:1 1009:1 1390:1 1920:1 1972:1 
-0.062255535029985799300167315095678 321:1 523:1 629:1 770:1 1061:1 1069:1 1741:1 1918:1 
0.062255535029985799300167315095678 505:1 805:1 988:1 1361:1 1638:1 1823:1 1942:1 1985:2 
0.062255535029985799300167315095678 258:1 289:1 336:1 438:1 558:1 631:1 655:1 740:1 934:1 959:1 1015:1 1431:1 1597:1 1803:1 1854:1 1886:1 1907:1 1909:1 1928:1 
0.062255535029985799300167315095678 300:1 655:1 1025:2 1487:1 1535:1 1803:2 1935:1 
0.062255535029985799300167315095678 57:1 118:1 154:1 352:1 971:1 1106:1 1144:1 1194:1 1223:2 1344:1 1674:1 1728:1 1935:1 1985:1 
-0.043999838856719285240526318148113 8:1 62:2 403:1 897:2 1025:1 1224:1 1270:1 1597:1 1840:1 
-0.062255535029985799300167315095678 300:1 497:1 939:1 988:1 1048:2 1227:1 1414:1 1945:1 
-0.062255535029985799300167315095678 24:1 409:1 616:1 1067:1 1608:2 1790:1 1952:1 1985:1 
-0.062255535029985799300167315095678 293:1 419:1 988:1 1025:1 1080:1 1136:1 1288:1 1361:1 1400:1 1441:1 1860:1 1942:1 
-0.010745422305806086316071201736122 64:1 137:1 163:1 273:1 492:1 911:1 1001:1 1284:1 1286:1 1355:1 1530:1 1615:2 1878:1 
0.062255535029985799300167315095678 953:1 1454:1 1732:1 1738:1 1740:1 1846:1 
0.062255535029985799300167315095678 427:1 825:1 1274:1 1418:1 1823:2 1983:1 2000:1 
0.062255535029985799300167315095678 458:1 1506:1 1918:1 
0.062255535029985799300167315095678 45:1 82:1 227:2 622:1 841:1 1150:1 1231:2 1637:1 1806:1 
0.062255535029985799300167315095678 24:1 66:1 265:1 585:1 701:1 907:1 970:1 984:1 1032:1 1444:1 1725:1 1757:1 1830:1 
-0.053829352328168003638531047272409 45:1 112:1 185:1 220:1 296:1 383:1 411:1 420:1 631:1 1193:1 1231:2 1357:1 1595:1 
-0.012991827945470810212746926026739 36:1 141:1 270:1 816:1 932:1 1167:2 1245:1 1693:1 1806:1 1841:2 1960:1 1983:1 
-0.012831404579131906740219193352459 45:1 76:1 88:1 101:1 141:1 265:1 438:1 526:1 573:1 1224:1 1231:1 1257:1 1540:1 1853:1 1980:1 1983:1 
0.062255535029985799300167315095678 62:1 293:1 505:1 651:1 743:1 751:1 1005:1 1048:1 1169:1 1213:1 1231:1 1689:1 1886:1 1942:1 
0.062255535029985799300167315095678 145:1 310:1 338:2 444:3 704:1 1096:3 1278:1 1402:1 1468:1 1945:2 1946:1 
0.062255535029985799300167315095678 539:1 686:1 1331:1 1450:1 1456:1 1513:1 1572:1 1586:1 1717:1 
0.062255535029985799300167315095678 36:1 224:1 704:1 894:1 1080:1 1120:1 1136:1 1361:1 1400:1 1692:1 1707:1 1945:1 
0.062255535029985799300167315095678 13:1 23:1 127:1 322:1 370:1 434:1 572:1 593:1 619:1 1017:1 1427:1 1696:1 1699:1 1914:1 1934:1 1994:1 
-0.031975425278070089551984978015753 99:1 293:1 431:1 511:2 743:1 854:1 1120:2 1136:1 1361:1 1441:1 1649:1 
-0.0090857888696475319623147015590803 330:2 646:1 805:1 1005:1 1243:1 1441:1 1649:1 1692:1 1844:1 
-0.046444625407170446462767898765378 125:1 185:1 293:1 866:1 929:1 1005:2 1031:1 1825:1 1880:1 1927:1 1936:1 
-0.062255535029985799300167315095678 216:2 654:1 905:1 1212:1 1358:1 1639:1 1729:1 1928:1 1984:1 1994:1 
-0.0072277405426238944610717318539628 35:1 100:1 130:1 194:1 296:1 366:1 416:1 609:1 768:1 821:1 874:1 1098:1 1518:1 1672:1 1710:1 1792:1 1861:1 
0.062255535029985799300167315095678 404:2 629:1 919:1 1538:1 1560:1 1802:1 
0.062255535029985799300167315095678 152:1 166:1 185:1 207:1 415:1 500:1 885:1 1956:1 
0.062255535029985799300167315095678 28:1 221:1 389:1 455:2 536:2 735:1 762:1 1566:2 1588:1 1836:1 
0.062255535029985799300167315095678 131:1 324:1 330:1 394:1 476:1 622:1 757:2 933:1 1093:1 1193:1 1280:1 1967:1 
0.062255535029985799300167315095678 49:1 108:1 183:1 409:1 469:1 735:1 749:1 1414:1 1493:1 1952:1 
-0.0036881840034207759825013450694087 7:2 14:1 346:1 372:1 1234:1 1247:1 1259:1 1533:2 1566:2 1947:1 
-0.042831008109353502222305110080924 258:1 514:1 604:1 735:1 1224:1 1444:1 1717:1 1909:1 
-0.021511454701511799336710595298428 124:1 841:1 956:1 1150:1 1203:1 1280:1 1298:1 1338:1 1384:1 1471:1 1655:1 1659:1 1904:1 1929:1 
-0.0082957067582888205370394985038729 128:1 276:1 277:1 474:1 592:1 729:1 1151:1 1293:1 1405:1 1683:1 1785:1 
0.062255535029985799300167315095678 41:1 534:1 616:1 854:1 1158:1 1345:1 1356:1 1388:1 1470:2 1782:1 
0.062255535029985799300167315095678 155:1 169:1 424:1 446:1 544:1 654:1 906:1 987:1 1170:1 1293:1 1377:1 
0.062255535029985799300167315095678 83:1 216:1 264:1 499:1 592:1 715:1 774:1 794:1 983:1 1279:1 1508:1 1729:1 1797:1 
0.062255535029985799300167315095678 236:1 256:1 260:1 276:1 363:2 557:1 815:1 1012:1 1035:1 1075:1 1206:1 1212:2 1411:1 1801:1 1810:1 1882:1 1928:1 
0.062255535029985799300167315095678 406:1 447:1 620:1 680:1 947:1 1196:1 1248:1 1300:1 1415:1 1445:1 1509:1 1739:1 1771:1 1793:1 1805:1 
-0.062255535029985799300167315095678 169:1 240:1 243:1 906:1 987:1 1089:1 1293:1 1583:2 1858:1 
-0.05259963994756554350740174186285 13:1 54:1 352:1 363:1 520:1 593:1 735:1 744:1 1104:1 1223:2 1810:1 1834:1 1882:1 1934:1 1941:1 
-0.062255535029985799300167315095678 154:1 282:1 318:1 349:1 372:1 530:2 583:1 596:1 794:1 815:1 828:1 1035:1 1341:1 1793:1 1797:1 
0.062255535029985799300167315095678 14:1 128:1 130:1 555:1 932:1 1052:1 1234:2 1463:1 1534:1 1947:1 
0.062255535029985799300167315095678 7:1 164:1 215:1 388:1 735:1 807:1 866:1 960:1 1167:1 1382:1 1648:1 1764:1 1848:1 1944:1 
0.062255535029985799300167315095678 110:1 148:1 400:1 580:1 756:1 1041:1 1203:1 1453:1 1518:1 1741:1 
0.062255535029985799300167315095678 17:1 642:1 1393:1 1403:1 1471:2 1544:1 1753:1 1834:2 
-0.0027057213312299383499437421818357 86:1 115:1 427:1 622:1 655:2 995:1 1009:1 1456:1 1569:1 1570:1 1595:1 1803:1 1806:2 
0.062255535029985799300167315095678 13:1 154:1 474:1 557:1 677:1 753:1 811:1 896:1 1000:1 1170:1 1172:1 1544:1 1639:1 1863:1 
0.062255535029985799300167315095678 677:1 788:1 801:1 905:1 972:1 1218:1 1531:1 1536:1 1619:1 1962:1 
0.062255535029985799300167315095678 123:1 503:1 579:1 710:1 1103:1 1107:1 1228:1 1311:1 1351:1 1426:1 1659:1 1902:1 1920:1 1930:1 
0.062255535029985799300167315095678 191:1 598:1 1838:1 
-0.012209212761436175065377085502405 143:1 324:1 366:1 646:1 999:1 1020:1 1151:1 1178:1 1233:2 1302:1 1528:1 1841:1 1955:1 
-0.0034535958477526270543611630614578 227:1 266:1 276:1 317:2 319:2 729:2 769:1 1178:1 1189:1 1746:1 1833:1 1884:1 
-0.0094751722619391132163002566812793 185:1 299:1 324:1 374:1 519:1 698:1 967:1 968:1 1002:1 1003:1 1100:1 1580:1 1656:1 1699:1 
-0.057447994780866873387736859513097 363:1 365:1 418:1 763:1 977:1 1151:1 1194:1 1525:1 1932:1 
0.062255535029985799300167315095678 115:2 438:1 655:1 809:1 1067:1 1423:1 1580:1 1661:1 1806:1 1889:1 
0.062255535029985799300167315095678 995:1 1020:1 1357:2 1885:1 
0.062255535029985799300167315095678 29:1 45:1 94:1 135:1 349:1 559:1 716:1 903:1 1025:1 1097:1 1231:1 1240:1 1256:1 1585:1 1770:1 1803:1 
0.062255535029985799300167315095678 107:1 593:1 727:1 1301:1 1312:1 1348:1 1364:1 1401:1 1510:1 1577:1 1812:1 1989:1 
0.039324855204704106670376972942904 382:2 633:2 843:1 1191:1 1256:1 1266:1 1385:1 1510:1 1767:1 1929:1 1934:1 
-0.028455583143359011732975716313376 54:1 155:1 174:1 347:1 520:1 1046:1 1164:1 1374:1 1393:1 1401:1 1457:1 1530:1 1650:1 1720:1 1816:2 1914:1 1934:1 1989:2 
-0.019810910282000430970850146650264 325:1 380:1 389:1 480:1 550:1 572:1 622:1 1091:1 1143:1 1318:1 1357:1 1695:1 1856:1 
-0.0027655352401403624114373247522281 59:1 445:1 840:1 1018:2 1692:1 1883:1 
-0.024310047907411883039152655783255 347:2 520:1 568:1 780:1 936:1 1046:2 1060:1 1188:2 1263:1 1289:1 1348:1 1466:1 1650:1 1658:2 
0.062255535029985799300167315095678 100:1 
0.062255535029985799300167315095678 260:1 584:1 792:1 1182:1 1407:1 1526:1 1683:1 1843:1 1893:1 
0.062255535029985799300167315095678 1:1 252:1 386:1 434:1 529:1 657:1 677:1 863:1 925:1 930:1 1019:1 1338:1 1393:1 1610:1 1619:1 
0.062255535029985799300167315095678 234:1 643:1 877:1 935:1 1221:1 1252:1 1622:1 1629:1 1868:1 1899:1 
-0.0081163401823422971770316536321843 45:1 135:1 166:1 367:2 508:1 559:1 731:1 735:1 1692:1 
-0.062255535029985799300167315095678 643:2 765:1 770:1 1177:1 1462:1 1493:1 1592:1 
-0.062255535029985799300167315095678 391:1 1158:1 1221:1 1345:2 
-0.016658315844274882572273455139111 504:1 539:1 909:1 1003:1 1209:1 1282:1 1450:1 1523:1 1670:2 1693:1 1761:1 
-0.015650098448101123355113983848241 14:1 31:1 256:1 260:1 268:1 645:1 777:1 1126:1 1142:1 1431:1 1489:1 1611:2 
0.062255535029985799300167315095678 54:2 79:1 188:1 192:1 479:1 609:1 739:1 772:1 1013:1 1098:1 1266:1 1428:1 1586:1 1745:1 1931:1 1951:4 1989:1 
0.062255535029985799300167315095678 163:1 399:1 410:1 414:1 684:1 716:1 1312:1 1701:1 1794:1 
0.062255535029985799300167315095678 331:1 374:2 443:1 602:1 722:1 846:1 1143:1 1221:1 1243:2 1556:1 1625:1 1651:1 1827:1 1950:2 1989:1 
0.062255535029985799300167315095678 99:1 286:1 490:1 604:1 897:1 1112:1 1153:1 1315:1 1400:1 1841:1 1857:1 
0.062255535029985799300167315095678 80:1 381:1 435:1 567:1 648:1 1307:1 1321:1 
-0.062255535029985799300167315095678 109:1 418:1 479:1 519:1 646:1 701:1 727:1 756:1 913:1 1098:1 1526:1 1609:1 1745:1 1748:1 1901:1 
-0.0036546965217563094109609611592759 151:1 215:1 415:1 466:2 536:1 1950:1 
-0.0018860603439568490637817665955822 123:1 163:3 188:1 453:1 687:1 1112:2 1150:1 1496:1 1647:1 1694:1 1982:1 
-0.062255535029985799300167315095678 36:1 685:1 1096:1 1243:1 1400:1 1478:1 1521:1 1571:1 1743:1 1755:1 1866:1 1948:1 
-0.013109438045634438235742535994177 331:1 397:1 749:1 978:1 1040:1 1474:1 1836:1 
0.062255535029985799300167315095678 24:1 357:1 485:1 770:2 1506:1 1603:1 1894:1 1990:2 
0.062255535029985799300167315095678 676:1 770:1 1480:1 1603:1 1667:1 1740:3 1958:1 
0.062255535029985799300167315095678 162:1 417:1 471:1 515:1 647:1 831:1 838:2 845:3 1799:1 1818:2 1926:1 
0.062255535029985799300167315095678 507:1 649:2 676:2 
0.062255535029985799300167315095678 335:1 485:1 547:2 853:1 1214:1 1788:1 
-0.062255535029985799300167315095678 68:1 462:1 1199:1 1422:1 1516:1 1990:2 
-0.062255535029985799300167315095678 134:1 513:1 833:1 845:1 1221:1 1254:1 1579:1 1671:1 1838:1 
0.062255535029985799300167315095678 66:1 109:1 194:1 228:1 302:1 645:1 1286:1 1371:1 1384:1 1549:1 1552:1 1748:1 1770:1 1981:1 
0.062255535029985799300167315095678 23:1 347:1 418:1 726:1 1023:1 1125:1 1236:1 1928:1 
0.062255535029985799300167315095678 260:1 265:1 377:1 418:1 509:1 576:1 1504:1 1586:1 1823:1 1826:1 1988:1 
-0.062255535029985799300167315095678 48:1 567:1 614:1 716:1 760:1 838:1 1495:1 1879:1 1941:1 
-0.062255535029985799300167315095678 21:1 234:2 822:1 894:1 1519:1 1538:1 1551:1 1899:1 
-0.0039139178529578469781236016444836 130:1 240:1 532:1 600:1 781:1 794:1 866:1 1031:1 1215:1 1257:1 1509:1 1660:1 1820:1 
0.062255535029985799300167315095678 85:1 113:1 248:1 285:1 556:1 682:1 1500:1 1781:1 
0.062255535029985799300167315095678 60:1 1121:1 1306:1 1455:1 
0.062255535029985799300167315095678 92:1 98:1 433:1 734:1 1000:1 1621:1 1853:1 
0.062255535029985799300167315095678 293:2 403:1 505:1 978:1 1034:1 1048:1 1400:1 1842:1 1942:1 
0.062255535029985799300167315095678 133:1 174:1 475:1 629:1 844:1 1075:1 1184:1 1411:1 1426:1 1559:1 1710:1 1941:1 1998:1 
-0.062255535029985799300167315095678 49:1 367:1 403:1 473:1 500:1 552:1 741:1 747:1 1018:1 1239:1 1580:1 1823:1 
-0.062255535029985799300167315095678 906:1 936:1 1184:1 1187:1 1466:1 1471:1 1630:1 
-0.019584603302106540212434993009083 181:1 192:1 851:1 907:1 1191:1 1447:1 1611:1 
-0.060512051098135288818014032585779 66:1 352:1 433:1 503:1 617:1 1065:1 
0.062255535029985799300167315095678 138:1 169:1 213:1 769:1 823:1 1172:1 1212:1 1310:1 1447:1 1462:2 1531:3 1538:1 1561:1 1564:1 1797:1 
0.062255535029985799300167315095678 175:1 471:1 515:1 524:1 603:1 626:1 1026:1 1081:1 1261:1 1329:1 1339:1 1442:1 1552:1 1579:2 1592:1 1876:1 
0.062255535029985799300167315095678 67:1 337:1 368:1 522:1 643:1 775:1 904:1 1252:1 1264:1 1388:1 1899:1 
0.062255535029985799300167315095678 47:1 171:1 243:1 543:1 567:1 598:1 714:1 1056:1 1254:1 1373:1 1420:1 1503:1 1537:1 1618:1 1879:1 1940:1 1961:1 1978:1 
0.045100239414498040357859309779087 179:2 236:1 479:1 662:1 727:1 824:1 1064:1 1329:1 1378:1 1401:1 1417:1 1457:1 1513:1 1657:1 1887:1 1922:1 1989:1 
-0.062255535029985799300167315095678 162:1 404:1 547:1 880:1 1045:1 1289:1 1420:1 
-0.062255535029985799300167315095678 80:1 191:1 365:1 391:1 556:1 626:1 918:1 1144:1 1373:1 1626:1 
-0.015649753689599615880112537524838 7:3 256:2 562:1 628:2 1142:2 1234:1 1534:1 1798:1 1851:1 
-0.062255535029985799300167315095678 210:1 417:1 454:3 458:1 523:1 1186:1 1321:1 1495:1 1506:1 1579:1 1876:1 1912:1 1918:1 1924:2 
0.062255535029985799300167315095678 52:1 117:1 552:1 571:1 1018:1 1095:1 1233:1 1650:1 1742:1 1765:1 1932:1 1941:1 
0.062255535029985799300167315095678 55:1 680:1 883:1 1280:1 1384:1 1404:1 1542:1 1553:1 1704:1 1750:1 1841:1 1909:1 
0.062255535029985799300167315095678 154:1 173:1 276:1 563:1 666:1 801:1 1135:1 1188:1 1218:1 1262:1 1802:1 
0.062255535029985799300167315095678 21:1 53:1 254:1 695:1 1187:1 1188:1 1206:1 1235:1 1405:1 1422:1 1560:1 1590:1 1630:1 1878:2 
-0.062255535029985799300167315095678 259:1 739:1 1046:1 1056:1 1188:1 1557:1 1618:1 1630:1 1878:1 
-0.029278436478704712719878244797655 173:1 228:2 375:1 503:1 593:1 701:1 865:1 871:2 925:1 1023:1 1032:1 1064:1 1317:1 1403:1 1469:1 1472:1 1750:1 
-0.039639262546746753534954166298121 126:1 243:1 251:1 319:1 501:2 592:1 858:2 983:1 1066:1 1170:1 1218:1 1265:1 1358:1 1433:1 1548:1 1697:1 1949:1 
0.045317109356218000792981825952666 175:1 564:1 598:2 833:1 935:1 1081:1 1261:1 1428:1 1442:1 1452:1 1591:1 1602:1 
-0.062255535029985799300167315095678 977:1 1148:1 1185:1 1646:1 
0.062255535029985799300167315095678 80:1 179:1 454:1 920:1 954:1 1032:1 1356:1 1421:1 1728:1 1918:1 1924:1 
0.062255535029985799300167315095678 210:1 376:1 454:1 458:1 919:1 1406:1 1560:1 1687:1 
0.062255535029985799300167315095678 1186:2 1506:1 
0.062255535029985799300167315095678 291:1 454:2 706:1 1436:1 1475:1 1918:1 
-0.062255535029985799300167315095678 454:1 1115:1 1918:1 
-0.062255535029985799300167315095678 18:1 273:1 337:1 386:1 531:1 662:1 1284:1 
-0.062255535029985799300167315095678 286:1 368:1 502:1 565:1 799:1 981:2 1265:1 1475:1 1600:1 1721:1 1822:1 
-0.018225034464458604588354972975139 28:1 59:1 159:1 397:1 514:1 569:1 808:1 901:1 1034:2 1093:1 1633:1 1661:1 1749:1 
0.062255535029985799300167315095678 165:1 259:2 306:1 500:1 569:1 581:1 1041:1 1530:1 1843:1 
0.062255535029985799300167315095678 48:1 124:1 739:1 778:1 835:1 1195:1 1261:1 1285:1 1306:1 1374:1 1512:1 1630:1 1938:1 
0.062255535029985799300167315095678 139:1 227:1 592:1 1035:1 1244:1 1484:1 1549:1 1646:1 1960:1 
0.062255535029985799300167315095678 672:2 768:1 973:1 1078:1 1187:1 1444:1 1651:1 1908:1 1976:1 
-0.010448233602413743367764986658131 128:1 154:1 285:1 733:1 815:1 898:1 1012:1 1035:1 1099:1 1100:1 1198:1 1541:1 1660:1 1696:1 1736:1 
-0.0058603151964012143576576718828619 339:1 592:1 601:1 604:1 1022:1 1033:1 1041:1 1072:1 1234:1 1463:1 1712:1 1715:1 
-0.023710752278958253935758904162867 178:1 355:1 516:1 809:1 1015:1 1095:1 1196:1 1391:1 1484:1 1656:1 1853:1 1987:1 
-0.062255535029985799300167315095678 138:1 227:1 1052:1 1064:1 1834:1 1884:1 
-0.032309989486823925686209690866235 563:1 813:1 872:1 925:1 937:1 1012:2 1351:1 1659:1 1843:1 1941:1 1970:1 1979:1 
0.062255535029985799300167315095678 66:1 159:1 168:1 356:1 359:1 369:1 543:1 570:1 615:1 772:1 821:1 859:1 872:1 1034:1 1055:1 1105:2 1211:1 1372:1 1458:1 1770:1 1902:1 
0.062255535029985799300167315095678 18:1 48:1 833:1 1176:1 1389:1 1700:1 1812:1 1847:1 1915:1 
0.062255535029985799300167315095678 114:1 154:1 486:1 596:1 682:1 702:1 858:2 927:1 1046:1 1164:1 1179:1 1273:1 1389:1 1619:1 
0.062255535029985799300167315095678 27:1 108:2 310:1 366:1 503:1 531:1 809:1 878:1 902:1 1040:1 1111:1 1303:1 1812:1 
0.062255535029985799300167315095678 18:1 111:1 273:1 435:1 1088:1 1176:1 1286:1 1373:1 1552:1 1628:1 1973:1 1982:1 
-0.062255535029985799300167315095678 1552:1 1628:1 
-0.062255535029985799300167315095678 338:1 640:1 913:1 1055:1 1061:1 1071:1 1513:1 1741:1 1758:1 1764:1 1770:1 
-0.011841596921194364952500954757397 108:1 136:2 168:1 200:1 1167:1 1278:1 1632:1 
-0.00059681148635016125023750044320536 247:1 257:2 589:1 707:1 726:1 737:1 1141:1 1161:1 1180:1 1204:1 1347:1 1398:2 1543:1 1545:1 1643:1 1675:3 1760:1 1831:1 1832:1 
0.062255535029985799300167315095678 128:1 1159:1 1218:1 1669:1 1699:1 1729:1 1890:1 1897:1 
0.062255535029985799300167315095678 143:1 176:1 240:1 334:1 671:1 785:1 967:1 1133:1 1323:1 1350:1 1414:1 1710:1 1745:2 
-0.0062531470444562838387203562717787 4:1 66:1 272:1 294:1 296:1 613:1 762:1 914:1 967:1 1319:1 1416:1 1509:1 1554:1 1703:1 1742:1 
-0.040635022536000299508973654383226 353:1 416:1 424:1 692:1 794:2 858:1 932:1 950:1 1079:1 1089:1 1102:1 1218:1 1836:2 
-0.028925712906216261011138612957438 215:1 324:1 350:1 483:1 615:1 945:1 1159:1 1523:1 1730:1 1765:1 
-0.026968110032141508203284985256687 32:1 221:1 301:1 336:1 359:1 679:1 757:1 891:1 909:1 1681:1 1718:1 1742:1 1765:1 1890:1 
-0.062255535029985799300167315095678 53:1 116:1 376:1 423:1 796:1 878:1 931:1 971:2 1097:1 1371:1 
0.062255535029985799300167315095678 39:1 284:1 598:1 614:1 803:1 893:1 1379:1 1420:3 1809:1 
0.062255535029985799300167315095678 49:1 191:1 479:1 749:1 783:1 811:1 960:1 1472:1 1610:1 
0.062255535029985799300167315095678 29:1 140:1 272:1 285:1 352:1 424:1 1170:1 1571:1 1690:1 1815:1 1993:1 
0.057314484316226398108451434154631 265:1 986:3 1698:7 
0.062255535029985799300167315095678 27:1 140:1 173:1 455:1 913:2 1173:1 1243:1 
-0.062255535029985799300167315095678 567:1 598:1 694:1 1364:1 1905:1 
-0.062255535029985799300167315095678 146:1 191:1 796:1 1013:1 1421:1 1684:1 
0.062255535029985799300167315095678 325:1 560:1 593:1 791:1 1046:1 1236:1 1276:1 1467:1 1508:1 1646:1 1696:1 1765:1 
0.062255535029985799300167315095678 15:1 63:2 184:1 523:1 618:1 1388:1 1990:1 
0.062255535029985799300167315095678 302:1 
0.062255535029985799300167315095678 16:1 182:1 257:1 437:1 446:1 529:1 548:1 766:2 810:1 906:1 1148:1 1179:1 1225:1 1347:1 1503:1 1543:1 1577:1 1644:1 1756:1 1867:1 1934:1 1979:1 
-0.058736193220815531568224088232455 15:1 232:1 300:1 302:1 405:1 438:1 493:1 519:1 700:1 782:1 870:1 995:1 1806:1 1886:1 
-0.010188079129807681155739373934921 916:1 1147:1 1157:1 1322:1 1857:1 
-0.019026634654220393738643934966603 182:1 255:1 687:1 766:1 841:1 876:1 956:1 1107:1 1393:1 1427:2 1657:1 1658:1 1675:1 1756:1 
-0.055387259255775540822686053843427 155:1 255:1 257:1 414:1 666:1 1037:1 1347:2 1524:1 1636:1 
-0.027382477384405062154071330837724 672:1 691:2 1267:1 1297:1 1661:1 1701:2 1888:1 
0.031544074728851650979422061027435 564:1 614:1 647:1 648:1 752:1 1045:1 1261:1 1413:1 1512:1 1631:2 1700:1 1837:1 1906:1 1912:2 1938:1 
0.062255535029985799300167315095678 95:2 129:1 523:1 760:1 838:1 845:1 1339:1 1464:1 1529:1 1799:1 1838:2 
0.062255535029985799300167315095678 284:1 1417:1 1452:1 
0.062255535029985799300167315095678 428:2 676:1 1375:1 1495:1 
0.062255535029985799300167315095678 1809:1 
0.062255535029985799300167315095678 27:1 223:1 264:1 386:1 556:1 779:1 867:1 1230:2 1507:1 1646:1 1736:1 
-0.062255535029985799300167315095678 63:1 338:1 1078:1 1115:1 1613:1 1734:1 
-0.0025802074294141805893554320050498 30:1 256:1 260:1 389:1 399:1 632:1 777:1 1157:1 1237:1 1553:1 1721:1 
-0.062255535029985799300167315095678 157:1 1869:1 1878:1 
-0.04611506692461906503632818044025 4:1 34:1 154:1 535:1 735:1 781:1 811:1 1079:1 1094:2 1172:1 1249:1 1313:1 1418:1 1462:3 1793:1 1794:1 
-0.031604146789160882102809324578629 297:1 520:1 546:1 553:1 756:1 801:1 1340:1 1426:1 1545:1 1887:1 1984:1 1994:1 
-0.040493550161836221190636564415399 314:1 321:1 592:1 597:1 629:1 792:1 823:1 927:1 1299:1 1310:1 1463:1 1489:1 1686:1 1710:1 1739:2 1783:1 
-0.062255535029985799300167315095678 429:1 476:1 624:1 669:1 1090:1 1576:1 1710:1 1843:1 1941:1 1973:1 1979:1 
-0.0061318329699107422536830114268014 144:1 378:1 435:1 524:1 739:1 796:2 878:1 931:1 1915:1 
-0.0062928003054607151850463608866448 1:1 236:1 494:1 703:1 867:1 1154:2 1366:1 1791:2 1998:1 
-0.01142656008877204754092815619515 249:1 360:1 424:1 494:1 814:1 815:1 1179:1 1293:1 1305:1 1374:1 1614:1 1655:1 
-0.01654518507163566312656577395046 46:1 133:1 236:1 281:1 424:1 453:1 529:1 551:1 556:1 595:1 1038:1 1103:1 1285:1 1348:1 1349:1 1467:3 1503:2 1548:1 1614:1 1647:1 1704:1 1733:1 
0.027138041772046747612812112038227 175:1 263:1 284:1 417:1 752:1 833:1 1078:1 1242:1 1287:1 
0.062255535029985799300167315095678 31:1 156:1 285:1 577:1 609:1 682:1 1088:1 1266:1 1619:1 1793:1 1830:1 
0.062255535029985799300167315095678 543:1 1112:1 1284:1 1306:1 1458:1 1630:1 1859:1 1906:2 
-0.062255535029985799300167315095678 72:1 77:1 179:1 285:1 354:1 356:1 548:1 679:1 685:1 771:1 949:1 1372:1 1789:1 1970:1 
-0.0092728804749343980706743906239353 80:1 285:2 517:1 560:1 709:1 1032:1 1036:1 1093:1 1578:1 1593:1 1763:1 1797:1 1932:1 
0.062255535029985799300167315095678 129:2 146:1 435:2 739:1 803:1 935:1 1148:1 1355:1 1428:1 1530:1 1647:1 
0.062255535029985799300167315095678 140:1 503:1 727:1 789:1 833:1 1754:1 1915:1 1946:1 
-0.0037208173801317051543335878704966 395:1 779:1 1252:2 1264:12 1685:1 1951:2 
-0.06064415302627441939353758471043 84:1 134:2 191:1 302:1 378:1 487:1 594:2 761:1 770:1 803:1 1329:1 1344:1 1477:2 1552:1 1592:1 
-0.062255535029985799300167315095678 26:1 108:2 395:1 485:1 704:1 783:1 920:1 1040:1 1050:1 1055:2 1197:1 1516:1 1517:2 
-0.062255535029985799300167315095678 284:1 911:1 1329:1 1356:2 1428:1 1552:1 1560:2 1802:1 
-0.062255535029985799300167315095678 129:1 263:1 803:1 835:1 893:1 982:1 1121:1 1286:1 1289:1 1356:1 1389:1 1552:1 1618:1 
0.021601518844765400101382013531293 19:5 147:1 1375:7 1546:1 
0.062255535029985799300167315095678 439:2 452:1 693:1 1069:1 1114:2 1183:1 1375:1 1958:2 
0.062255535029985799300167315095678 404:1 417:2 567:2 614:1 648:1 1242:1 1381:2 1464:1 1537:1 1631:1 1809:1 1905:1 
0.062255535029985799300167315095678 56:2 322:1 526:1 698:1 762:1 765:1 1310:1 1462:1 1596:1 
-0.029047503829610174519437748585915 128:1 260:1 317:1 400:1 546:1 1180:1 1384:1 1998:1 
-0.049424510082535476340748203938347 78:1 145:1 248:1 388:1 444:1 451:1 617:3 749:1 836:1 1250:1 1278:1 1945:3 
-0.062255535029985799300167315095678 458:1 496:1 676:1 760:2 1321:1 1442:1 1495:1 1768:1 1799:1 1838:1 
0.049271772024761184560759375017369 191:1 594:1 598:1 789:2 1158:3 1345:1 1356:2 1475:1 1565:1 1671:1 
0.062255535029985799300167315095678 146:1 457:1 656:2 716:1 847:1 893:1 1121:1 1658:1 1802:1 1878:1 1915:1 
0.062255535029985799300167315095678 37:1 116:1 524:1 744:1 788:1 876:1 931:1 1129:1 1171:1 1330:1 1362:1 1503:1 1552:1 1684:1 1781:1 1938:1 
0.062255535029985799300167315095678 21:1 45:1 297:1 418:1 599:1 669:1 1256:1 1461:1 1913:1 
0.062255535029985799300167315095678 155:1 248:2 637:1 914:1 927:1 1201:1 1313:1 1489:1 1527:1 1608:1 1699:1 
-0.062255535029985799300167315095678 647:2 778:1 1078:2 1242:2 1261:2 1379:2 1464:1 1734:2 1879:1 
-0.062255535029985799300167315095678 333:1 427:1 986:1 1169:1 1252:1 1274:1 1350:1 1651:1 1698:1 1782:1 
-0.062255535029985799300167315095678 39:1 315:1 435:1 471:1 524:1 614:1 739:1 796:1 833:1 1078:1 1242:1 1286:1 1362:1 1442:1 1602:1 1684:1 1734:1 1915:1 
-0.062255535029985799300167315095678 404:1 614:1 752:1 831:1 838:1 1261:1 1287:1 1464:1 1529:1 1838:2 1879:1 1912:2 
-0.062255535029985799300167315095678 106:1 320:1 476:1 513:1 624:1 640:1 682:1 763:1 859:1 996:1 1111:1 1149:1 1236:1 1307:1 1518:1 1542:1 1622:1 
0.052320694315373388050272041027711 148:1 394:1 628:1 701:1 760:1 925:1 1059:1 1115:1 1186:2 1321:1 1326:1 1537:1 1579:1 1838:1 1901:1 1918:1 
0.062255535029985799300167315095678 331:1 387:1 455:1 973:1 1004:1 1613:1 1871:1 
0.062255535029985799300167315095678 124:1 242:1 568:1 806:2 906:1 913:1 1329:1 1401:1 1511:1 1928:1 
0.062255535029985799300167315095678 261:2 806:1 882:1 1097:1 1215:1 1239:1 1412:1 1538:1 1941:1 
0.062255535029985799300167315095678 428:1 507:1 837:1 926:1 1199:1 1375:1 
-0.029289204305008604417581707934914 65:1 331:1 587:1 634:2 763:1 823:1 1029:1 1103:1 1194:1 1233:1 1276:1 1625:1 1868:1 1893:1 1950:1 1984:1 
-0.0081823666547228904311062080978445 111:1 518:1 531:2 847:1 971:1 975:2 1329:1 1479:1 1552:3 1684:2 
-0.062255535029985799300167315095678 63:1 401:1 571:1 837:2 1402:1 1406:1 1516:1 1876:1 
-0.062255535029985799300167315095678 273:1 387:1 705:1 1186:1 1195:1 1506:2 1552:1 1687:1 1918:3 
-0.055137213482864523561577385635246 29:1 500:1 601:1 655:1 688:1 751:1 1159:1 1302:1 1540:1 1654:1 1780:1 1889:1 
-0.062255535029985799300167315095678 302:1 919:1 1252:1 1480:1 1603:1 1705:1 
-0.037483737883059677076236226866968 184:1 445:1 667:1 704:2 949:1 960:1 1044:1 1167:1 1227:1 1782:1 
0.034561423893243937988106750935913 95:1 284:1 368:1 567:1 647:1 787:1 1078:3 1413:2 1464:1 1495:1 1734:1 
0.062255535029985799300167315095678 242:1 387:1 614:1 919:1 1078:1 1261:1 1333:1 1734:1 1839:1 
0.062255535029985799300167315095678 356:1 831:1 899:1 1334:1 1495:1 1734:1 
0.062255535029985799300167315095678 70:1 315:1 564:1 819:1 847:1 975:1 1379:3 1464:1 1626:1 1631:1 1837:1 1879:1 
0.062255535029985799300167315095678 70:1 162:1 417:1 496:1 515:2 602:1 845:1 1078:2 1705:1 1734:1 1905:1 
-0.062255535029985799300167315095678 368:1 426:1 904:2 911:1 1001:1 1694:1 1702:1 1864:3 
-0.062255535029985799300167315095678 148:1 273:1 382:1 435:1 567:1 602:1 936:1 1112:1 1330:1 1552:1 1557:1 
-0.062255535029985799300167315095678 134:1 140:1 191:1 199:1 647:1 845:1 919:1 1339:1 1687:1 
-0.022960830941552545780837135680486 2:1 273:1 787:1 803:2 975:2 1188:1 1530:1 1557:1 
0.062255535029985799300167315095678 323:1 462:1 1055:1 1345:1 1406:1 1470:1 1516:3 1579:1 
0.062255535029985799300167315095678 131:1 422:1 445:1 949:1 1281:1 1535:1 1571:1 1852:1 
0.062255535029985799300167315095678 33:1 274:1 323:1 391:1 468:1 1959:1 
0.062255535029985799300167315095678 6:1 49:1 91:1 612:1 891:1 1080:1 1518:1 1770:1 1886:1 1913:1 1995:1 
0.062255535029985799300167315095678 36:3 166:2 432:1 477:1 497:1 540:1 558:1 559:1 631:1 731:2 1231:1 1267:1 1314:1 1661:1 1727:1 
-0.062255535029985799300167315095678 55:1 154:1 503:1 771:1 783:2 1868:2 
-0.034647307588557489654856880179068 219:1 248:1 374:1 1020:1 1625:2 1651:1 1766:1 
-0.062255535029985799300167315095678 57:1 183:1 411:1 444:1 559:1 807:1 1040:1 1152:1 1278:1 1649:1 1782:1 1889:1 
-0.029103855522683508977310751220102 164:1 423:1 432:1 503:1 667:1 675:1 704:1 877:1 1040:1 1140:1 1255:1 1612:1 1691:1 
-0.062255535029985799300167315095678 118:1 129:1 259:1 492:1 524:1 653:1 711:1 847:1 878:1 982:1 1045:2 1263:1 1312:1 1348:1 1362:1 1464:1 1475:1 1618:1 1812:1 
0.062255535029985799300167315095678 148:1 157:1 263:1 512:1 614:1 648:1 787:1 880:1 1188:1 1301:1 1306:1 1498:1 1537:1 1552:1 
0.062255535029985799300167315095678 218:1 778:1 880:1 1242:1 1339:1 1413:1 1436:1 1809:1 
0.062255535029985799300167315095678 84:1 315:1 476:1 668:1 1043:1 1284:1 1385:1 1671:1 1741:1 1922:1 
-0.037048283395969300313410599301278 109:1 423:1 443:2 634:1 713:1 1276:1 1444:2 1477:1 1500:1 1651:1 1887:1 1899:1 1989:1 
0.062255535029985799300167315095678 142:1 278:1 688:1 709:1 773:1 1140:1 1156:1 1429:1 1652:1 1744:1 1748:1 1844:1 1889:1 
0.062255535029985799300167315095678 57:1 154:1 279:1 422:1 436:1 593:1 682:1 684:1 1079:1 1106:1 1555:1 1888:1 1890:1 1941:1 
0.062255535029985799300167315095678 142:2 222:1 593:1 662:1 783:2 913:1 945:1 1243:1 1371:1 1500:1 1977:1 
0.062255535029985799300167315095678 102:1 358:1 624:1 987:1 1035:1 1097:1 1182:1 1483:2 1621:1 
0.062255535029985799300167315095678 70:1 210:1 423:1 618:1 705:1 710:1 776:1 1143:1 1339:1 1494:1 
0.062255535029985799300167315095678 417:1 567:1 699:1 760:1 831:1 1321:2 1529:1 1537:2 1671:1 1687:1 1734:1 1838:1 
0.062255535029985799300167315095678 61:1 603:1 1592:1 1626:1 1723:1 1738:1 
-0.062255535029985799300167315095678 111:1 116:1 146:1 518:3 524:1 531:1 1329:1 1330:1 1552:1 1916:1 1938:1 1975:1 
-0.036813447067458884842672262038832 39:1 116:1 273:1 376:1 378:2 524:1 931:1 975:1 1068:1 1121:1 1552:2 1871:1 1915:1 1916:1 
-0.029376191843160190386718966237822 80:1 129:1 134:1 238:1 377:1 710:1 1228:1 1269:1 1276:1 1444:1 1457:1 1498:1 1536:1 1565:1 1702:1 1767:1 1864:1 1950:1 
0.062255535029985799300167315095678 649:1 994:1 1069:1 1375:1 1846:1 1958:1 
0.062255535029985799300167315095678 524:1 935:1 943:1 1329:1 1684:1 1938:1 1989:1 
0.062255535029985799300167315095678 8:1 325:1 628:1 1437:1 1445:1 1587:1 1853:1 1909:1 
0.062255535029985799300167315095678 23:1 47:1 54:1 363:1 592:1 925:1 977:1 1037:1 1338:1 1547:1 1729:1 1791:1 
0.062255535029985799300167315095678 179:1 723:1 1115:1 1276:1 1417:1 1702:1 
0.062255535029985799300167315095678 118:1 137:1 368:1 940:1 1097:1 1121:1 1452:1 1458:1 1822:1 1899:1 
0.062255535029985799300167315095678 195:1 926:1 1386:1 1480:2 1954:1 1959:1 
0.062255535029985799300167315095678 302:1 413:1 794:2 996:1 1508:1 1511:1 1531:1 1545:1 1672:2 
0.062255535029985799300167315095678 382:1 826:1 1537:1 1608:1 1691:1 1941:1 
0.062255535029985799300167315095678 291:1 323:1 458:1 1454:1 1926:1 1954:1 
0.062255535029985799300167315095678 417:1 778:1 838:2 899:1 1186:1 1321:1 1475:1 
0.062255535029985799300167315095678 64:1 388:2 1043:1 1188:1 1208:1 1313:1 1399:1 1549:1 1781:1 1821:1 1840:1 1858:1 1978:1 
0.062255535029985799300167315095678 439:2 630:1 676:1 1375:1 1732:1 
0.062255535029985799300167315095678 654:1 684:1 1090:1 1411:1 1639:1 1683:1 1785:1 1843:1 1949:1 
0.045573904701004815109843804066259 458:1 699:1 1326:1 1371:2 1464:1 1475:1 1687:1 1906:1 1918:1 
-0.062255535029985799300167315095678 41:1 129:1 302:1 315:2 404:2 602:1 845:1 1045:2 1200:1 1452:1 1809:2 1916:1 
-0.061230950890051941137848245944042 37:1 502:1 596:1 611:1 656:1 788:1 801:1 938:1 1172:1 1483:1 1676:1 1735:1 1752:1 1961:1 
-0.021199163046851966785144583127476 279:1 499:1 563:1 593:1 774:1 872:1 1012:1 1075:1 1201:1 1275:1 1351:1 1411:2 1426:1 1619:1 1865:1 1887:1 1928:1 1950:1 
-0.039235192430497681237433482692722 94:1 340:1 370:1 455:1 477:1 749:1 772:1 1465:1 1587:1 1730:1 1910:1 1977:1 
-0.024345265771299258450444114032507 231:1 327:1 620:1 656:1 781:1 811:1 977:1 987:1 1172:3 1298:1 1867:2 
-0.062255535029985799300167315095678 9:1 37:1 348:1 659:1 1384:1 1411:1 1639:1 1785:1 1994:1 1998:1 
0.062255535029985799300167315095678 111:1 263:1 648:1 752:2 1045:1 1420:2 1428:1 1452:2 1479:1 1552:1 1684:1 1906:1 1938:1 
0.062255535029985799300167315095678 34:1 57:1 108:1 388:1 763:1 949:1 1050:3 1137:1 1278:1 1414:2 1609:1 1758:1 1889:1 1945:2 1948:1 
-0.034618266718470395992834909293379 183:1 403:1 667:1 909:1 960:1 966:1 1050:3 1414:2 1478:1 1897:1 
-0.035310434342044658140302715310099 90:1 165:1 229:1 305:1 579:1 627:1 680:1 807:1 1099:1 1119:1 1414:2 1451:2 
-0.062255535029985799300167315095678 487:2 1010:1 1114:2 1375:1 1529:1 1959:1 
-0.062255535029985799300167315095678 387:1 547:1 594:1 935:1 1381:1 1442:1 1537:1 
-0.059468256978500021181499590738895 248:1 941:1 960:1 1058:1 1097:1 1241:1 1488:1 1686:1 1766:1 
-0.030838419519774246807530815317477 276:1 1090:1 1358:1 1574:1 1639:2 1683:1 1729:1 1785:2 
-0.041274556273487202073813051583784 2:1 47:1 64:1 379:1 381:1 495:1 806:1 1153:1 1185:1 1195:1 1373:1 1978:1 
-0.057761258743575294438699074817123 150:1 287:1 357:1 454:1 458:2 1254:1 1339:1 1480:1 
-0.058089207084001157066488474356447 1:1 187:2 264:1 360:3 363:1 1338:1 1544:1 1639:1 1919:1 
-0.050625815912397668927535931970851 91:1 264:1 434:2 553:1 657:1 1075:2 1127:1 1338:1 1499:1 
-0.062255535029985799300167315095678 325:1 418:1 427:1 1088:1 1369:1 1566:1 1586:1 1967:1 
-0.062255535029985799300167315095678 5:1 166:1 613:1 637:1 642:1 843:1 1046:1 1096:1 1106:1 1657:1 
-0.0047428867897382678137097045123483 13:1 106:1 715:1 876:1 913:1 918:1 925:1 1090:1 1205:1 1536:1 
-0.055915987386180497631382735335137 284:1 323:1 395:1 675:1 1028:1 1321:1 1386:1 1413:1 1479:1 
-0.062255535029985799300167315095678 381:1 409:1 579:1 684:1 1995:1 
-0.039825616095985408304791519640276 77:1 192:1 212:1 213:1 261:3 456:1 934:1 1000:1 1049:1 1239:1 1290:1 1833:1 1932:1 
-0.032726086535775140984316777803542 436:1 575:1 672:1 818:1 1229:1 1394:1 1580:2 1653:1 1889:1 
-0.0040833165377149125557787456841652 60:1 192:1 616:1 628:1 732:1 922:1 970:1 1053:1 1116:1 
-0.024588296331768979413601172723247 361:1 446:1 720:1 1097:1 1256:1 1264:1 1419:1 1458:1 1559:1 1567:1 
-0.042532348881621578895462221225898 182:1 208:1 259:2 262:1 486:1 695:1 750:1 780:1 943:1 1056:1 1150:1 1188:1 1285:1 1362:1 1630:1 1978:1 
-0.060795519914536633176993518645759 389:1 915:1 1008:1 1141:1 1184:1 1543:1 1748:1 1781:1 1821:1 
-0.044461314639402574333537643269665 85:1 102:1 243:1 460:1 684:1 791:1 1089:1 1170:1 1313:1 1483:1 1643:1 1690:1 
-0.010901135672510789409450637776899 143:1 497:1 500:1 840:2 1307:1 1469:1 1483:1 1536:2 1608:1 1978:1 
-0.015423180696393722077797150404876 454:1 458:2 705:6 760:2 1186:1 1254:2 1321:7 1326:1 1687:5 
-0.037894158083544265958053642862069 458:1 567:1 705:1 1078:1 1186:1 1254:1 1321:1 1734:1 1799:1 1879:1 1905:1 1911:4 
-0.062255535029985799300167315095678 291:1 1254:1 1321:1 1838:1 1959:2 
-0.037617992365771110718775105397071 137:1 512:1 739:1 787:1 803:1 943:1 971:1 1060:1 1284:1 1496:1 1549:1 1812:1 
-0.062255535029985799300167315095678 159:1 215:1 431:1 849:1 1072:1 1253:1 1429:2 1580:1 1945:1 
-0.062255535029985799300167315095678 166:1 444:1 466:1 522:1 662:1 850:1 885:1 1021:1 1199:1 1231:1 1474:1 1508:1 1812:1 1952:1 
0.062255535029985799300167315095678 129:1 157:1 531:1 787:3 956:1 1284:1 1289:1 1301:1 1552:1 1591:1 1702:1 1812:1 
0.062255535029985799300167315095678 9:1 45:1 85:1 354:1 702:1 987:1 1015:1 1172:1 1231:1 1313:1 1474:1 1826:1 1865:1 
0.062255535029985799300167315095678 260:1 265:1 276:1 612:1 797:1 929:1 1232:1 1234:1 1266:1 1360:1 1496:1 1593:1 1718:1 1962:2 1965:1 
0.062255535029985799300167315095678 37:1 328:1 351:1 363:1 501:1 629:2 640:1 1310:1 1384:1 1476:1 1492:1 1646:1 1675:1 
0.062255535029985799300167315095678 357:1 465:1 487:1 603:2 758:1 1556:1 
0.062255535029985799300167315095678 53:1 254:1 257:1 409:2 937:1 1053:1 1129:1 1206:1 1358:1 1560:1 1604:3 1904:1 
0.062255535029985799300167315095678 269:1 364:2 374:1 503:1 771:1 773:1 783:2 1580:1 1642:1 1653:1 1748:1 1823:1 1909:1 
0.062255535029985799300167315095678 232:1 1001:1 1269:1 1402:2 1406:1 1912:1 
0.062255535029985799300167315095678 195:1 291:1 547:1 
0.062255535029985799300167315095678 155:1 236:1 310:1 867:1 1073:1 1286:1 1405:1 1657:1 1837:1 1922:1 1957:1 
0.062255535029985799300167315095678 52:1 154:2 310:1 314:1 381:1 563:1 656:1 771:1 806:1 867:1 1199:1 1208:1 1239:1 1251:1 1292:1 1335:1 1340:1 
0.029634490817915883770217178039275 167:2 274:1 452:1 603:1 770:2 953:1 1010:3 1386:1 1592:1 1924:2 
0.062255535029985799300167315095678 1:1 81:1 239:1 279:1 1230:2 1322:1 1338:2 1426:1 1545:1 1736:1 1928:1 1931:1 1998:1 
0.062255535029985799300167315095678 118:1 582:1 1494:1 1812:1 1865:1 1940:1 
0.062255535029985799300167315095678 487:1 523:1 770:1 1603:1 
0.062255535029985799300167315095678 210:1 776:1 899:1 1122:1 1186:1 1254:1 1321:1 1495:1 1687:2 1911:1 
0.062255535029985799300167315095678 302:1 522:1 567:1 981:1 1078:1 1565:1 1728:1 1918:1 
0.062255535029985799300167315095678 630:1 639:1 969:1 1846:1 
0.062255535029985799300167315095678 88:1 131:1 382:1 586:1 631:1 646:1 830:1 839:1 963:1 1025:1 1067:1 1246:1 1562:1 1777:1 1823:1 1901:1 1988:1 
0.062255535029985799300167315095678 391:1 452:1 496:1 1546:1 
0.062255535029985799300167315095678 23:1 653:1 1051:1 1109:1 1176:1 1236:1 1338:1 1360:1 1411:1 1471:1 1650:1 1913:1 
0.062255535029985799300167315095678 107:1 129:1 179:1 440:1 548:1 710:2 904:1 1333:3 1477:1 
0.062255535029985799300167315095678 1118:1 1148:1 1187:1 1263:1 1467:1 1548:1 1615:1 1630:1 1647:1 1668:1 1878:1 1941:1 1961:1 1982:1 
0.062255535029985799300167315095678 598:1 763:1 787:1 1049:1 1185:1 1244:1 1313:1 1462:1 1500:1 1712:1 1736:1 1802:1 
0.062255535029985799300167315095678 196:1 505:1 988:1 1025:1 1119:1 1231:1 1400:1 1445:1 1521:2 1535:1 1927:3 1942:1 1985:1 
0.062255535029985799300167315095678 45:1 897:1 1025:1 1124:1 1165:1 1350:1 1823:1 1935:1 1985:2 
0.062255535029985799300167315095678 111:1 404:1 417:1 602:1 752:1 1115:1 1381:1 1413:1 1700:2 
0.062255535029985799300167315095678 224:1 386:1 490:1 501:1 612:1 656:1 794:1 891:1 1194:1 1519:1 1594:1 1754:1 1983:1 
0.028926671735838675736385283698837 134:1 191:1 357:2 547:1 1026:2 1421:2 1626:1 1723:2 1839:1 
0.062255535029985799300167315095678 134:1 357:1 440:1 547:2 578:2 591:1 634:1 723:1 1556:2 1930:1 
0.062255535029985799300167315095678 49:1 142:1 180:1 633:1 662:1 685:1 785:1 1061:1 1080:1 1119:1 1361:1 1672:1 1766:1 
0.062255535029985799300167315095678 33:1 392:1 458:1 523:2 705:1 1254:1 1738:1 1918:1 
0.062255535029985799300167315095678 33:1 167:1 454:1 496:1 926:1 1024:1 1454:1 
0.062255535029985799300167315095678 284:1 291:1 392:1 920:1 1355:1 1618:1 1906:1 1918:2 1924:1 1951:1 
-0.021716362266808668379791669167389 151:1 224:1 464:1 663:1 767:2 955:1 1067:1 1350:2 1789:1 1997:1 
-0.062255535029985799300167315095678 62:1 419:1 534:1 685:1 805:2 1119:3 1167:1 1350:1 1410:2 1414:1 
-0.062255535029985799300167315095678 123:1 382:1 566:1 874:1 914:1 950:1 1268:1 1471:2 1615:1 1748:1 
-0.059632998087286712141086297833681 41:1 157:1 492:1 603:1 920:1 993:1 1226:1 1598:2 1602:1 1951:2 
-0.054946670710764609901755051168948 241:1 651:1 825:1 862:1 873:1 1341:1 1445:1 1689:1 1823:1 1840:1 
-0.013129615648391740334588462246757 8:1 98:1 312:1 399:1 959:1 1039:1 1246:2 1274:1 1302:1 1569:1 1803:1 1826:1 1991:1 
-0.062255535029985799300167315095678 1480:1 1687:1 
-0.02075948803329601480283095327195 26:1 170:1 379:1 440:1 476:1 503:1 629:1 727:1 1152:1 1312:1 1333:1 1468:1 1500:1 
-0.062255535029985799300167315095678 27:1 578:2 787:1 872:1 1060:1 1187:1 1816:1 
-0.040742571561300448823583764124123 469:1 735:1 1049:1 1099:1 1193:1 1246:1 1653:1 1669:1 1672:1 1699:1 1890:1 1986:1 
-0.03452823373073927309961916876091 478:1 612:1 671:1 1017:1 1049:1 1190:1 1295:1 1297:1 1519:1 1564:1 1677:1 1696:1 1963:1 
-0.062255535029985799300167315095678 710:1 904:1 1506:1 1667:1 1738:1 1954:1 
-0.062255535029985799300167315095678 60:1 84:1 252:1 493:1 648:1 778:1 1236:1 1360:1 1379:1 1416:1 1518:1 1675:1 
-0.062255535029985799300167315095678 18:1 143:1 778:1 1081:1 1441:1 1565:1 1885:2 
-0.062255535029985799300167315095678 80:1 190:1 285:1 913:1 1201:1 1333:1 1528:1 
-0.055146718981888775967803439925774 316:1 593:1 832:1 946:1 1262:1 1338:1 1507:1 1559:1 1619:1 1791:1 1865:1 1877:1 
-0.022188134029502006722145424078008 83:1 155:1 169:1 238:1 440:1 863:1 1144:1 1338:1 1405:1 1583:1 1815:1 
-0.040407926867012659843947375293283 413:1 591:1 716:1 1260:1 1402:1 1422:2 1769:1 1961:1 
-0.055576864121654911965464407330728 236:2 408:1 1148:1 1753:1 1961:1 
-0.035931131270249307141373407148421 69:2 155:1 236:1 254:1 410:1 529:1 605:1 875:1 1154:1 1230:1 1305:1 1606:1 1617:1 1619:1 1636:1 1779:1 1813:1 1928:1 
-0.060132949296394205829230372728489 253:1 279:2 341:1 657:1 896:1 1075:1 1170:1 1230:1 1328:1 1351:1 1377:1 1639:1 1865:1 1962:1 1966:1 
-0.027776564218674568151890014178207 1:1 91:1 434:1 896:1 1492:1 1545:1 1690:1 1774:1 1877:1 1928:2 
-0.029849297520440565972821289619787 18:1 58:1 254:1 342:1 363:1 379:1 940:1 1280:1 1469:1 1596:1 1646:1 1691:1 1736:1 1792:1 
-0.020907503413072670711558842526756 607:1 639:1 642:1 869:1 881:1 1251:1 1613:2 1840:1 
-0.062255535029985799300167315095678 29:1 45:1 101:1 573:1 816:1 1521:1 1693:1 1985:1 
-0.062255535029985799300167315095678 18:1 148:1 155:1 273:1 368:2 652:1 921:1 1286:1 1427:1 1458:1 1536:1 1615:1 1859:1 1941:2 
-0.045752647302835985909652549707971 45:1 461:1 506:1 903:1 1394:1 1652:1 1921:1 
-0.015315303351587549601786619746235 23:1 51:1 81:1 205:1 281:1 328:1 867:1 944:1 989:1 1154:1 1316:1 1384:1 1548:1 1800:1 1817:1 
-0.038123118926424601204949738075811 45:1 101:1 237:1 403:1 558:1 586:1 891:1 1169:1 1597:1 1612:2 1637:1 1803:1 1899:1 
-0.043590342379719114462854889779919 34:1 52:1 122:1 502:1 538:1 754:1 1604:1 
-0.062255535029985799300167315095678 227:1 246:1 421:1 474:1 905:1 1168:1 1355:1 1729:1 1878:1 1882:1 
0.0076411207010343646164884923166483 284:1 647:1 648:1 752:1 778:1 833:1 1261:3 1379:1 1413:1 1452:1 1512:2 1537:1 
-0.062255535029985799300167315095678 505:2 1025:1 1927:1 1942:2 1985:1 
-0.062255535029985799300167315095678 111:1 137:1 435:1 492:1 739:1 893:1 975:1 1019:1 1301:1 1530:1 1671:1 
-0.0023353696513362842863970048057354 127:1 252:1 257:1 726:1 753:1 804:1 944:1 1062:1 1171:1 1332:1 1850:1 
0.062255535029985799300167315095678 236:1 254:1 261:1 273:1 349:1 382:1 457:1 530:1 612:1 633:1 1043:1 1256:1 1471:1 1753:1 1822:1 
0.062255535029985799300167315095678 29:1 45:1 173:1 270:1 1106:1 1229:1 1231:1 1306:1 1362:1 1577:1 1619:1 
0.062255535029985799300167315095678 293:1 519:1 577:1 907:1 1014:1 1025:1 1119:1 1243:1 1899:1 1942:1 1985:1 
0.062255535029985799300167315095678 319:1 566:1 580:1 654:1 1560:1 1619:1 1871:1 1904:1 1941:1 
0.062255535029985799300167315095678 775:1 819:2 904:1 1417:2 1728:1 1864:2 
0.055784498267595634957149997035231 284:1 404:1 435:1 492:1 647:1 833:1 1261:1 1287:2 1371:1 1878:1 1938:1 
0.062255535029985799300167315095678 118:1 386:1 468:1 571:1 602:1 911:1 1326:1 1379:1 1671:1 1691:1 1876:1 
0.036304530300128382003244098541472 191:1 199:1 368:1 401:1 462:1 522:1 591:2 602:2 837:1 853:1 872:1 1468:1 1520:1 
0.062255535029985799300167315095678 179:1 314:1 711:1 973:1 975:1 1423:1 1513:1 1729:1 
0.062255535029985799300167315095678 682:1 802:1 806:1 858:1 1301:1 1347:1 1577:1 1720:1 
0.062255535029985799300167315095678 48:1 57:1 72:1 1156:1 1544:1 1608:1 1650:1 
0.016240405321579748365579121127666 357:2 449:1 587:4 710:1 1026:1 1214:5 1556:1 1788:2 1868:1 
0.062255535029985799300167315095678 33:1 468:1 649:1 895:1 1454:1 1732:1 1926:1 1959:2 
0.062255535029985799300167315095678 95:1 123:1 179:1 496:1 570:1 935:1 1060:1 1767:1 1864:1 
0.018893778262738830653333366171864 263:2 598:3 614:2 648:1 981:1 1081:1 1158:1 1261:1 1442:2 1602:2 1700:1 
0.062255535029985799300167315095678 2:1 368:1 386:1 457:1 524:1 640:1 739:1 1001:1 1475:1 1694:1 1887:1 
0.062255535029985799300167315095678 148:2 394:1 1138:1 1266:2 1297:1 1472:1 1599:1 1628:1 1865:1 1902:1 
0.058263770812173924784627132567039 199:1 232:1 335:1 337:1 512:1 761:1 1287:1 1344:1 1436:1 1480:1 
0.062255535029985799300167315095678 26:1 210:1 232:1 491:1 630:1 973:1 1705:1 1728:1 
0.062255535029985799300167315095678 57:1 108:1 500:2 960:1 1124:1 1165:1 1219:1 1350:1 1410:1 1674:1 
0.062255535029985799300167315095678 274:1 676:1 831:1 953:1 994:1 1454:1 1470:1 1546:1 1667:1 1846:1 
0.062255535029985799300167315095678 454:1 523:1 758:1 760:1 920:2 1287:1 1579:1 1603:1 
-0.0031730164244464162393022377273155 18:1 163:1 407:1 426:1 543:1 662:1 911:2 936:1 1312:1 1389:1 1871:1 1982:1 
-0.062255535029985799300167315095678 168:1 278:3 384:1 533:1 534:1 1217:1 1303:1 1632:1 1649:1 1674:1 
-0.059277590355115414300080090015399 210:1 391:1 776:1 1326:1 1339:1 1734:1 1918:1 1924:1 
-0.052147216241078001019992882447696 225:1 666:1 790:1 806:1 839:1 973:1 1316:1 1486:1 1627:1 1655:1 1709:1 1964:1 1968:1 
-0.062255535029985799300167315095678 71:1 180:1 288:1 694:1 1223:1 1255:1 1436:1 1529:1 1531:1 1767:1 1770:1 
0.062255535029985799300167315095678 79:1 263:1 476:1 761:1 789:1 796:2 893:1 1001:1 1360:1 1565:2 1671:1 1916:1 1975:1 
0.062255535029985799300167315095678 35:1 187:1 386:1 633:1 844:1 882:1 1268:1 1544:1 1639:1 1659:1 1810:1 
-0.036080746744109333523642391128305 156:1 394:1 560:1 660:2 882:1 1063:1 1142:1 1424:1 1544:1 1660:1 1763:1 1771:1 1881:1 
-0.062255535029985799300167315095678 359:1 871:1 1032:1 1417:1 1728:1 
-0.062255535029985799300167315095678 570:1 591:1 826:1 1046:1 1266:1 1269:1 1312:1 1374:1 1659:1 1767:1 
-0.018472261717399216657264915397718 49:1 100:1 221:1 396:1 483:1 540:1 613:1 679:1 700:1 885:1 1124:1 1335:2 1487:1 1744:1 1993:1 
0.062255535029985799300167315095678 210:1 401:1 468:1 618:2 864:1 1345:1 1585:1 1990:1 
0.062255535029985799300167315095678 210:1 315:1 364:1 462:1 522:1 602:1 699:1 776:1 845:1 1579:1 1723:1 1839:1 1876:1 
0.062255535029985799300167315095678 63:1 195:2 202:1 462:2 639:1 1480:1 1788:1 1990:2 
-0.042717157272821437707932545890799 63:1 100:1 443:1 468:1 484:1 571:2 591:1 610:1 872:1 1055:2 1115:1 1585:1 1691:1 1770:1 
-0.062255535029985799300167315095678 364:1 758:2 1442:1 1628:1 1800:1 
-0.047836069011756653102107605946003 10:1 329:1 758:1 920:1 1008:1 1382:1 1586:1 1679:1 1880:1 
-0.020286256005240942135170456595006 85:1 261:1 286:1 852:2 858:1 867:1 948:1 1000:1 1290:1 1313:1 1509:1 1646:1 1820:1 1851:1 
-0.0065251062730771053344014376307314 155:1 810:1 841:1 1073:2 1192:1 1543:1 1636:1 1724:1 1733:2 1904:1 1996:1 
0.062255535029985799300167315095678 518:1 570:1 1301:1 1561:1 1940:2 
0.062255535029985799300167315095678 95:1 284:1 491:1 752:2 778:1 803:1 1242:1 1379:1 1428:1 1494:1 1561:1 1879:1 
-0.062255535029985799300167315095678 107:1 570:1 739:2 787:1 803:1 893:1 1060:1 1077:1 1121:1 1195:1 1306:1 1859:1 1982:1 
-0.056083951106593581126258385438632 35:1 125:1 142:1 164:1 374:1 606:1 749:1 772:1 773:1 898:1 1021:1 1034:1 1308:1 1555:1 1894:1 
-0.0061121693088321549236496821322362 113:1 491:1 552:1 751:1 757:1 798:1 809:1 995:1 1094:1 1308:1 1395:1 1987:1 
-0.059547304986574303709012667695788 107:1 157:2 386:1 512:1 545:1 653:1 682:1 1060:1 1590:1 1618:1 1982:1 
-0.035694340531452095621745002063108 88:1 369:1 455:1 500:1 606:1 688:1 768:1 849:1 891:1 949:1 1029:1 1229:1 1283:1 1409:1 1562:1 1888:1 
0.062255535029985799300167315095678 267:1 291:3 428:3 454:1 1375:2 
0.062255535029985799300167315095678 267:2 291:2 392:1 428:2 649:1 994:1 1506:1 
-0.062255535029985799300167315095678 195:1 454:1 566:1 1321:1 1386:1 
-0.012000167016973421751924178124682 332:1 380:1 734:1 1391:2 1805:1 1909:1 
-0.040631957098325517663273132029644 347:1 503:1 701:1 1084:1 1103:1 1284:1 1299:1 1355:1 1360:1 1581:1 1618:1 1865:1 1931:1 1989:1 
-0.045364674182128972290684032486752 222:1 389:1 629:1 726:1 774:1 1132:1 1194:1 1198:1 1596:1 1672:1 1760:1 1857:1 
-0.039742600251712362213751816852891 226:1 268:1 612:1 929:1 1182:1 1191:1 1297:1 1309:1 1609:1 1747:1 
-0.05477375686726204673249185361783 278:1 395:1 560:1 978:1 1203:1 1426:1 1567:1 1738:1 1889:1 1927:1 
0.034548242169889019359541038056705 116:1 137:1 273:1 1019:1 1321:1 1561:2 1618:1 1626:1 1700:1 1728:1 1799:1 1837:1 1871:1 1878:1 1975:1 
-0.039494520676398602032630691383019 134:1 285:1 546:1 563:1 654:1 727:1 855:1 918:1 920:1 1190:1 1334:2 1339:1 1556:1 1839:2 
-0.053863992254664351533310906461338 392:1 454:2 831:1 1321:1 1454:1 1905:1 1911:1 1926:2 
0.062255535029985799300167315095678 146:1 199:1 368:1 404:1 778:1 1618:1 1630:1 1631:1 1700:1 1871:1 1906:1 
0.062255535029985799300167315095678 335:2 547:1 587:1 853:1 926:1 1556:1 1788:1 
-0.062255535029985799300167315095678 518:1 847:1 1330:1 1452:1 1479:1 1631:1 
-0.0059134668035431417823510891196293 654:1 1066:1 1338:1 1358:2 1405:1 1593:1 1729:1 1741:1 1785:1 
-0.044988918961979117161487096154815 103:1 169:1 470:1 553:1 599:1 1066:1 1232:1 1293:1 1683:1 1729:1 1893:1 
-0.044631513365093543332928760491995 13:1 52:2 103:1 314:1 424:1 1262:1 1378:1 1471:1 1646:1 1781:1 
-0.050900467372076575733874648221899 1:1 9:1 205:1 209:1 328:1 433:1 525:1 794:1 858:1 1753:1 
-0.029851425087066663782708886287764 120:1 768:1 1255:1 1745:2 
-0.027696213815503110261539987391188 22:1 874:1 910:1 1282:1 1445:1 1762:1 1988:1 
-0.062255535029985799300167315095678 11:1 477:1 540:1 709:1 1742:1 1873:1 
-0.062255535029985799300167315095678 88:1 986:1 1130:1 
-0.047946292603411030941451542730647 3:1 590:1 669:1 1164:1 1187:1 1196:1 1407:1 1514:1 1736:1 1773:1 1875:1 
-0.062255535029985799300167315095678 177:1 458:1 515:1 534:1 1556:1 1579:1 1592:1 1911:1 1918:1 
0.062255535029985799300167315095678 170:1 349:1 457:1 491:1 656:1 694:1 806:1 920:1 1251:2 1310:1 1344:1 1511:1 1613:1 
-0.0060897633819968748775108835502579 166:1 490:2 542:2 974:1 1451:1 1786:2 1960:1 
-0.00095708703055039394055891754931054 94:1 416:1 622:1 751:1 1300:1 1540:1 1854:1 1895:1 1997:1 
-0.038853653741755922457201677389094 373:1 572:1 583:1 623:1 1665:1 1745:1 1748:1 1870:1 
-0.062255535029985799300167315095678 564:1 1428:1 
-0.062255535029985799300167315095678 685:1 988:2 998:1 1050:1 1080:1 1303:1 1361:1 1766:1 
-0.037715542013322951586662412637452 310:1 446:1 589:1 906:1 1145:1 1184:1 1503:1 1813:1 1867:1 
-0.0051469194745841287397247754142882 325:1 490:1 717:1 1147:1 1213:1 1669:1 1840:1 1983:1 
-0.025271669029438632164685785141955 74:1 224:1 297:1 530:1 852:1 981:1 1097:1 1142:1 1847:1 1960:1 1993:1 
-0.034523059468125179283237713434573 182:1 410:1 486:1 595:1 790:1 1467:1 1510:1 1547:1 1733:1 1776:1 
-0.00057697693853977095185259216236773 56:1 230:1 478:1 627:1 628:1 645:1 698:1 828:1 1215:1 1488:1 1851:1 
0.050940725746335666079822601659544 33:2 335:1 468:1 895:1 1954:1 
-0.062255535029985799300167315095678 564:1 752:2 833:1 971:1 982:2 1045:1 1413:1 1700:3 1912:1 
-0.03708961880502594649078318411739 64:1 137:1 188:1 492:1 512:1 653:1 695:1 787:1 803:2 1056:1 1235:1 1362:1 1557:1 1607:1 1618:1 1630:1 1869:1 1871:1 1878:1 
0.058012764799843859198080764372207 143:1 304:1 455:1 530:1 633:1 644:1 709:2 1217:2 1555:1 1763:1 1782:1 1878:1 
0.044354231554643137880322711907866 73:1 316:1 409:2 498:1 628:1 637:1 684:1 927:1 950:1 1118:1 1206:1 1268:1 1307:1 1389:1 1393:1 1411:1 1711:1 1781:1 
